-2.148297802804017,-3.895031881071507,-0.3549444852779806,-1.0121580428354773,-0.3980434117636313,0.011789244116411109,-0.11783970893550025,0.04111779041014315,-0.35916096729088803,-0.31971483020836505,0.05802295518439366,-0.9123184401033874,-0.2995097354702578,-1.7911329123706399,-0.27712950293482286,-0.24598558546150306,-1.3134857043407775,-1.4552898433825225,-0.08292363460324412,-0.3704010151612683,-0.4529372470204939,0.0020301440084094895,0.22480379163778358,-0.04184177685104634,-0.07039540215439812,-0.1401045972721188,0.3014580525844932,-0.44445353094668916,-0.4662418486186063,-0.6579781592638336,-0.33531970137451467,-0.10216352722751104,0.10102211483231385,1.9691105918371277,0.5817760213992128,0.19405847132726062,-0.11956185330479527,-0.6626693796354889,-0.4421654077651813,0.27305844261838397,-0.06023115368983735,0.09335326360788865,-0.3287811842474936,-0.5673908193389937,-0.15302215142175973,-0.10084054899090263,-0.6702696634890617,-0.30515108926104345,-0.7008088595060241,-0.34387271611853854,-2.841415001564836,-0.38574264926336693,-0.14058007905093042,-0.36544262936551825,-0.46735198624478375,-0.204154561717691,-0.5625045008888897,-0.711870051173956,-0.49768513099556616,-0.4929796523429671
-4.3874095447135755,-7.027222345560683,-0.8458502064208024,-2.0580827849563526,-1.1092599509516081,-0.16705645810170802,0.23882884747862881,-0.7462325072344552,-1.0192019575351314,-0.22016001362711043,-0.6261622004198955,-0.4188907944324763,-0.6286647616346597,-1.8974979367735463,-0.6628193568491282,-0.7178673731379004,-4.444150544681227,-1.3559378063795489,-0.5994615455728748,-0.13769451991003095,-0.36704308177325656,-0.9068668389621644,-0.9304070507600507,-0.3268487418041891,-0.2705218115404643,-0.6918925077434264,-0.38524307177924666,-1.1133991400892378,-0.6418814024106135,-0.6272687175189307,-0.5870702615044328,-0.9858073150067501,0.8433026771629483,4.87148821037807,-0.7198839268932463,-0.19499034124915535,-0.721253748131114,-1.0108123200787287,-0.3742243019069889,0.9590171460103376,-0.6612953549513196,-1.0854754552815298,-0.68087652831738,0.33892728062626987,-0.432457370348105,-1.1092893835619422,-1.1071394413820308,-0.3062109511183911,-0.7080679243742791,-0.14088884085685355,-2.4032179886234513,-0.5799640634111988,-3.5615495975983023,-0.6406392479789063,-0.15581296357832292,-1.07807848652429,-0.9407956630611563,-1.2102435012364205,-1.5300671023145045,0.04040582227646654
-1.965968567711127,-1.5542530976859155,-0.9758449966274162,-3.9939362741792848,-1.165160699165366,-0.07936137634817578,-0.6945017601833748,-1.0923512373099034,-1.0343213778431888,-0.4935147093675824,-0.9447059269319892,-2.4411751660415266,-0.9663670596623208,0.18176385464193567,-1.1679623659838232,-1.108064271296517,-3.8914384415728116,-3.1078238418343425,-0.7845564100372838,-1.54426195364621,-0.8913678391215218,-1.2883556636050202,-0.9991427787360587,-0.7512732271726744,-0.5146460606996286,-0.850818996175457,-0.5109909026796575,-1.161596915291314,-0.188503572592945,0.07814170428377064,-0.8541450254376483,-1.1788347394396164,-2.1661277195532493,-0.8332943757856704,-1.305922541816357,-0.6344203914100728,-0.8745531888997166,-1.4588983306985386,-1.5421413975320781,-0.6285400079804945,-1.1549061341300126,-0.7002521573581475,-1.5965602592941683,0.6075404824435561,-1.5341654230900945,-0.8524230240326406,-0.9756168479987323,-1.2630835340424356,-1.4979742445565225,-0.8552544657130242,-4.7516640449971765,-0.6937431247726292,-1.7437634912677893,-0.8106449880744394,-1.540131799690448,-0.9290180251598644,-1.364848278049999,-0.8809351150891931,-1.20841164183956,-1.3209404728560277
-1.4354336128497935,-4.206403287505646,-1.0126114336666172,-1.0866638827320405,-0.319270127498727,-0.4262572864798189,0.296760747543702,0.10917911698969694,-0.44875086291135324,-0.5639261350691437,0.052857833747317666,0.18849460480778726,-0.1695959921935231,-1.8914748506551915,-0.3474618105914438,-0.26561427169987506,-0.9841099239728327,-1.5403674889556154,-0.6140715696961281,-0.15031719982778438,-0.4130947797077155,-0.23687659293208507,-0.2994535071039716,-0.21272926602244055,-0.26906224000596585,-0.012217843073185027,-0.12207670262583592,-0.97094345907164,-0.7027699572510715,-0.41811971772370604,-0.16204839720870104,-0.24137819111189845,0.6725834579862848,2.292856472026731,0.9120228176616335,-0.17186387374958315,-0.3199431077166532,-0.9423758843658353,-0.620870508225101,0.3062012339872632,0.1200949259068062,0.13844971139242243,0.05912633816835487,-0.43883028616224,-0.3865671272576023,-0.752563436332921,-0.66959327374817,0.06315985410645243,-0.8394748016093867,-0.2772979354197446,-3.127013602299816,0.03795773139292497,0.8199884092907519,-0.2858958088649736,-0.47571588278691185,-0.6925340002278113,-0.8547119948124595,-0.5156972993397836,-0.3449355562211017,-0.24347944603832133
1.1654795953658377,1.2719917345439464,-1.1765302984137052,-2.714587929959878,-0.21798871896152977,-0.11516920863527745,-0.6495618913571283,-0.28811552679135405,-0.9754449786863143,-0.5809839856570158,-1.3915577664538958,-0.9762630715022804,-0.5148369952139932,-4.29642026562684,-0.3872525341198451,0.29712421750373974,0.0832660101125014,-1.2367434164950803,-0.03816164275658766,-0.5488796879784161,-0.729630239493738,-0.41884357763319774,0.5981907097274545,-0.4754067457781476,-0.15138874387981724,-0.2063898482988379,-0.38262369726837675,-0.7621647598682262,0.49039658251981777,-0.485601578246359,0.02971101306159173,0.17454781280886325,-2.2031472759528548,1.6472360262465435,-1.5334282932950618,0.12690801653943376,-1.0869863830858444,-1.2545548900953356,-0.7155924667167053,-2.0747665948963774,0.5126741510052528,-0.07724507986724043,-0.3046385273112584,-0.259980521000798,-0.37348743023709197,-0.8841836037490232,-0.29557192109426444,-0.23808337205010321,-0.9306336860111487,-0.3937586969670824,0.6960292062273093,-0.2948535662823794,-1.0351121799376601,0.29977326848677094,-0.38825543447605565,-0.8374174886263881,-0.8739123396023705,-0.19084460299874706,-0.15388003491346156,-1.9956781073120284
1.0637661564504914,-3.419311080028894,-0.35372988438032815,-1.7502416669435954,-0.6192338212771594,-0.09116514371361326,0.6770258004571363,0.08986379967541668,0.0962093003554928,-0.026050217207091476,-0.09358529002451392,2.2255927897175116,-0.6059720633654455,-3.108260307793548,-0.19322796268078613,0.11909904707830503,-1.2222751840724484,-0.949534030674059,-0.49366816074314945,0.0738987033973933,-0.12619870362047064,0.33109627875996006,-0.14722035787727877,0.09014662052072916,-0.04346121619482113,-0.027883200591017798,-0.4224977913818369,-0.4951609670424031,-0.36961261659890343,-0.8103478262226993,0.1646233219351201,0.32888483565605425,-0.15711344941286975,1.013336191102582,0.2566802769814013,-0.029124630248213716,-1.212818627818976,-0.09698347558429929,-0.11688994309626932,-1.1502748373150966,0.24349819732872646,0.2911819457058102,0.20995411155012778,-0.38700858319000075,0.6611962794022628,-0.4148965296815097,-0.0599236367722223,0.5367736368746401,-0.1590650510016054,-0.16410002048833958,-0.35767578039373066,0.4286987590923033,-1.187542123933073,-0.04396780691809526,0.36377514419382745,-0.10296032157775885,0.35758077851776376,-0.11775508377658869,0.05720134877024605,-1.3613949918588515
2.3131042555175023,1.6731028648003847,-0.2251922304084283,-3.446753133729422,0.16221317699982174,-0.21239767651259622,0.043276094808837644,-0.31114388265560305,-0.20465282242600202,-0.5266308549949663,-0.24560015103074184,0.9244549099687285,-0.11693662278267941,-2.088195150667059,-0.5262821188699762,0.5735293442957391,-1.4263479702270934,-1.1318830977778958,-0.9192006334953726,-0.08192105067985178,-0.2108824887301497,0.379676126779477,0.21495334940053276,-0.17188563293445977,-0.025354980677352645,-0.22255078220238197,-0.32035762156615016,-0.4325448754266986,0.3012184103665185,0.3659127886067385,-0.15297632673284375,0.3284289555688247,-0.6766746625129528,-0.9457894855756562,0.967408732336676,0.16404650203028287,-0.7460181390451739,-0.880467855706919,-0.286744649568502,-0.11576292135684357,0.267329111606567,-0.05055002032862459,0.23541062146458375,-2.3770564036200628,0.5618371916968908,-0.36643016032063214,-0.582760788355734,0.028779414492131138,-0.36443619450268616,-0.42363313834195027,1.1945958154945286,-0.3735552899234603,0.14194926527153795,-0.0644696915827597,-0.16554608465560902,-0.10439453674315899,-0.7062982374692938,0.00855370216883385,0.0037664887266456574,-1.1368662858558185
-4.687327032037289,-2.6198035801096315,0.1419586430041537,-1.7160875844358483,-0.03622027918266862,0.17757414641811137,-0.08213724650118807,0.3594918515444406,0.29433560164112166,-0.3421778867048047,-0.6711918696628795,-0.9566987841101838,0.926173103373313,-1.5846816365580416,0.4986023483058406,0.453225116396678,-1.6414196759061956,-0.40889535216667405,1.0058566743736221,0.10614923005947602,0.06907272146989446,1.4466012171612437,-0.2689375189148694,0.10004388313197955,0.36711533704024385,0.5933914955978897,0.021516944002789543,0.34252352771533073,-0.27535126257045056,-1.2916428772267468,0.31647402674567976,1.0515106300066113,0.0056549013088146435,-0.887591947825545,0.20899800754456377,0.39658258945408575,-0.8356600599108126,0.5841415020146427,0.41713366488732945,0.26829656776880434,0.7019072149160149,0.06661836790362738,0.7883702960533742,-0.3913406865390835,-0.39080971866891184,0.6500235178543766,0.3118756342687903,0.7116194756407498,-0.08210949928648145,-0.2834355312395304,0.9903427748614005,0.29500624645472456,-0.21485879519419043,0.477380780610623,0.07083493385273455,-0.13380273861329325,-0.20708904241971407,0.4024826196004741,0.7681599982859981,0.024198857570891453
-1.6684985942682364,-4.690686564675491,-0.33270786673682085,-4.245327473271333,-0.3066986949121169,0.018134342523023178,-0.2963739306704915,-0.5582054162934433,-0.3375772270787498,-0.19531181717749738,-0.6949195545521711,-0.5768101936617923,-0.3415129979826932,-3.590029223671606,-0.6216960042874984,0.17524769443034954,-2.794293727206373,-2.125174341212265,-0.2405363503260084,-0.12469333210310181,-0.1871237125500932,-0.5171677827468651,-0.4791109887701,-0.1540449448909469,-0.11727338219341726,-0.11581499794831092,-0.47309124930719904,-0.8032949576694794,-0.8034404568833409,-0.8911978607676054,-0.44762446626662344,-0.4230509474415516,-0.1709473075129899,2.2134410767721953,0.3846283506428751,-0.13559278815216042,0.22476747578673084,-0.6247534881307398,-0.109314566642149,1.2514324812203519,-0.3686532579001142,-0.604621098905122,-0.16289231371377963,-0.6276077848748348,-0.11495006632717218,-0.30266161353095294,-0.1861907920388121,0.15774214302337133,-0.18001103304625907,0.10257669821719713,-4.377087432684351,-0.3021785070766228,0.49965362052771845,-0.12134927630603234,-0.1477073613900842,-0.023804354121087244,-0.7459036510926765,-0.037690577545098684,-0.5292861091096442,-0.3187261046964471
-4.625721532531211,-6.260059183467845,-0.8755813637149588,-1.8825174757158327,-1.4849410975573298,-0.987303516991345,0.389288903708451,-1.0828597274218417,-0.6296270552573403,-0.15799345195751133,-0.7433597778988681,-0.48610678273968283,-0.6966681512696191,-0.7001669656820013,-0.56242676970656,-1.5000439381668316,-2.6042006512172877,-1.1511943154171305,-0.43844489524901065,-0.27799906861990525,-0.6639964453784182,-1.2650185559219052,-1.3746662180317342,-0.8512271711805705,-0.6912864908909273,-0.5932074078177054,-0.5649812268770649,-0.6135755755323613,-0.9914626105006423,-0.3141503302993858,-1.2582618417192022,-0.3265999109074728,0.22178621558199688,0.210416232579706,-1.7305973029094646,-0.48155540701914995,-2.2433349237394835,-1.050720120333069,-0.835176122121275,0.09172338389906272,-1.6213819997014784,-0.8329716264777473,-1.8750134042369186,2.6698701086192047,-0.64156942410848,-1.3505661281391879,-0.7168395967209953,-0.8362615075972063,-0.8779344982753354,-0.37949848820931537,-3.1826733611566334,-0.44807809304071394,-5.967823440567934,-0.78477538456328,-0.709275455775406,-0.6300659461814779,-0.6415636126184563,-0.41225868814040145,0.021786333136124564,-1.404469289139939
-1.9150298830362438,5.507898564603532,-1.822808480276985,-4.970368212137976,-1.4279377806716744,-0.8792971088983944,-0.1842847249909984,-1.9106417434755099,-2.4960813715290975,-1.8066752717688566,-1.0008131068795558,-6.49426027784971,-1.132589414161206,5.692720311799401,-2.119545939948138,-2.6532299393541368,-0.19489668775587843,-3.4304160374896653,-0.08684862958304965,-2.8574106225743416,-1.6801501779086268,-1.9805949734837733,-2.7059690699546906,-2.1751714447045107,-1.134192222827605,-0.8336739876785848,-0.504647575005442,-1.9961307146438252,-0.8505545647895262,0.9601088584934712,-2.582494503777593,-1.9423543998770616,-2.9638453894057863,-6.524924629127769,-2.0281615316895025,-0.8117104800127599,-3.641825296101366,-3.838364386582621,-2.3168817956878716,-1.809004705144464,-2.6799481563735665,-0.6203060668628316,-2.3052291974973826,-0.28376554371770085,-3.0783028244554123,-0.6815863539989603,-2.0753076345085537,-2.1143907203371897,-3.5490577148589217,-1.1437962289713683,1.4250973466770493,-1.3024847152403283,-5.884163199659183,-1.5789476249671757,-2.568970231156157,-2.189867154740414,-3.6873464455619516,-1.8346494990002689,0.9581249125125495,-1.7234311187893365
-4.178534670949988,-2.525486403863576,0.7247797403800494,-0.68097492754997,0.8142448601190646,0.24844022949547226,-0.053789861399322306,0.33904570233732034,1.008568747588054,0.7429071640450189,0.3975134614247945,1.3012822279268619,0.7052011457785007,-0.788896996386901,1.0847725259329177,0.39194979209532704,-3.5399787560262643,0.04215730339931705,-0.014130464828254904,0.14967263516116036,0.9878570350875358,0.3139556165555997,0.43411659175588935,0.4857744285296205,0.6461101098732742,0.32787975780582884,-0.3661102114886691,0.8953456806304808,-0.08983656770372458,-0.6521734811983004,0.3871543852472473,0.37875047725347255,0.6812356239387626,3.7921596718177546,-0.2612643374427565,0.2412266790602489,1.1396399406698228,1.2072956775411767,1.177741044808927,0.4835624481935578,0.4846884305771999,0.0020018268767427326,0.5916965295473101,0.21843730087545896,0.4188259446534709,-0.06007702817019457,0.671246706613971,0.5005110491010445,1.1125297622691253,0.39829866942978337,-2.09446264025555,0.32138385245853607,1.4444609323566164,0.5152344516299875,0.815189539999775,0.9797073256548705,1.4465999578683852,0.4011249440425687,-0.04146847592948921,0.7539760416920686
1.3250988885085107,4.4061165137089455,-1.9211942930251147,-3.0965411762924515,-0.47739269159838715,-0.4951279377431066,-0.6001295248233056,-0.8800922583031323,-1.3195026779671515,-1.3496401290628808,-0.4013935966441744,-3.13289751988558,-1.0115879802218466,-1.6526995580458643,-1.9386980983811115,-2.0785896654001355,-1.6479526731112113,-1.4762219312188727,-0.2301686859443361,-1.382714398391602,-1.2050824984927062,-2.1393755805256585,-1.0816503824859611,-1.474448748094405,-0.9916102896769167,-0.9650810851893322,-0.513503520861286,-2.0448858506559064,0.07242701598910854,0.7905145347537631,-1.8186194431994698,-1.8181614875398102,-0.4320898085686101,-4.454309042099826,-1.9058571193281886,-0.9175930715329899,-1.6205466358925829,-2.613443136410491,-2.3700709349502116,-1.0042035126489932,-2.238508562640762,-0.8265602287536595,-2.0701382448650274,-2.894305354299486,-1.431897484275529,-0.42822199219684015,-1.63081478563626,-2.244230025268423,-2.6750603459910396,-0.8019478421578985,1.2784565789051814,-0.9753028901555755,-6.588686006074566,-0.8369943507576841,-1.6696512196352389,-1.9622698790418784,-2.523952474988782,-1.7786893642569541,-0.7717299467972937,-1.1742723912675939
1.696340141411994,-1.8390710046837428,-0.23214203979236034,-1.6740163832485067,0.7125878106881021,0.19810777547356945,-0.2413060130606942,0.7207052906047634,0.5525862124795179,0.24302188551297604,0.11750101214802745,1.8938276411514205,-0.04500673891193824,-0.92247727561785,-0.13742564391907391,0.24011610289318594,-3.0955319387792084,0.17396990108524765,0.16114367006154848,-0.21788332234271174,0.43110521823896675,-0.04371656141216554,0.4312290533485822,0.6023584409110545,0.1380394856131122,0.34082089220764056,-0.14571179962998673,0.19366835228247017,-0.8037240826542097,-1.535747094496577,0.3434480538152196,0.38900371490321045,-0.26451298737222967,2.4023967503399377,-0.020083571665361212,0.12143047050096327,0.4736043048160185,0.6619869281471549,0.5956771094409119,-0.14351613317127,0.5307977033777065,-0.22378221933039366,0.45540941943272967,3.368206713274808,0.7069414303759306,-0.5087531549749116,0.30095529760285894,0.5150051059197331,0.4444201851950888,0.12492647057508287,-1.4434389694213166,0.3178380344818283,1.4117102790070821,0.974278378526557,0.553814915313693,-0.480739374656952,-0.012099760396070974,0.07961504566026,-0.41388276862224105,-0.043643759736262666
3.755991097568395,-1.1014586911265996,-0.7648312521796161,-2.5690817456375785,0.39991564804070395,0.05703309348132567,-0.19254118545970925,-0.028217273978301795,-0.5361455309872976,-0.1934437102610701,0.2884687574582646,0.6899576650445244,-0.780372368427714,0.7283942901606748,-0.24583030930542082,-0.20391075900358877,0.2058060029298294,-1.0262236881354125,-0.522211132517371,-0.48684273369248743,-0.09308848418176277,-0.6008207790117726,-0.02767128993442585,0.2576783112986463,-0.13981061575527104,-0.052281785388054815,-0.4251011051721505,-0.3413538878717599,-0.29273822186003756,-0.5134669175811216,-0.18725572435267304,0.08954172847346283,-0.32223158208370584,-0.1869896125950761,0.4950695997743967,-0.21538343970224688,-0.5743944233648777,-0.6790976074769546,-0.3442705984226268,-0.44437240860561544,0.11257078615917396,-0.2364669067410849,-0.2776642237132438,1.1913378457835742,0.1859578302971367,-0.47690782207908994,-0.17195452930411156,-0.03431839341849315,-0.7275427526807176,0.22955062111768984,-0.6815725326406881,-0.30071325902778184,-0.0716808225585273,0.21732365980744953,-0.4832680304299997,-0.6930150387894987,-0.9728280950742929,-0.2697436290533526,-0.5124193167405354,-0.339790189019746
-2.029561985814025,-2.3221344966197,0.5508695937672136,-2.014980140214069,0.27544724722714836,0.40628672293542056,0.08765235324512474,0.07050429920712288,0.04575637190084706,0.39242975283628606,-0.03988615474010692,1.4514435774915067,0.3754671711931264,-0.18272569854552645,0.6244170283765151,1.0480302888005075,-3.870164770536914,1.4043548265673067,-0.04855184849415199,0.44504353567306604,-0.19293080498088674,0.8094294531505455,0.1438879821375819,0.009420117332901299,0.2802436318077484,0.37294229445165317,0.38626099224971205,0.17551927114525556,-0.3388416096582057,-0.7939244713367627,0.46252187443960935,0.39364816881241604,0.23025733416415436,0.13086431725977543,0.8207784350206199,0.0976451344246247,-0.7896365148085005,0.269478081287556,0.7330171816606119,-0.026393623767320018,0.7762611530297179,0.35693153133302824,0.45946467420543513,-0.557549222731372,0.5602905958653898,0.28674056706488843,0.48279664718585985,1.0665507997483616,0.7023784681074375,0.31338346057744293,-1.0332247098693885,0.4490097678650679,0.17594434668281742,0.19450727510048996,0.49054001424148985,0.21156052567530645,0.2737821330256021,0.6334407875532593,-0.08851285930335485,-0.7017704040578981
-5.413637853050621,-5.837464950321912,0.3729604276690452,0.3298029033749189,-0.10600203148882771,0.40575009673223533,-0.430768880101005,0.09650324826638908,0.4236725463488474,0.24514798135377974,-0.10883789288853818,0.1982465389324637,-0.24926022361745045,-1.681928459913238,0.7848157034571578,0.3414967819403097,-7.350293877937831,1.1348232031539263,-0.22540276255726957,0.5332762386277902,0.8681779191178476,0.41074965730752266,0.5317531098166871,0.5255035473881358,0.5059761213617506,-0.10721842389693959,0.7082460894376638,0.8258990570405068,-0.44530225148154917,-0.5873050757480737,0.5556466589718342,0.41398707134001883,1.2370450933631718,3.985679071755551,-0.20137285690049317,-0.040186039598841775,0.022617170029808335,1.1056008119975604,0.32509121589168843,0.9688404460011963,0.5730503600572728,0.2510082087747548,0.24131016671904057,-2.315597582994265,0.13386955577440535,0.44040376718479546,0.7841946409318162,0.5630717119875523,0.5345382819376142,0.15867475603762807,-2.392899013112002,0.2482893388976071,1.789413342150231,0.19834265228876982,0.41640418666365653,0.5276032066650849,1.0665367046651104,0.7170304630978334,0.2860277886632638,0.5747804692480619
-1.2734642903988704,-2.9444672603922712,-1.5175644347670854,-4.713813485801323,-0.08269191391449875,0.049757313510502776,-0.3161149735989213,-0.11994351859766268,-0.855714393151186,-0.9408821251582771,0.09572904137276038,-3.6726873792607493,-1.4829441259182854,2.295452114619449,-1.4216716906903524,-0.9988167020102376,-3.9822364266602386,-2.7148856062932087,-1.0975982506354791,-0.1369244999417974,-0.876669651639672,-1.359475709531677,0.23118861263284016,0.1588891496470459,-0.4427707632635351,-0.3689217274929055,-0.6645216361015904,-1.867177249442116,0.9205115740611245,-0.04403700981494414,-1.0462165060039808,-1.3725805924423984,0.2847345395482176,2.369547125589959,-2.0585850966744754,-0.5507310111152419,-0.9241624812504202,-1.7091640821399494,-1.0662028260218572,0.04956619391386757,-1.4937555724232163,-0.384435688185081,-1.2464078077372873,-0.8585063617008646,-0.27863873749360113,-0.3152444226712361,-1.3458513126565126,-0.8708662546764764,-1.180249306865195,-0.48774680270473214,-1.1218669755201072,-0.13738171932996396,-0.7787932568193542,-0.7033023644973735,-0.6555338761264586,-1.1324423248327444,-1.170534227169623,-1.2279635291411437,-0.8386442439765022,0.10972780897841941
-0.33486712469249325,-6.6441805659652955,0.41198125150357817,-1.434984635971714,-0.502321687543545,-0.08335060579790499,-0.31627179155577395,0.16522497516239965,-0.06169959874567187,0.25157281655177394,-0.6499085159778885,1.9636148271687033,-0.22275286418285564,-4.903608047416987,-0.007142998985225289,0.024312472533102942,-3.2673874632519713,-0.11266121841667295,0.3702225287785208,0.3826093344292114,0.5184837128937672,-0.27507330932009927,0.21200482126383927,0.2755784133173051,0.2999043668281899,0.19237329563465144,-0.027093213732816115,0.08934132474804367,-0.3305010558658925,-1.4069524681577281,0.033561632747717535,-0.056617463491720366,0.37870308568211947,1.0031892239534497,-0.16034671667974681,-0.34450779668981113,0.902347059072541,0.41984840821344316,0.05572282256455313,-1.3260009271625939,0.1288604966682546,-0.2163390003013307,-0.04734605618742865,1.9766928198266767,0.08937373755714821,-0.3269669096553097,0.3936802118420358,0.17531734456113973,-0.10283508928168332,-0.1388279025477233,-3.4132578604619277,-0.16034600510168462,-1.5892548649466915,0.42315250785136205,1.1009874173650667,0.15288297970959197,0.4581177926730984,-0.18514820617468838,-0.3377196186998278,0.5920298198966558
-2.0200873533752026,-4.002503079126379,-0.6231343793596048,-0.8691831951073418,-0.3413868918149483,-0.35096808263799734,-0.10123688456369982,-0.3727848163609777,-0.7886794626309251,0.02976610588160809,-0.18055321341785688,-0.402041861064494,-0.26651422654954315,-1.955874699945521,-0.47806909906407047,-0.38772327291849523,-1.1664565190775185,-1.5490300262726149,0.017071265357568477,-0.09537111458838828,-0.328560580337979,-0.5953597318167752,0.013007728843498875,-0.29353727305643307,0.03080442124253809,-0.29849852361485135,0.1931561586752779,-0.6066608509205782,-0.7015106869595525,-0.36890980302388326,-0.28841947105452154,-0.6765077907414858,1.0200328242914836,1.7840480502679863,0.2510442425872907,0.13710298520613795,-0.2856299261983791,-1.004790483669124,-0.6024625413700925,0.5009291142024623,0.03476092216073265,0.011002893373156263,-0.2603776945557074,-0.276106317649783,-0.3658739629681438,-0.4695043031074076,-0.47043227779615193,-0.16009800902571622,-0.6923760354047319,-0.05428728945866907,-2.863765168534928,-0.10305312558680418,0.30985520017662305,-0.4141153730137439,-0.3216630668233274,-0.5684576554527127,-0.7836193470402317,-0.6439959251584901,-0.18973142451836192,-0.5974275962840574
1.1014751359604815,1.7103922885956246,-1.521375779239854,-5.335793247193928,-0.9362049151632493,-0.3217364375866666,-1.0731735194036223,-0.25853377877697314,-1.9882941887292063,-1.056193735353242,-1.0937628885149742,-1.9483256335529695,-1.2650384182320038,-0.5841018447907957,-2.020171893245088,-1.3655360514857282,-0.02928285993822271,-2.135046330788575,0.12993476194129,-1.005227330048,-1.5363944238880438,-1.3326493371313959,-0.08327285315018033,-1.0866322771181087,-0.42402281256336594,-0.7348189428077734,-1.0477789596179954,-1.4648756485450645,0.5811720629194116,0.8182459092167021,-0.7403754443486631,-1.0349690455577703,-3.3222891215746726,-2.9868648982469885,-0.760034038598988,-0.5125930531733729,-0.9759076448755656,-2.5648461901743644,-0.9993105448330114,-3.250017440834519,-0.5425278558559533,-0.31230599431287803,-0.5572017914836155,8.559922209728054,-1.0473752100450928,-1.1273276851984984,-1.5639029552023518,-1.2530022201543642,-1.5837790857670697,-0.3365706418424793,3.0957766950539067,-0.7211296224199761,-1.0537078840513496,-0.8747420931347588,-1.4283839263096072,-1.842542365604257,-2.0240304511163556,-1.3804654344868938,-0.4146703930447057,-2.134257079615184
8.340735561955926,0.806289650251897,-0.4164227872676795,-3.330129116910509,-1.224225303738529,-1.015703074238452,0.1502523545796886,-0.7295853303030851,-0.7126222967142621,-0.19613086028350002,-0.5804844970895775,-0.35837228444993485,-0.7413492112993121,0.04126421830455018,-0.6512714206493019,-0.609579796817343,4.563911054872242,-1.7524375306612407,-0.18589511987016352,-0.7255941327279644,-1.0207325734688786,-0.9620824169772542,-0.12993569392348775,-0.11550818479295316,-0.05533831216913206,-0.24103298191530545,-0.7485355576062994,-1.2747695662708722,-0.45671784050742253,0.23216050890745504,-0.354750311490474,-1.0278219798878474,-0.5675243421761528,-0.45347896186110676,-0.13591087641632926,0.04360992106319551,-1.0607585175312315,-1.2299610043045544,-1.0903728301891062,-1.2075236753309002,-0.8005365148671463,-0.449688716003882,-1.0319787624987098,-0.5620842440786405,-0.22754997953511397,-0.9702821004278245,-1.1187710143084224,-0.4743828859042336,-1.0090416377024753,0.04850812913657388,0.5658508281904358,-0.3868884217960034,-2.39272161112596,-0.2667593890975073,-0.6753777148528392,-0.5552778645319858,-0.8235858243944564,-0.6764892984713965,-0.3143250582454027,-1.554639888914992
-2.8376497145716346,-4.122372758647589,-0.003764704798356496,-1.6105295271510534,0.2542991428723181,0.3070123201146555,0.23368390138419845,0.4060250358661733,-0.3257278181920588,0.11403372957667005,-0.2969130195479388,0.7470477640883707,0.07555979424447629,-0.8678610018044884,-0.04028446148675799,0.6214349909649931,-6.60596688692221,-0.09694595701628118,-0.3974418301849824,0.45467779993067764,0.5326301916279255,1.0266786359318743,-0.36989892560581994,-0.08191181562158081,0.3258504550852281,0.3001399474386209,0.4610691791733073,-0.12720550139462564,-0.1218257968889779,-0.3541742992263078,-0.012088099199475918,0.8205319739829487,-0.36570520694268605,-2.3934210526733932,1.404348483778765,0.3364324614042254,-0.5992352195544383,0.801286929138322,0.008703831780012104,-0.09350381045609948,0.9183642359426963,0.08284178163533172,0.593421828695517,-0.9004876338186029,-0.26174342444819165,0.17547659498306317,0.279762121689872,0.6029968293490485,-0.20240584301945735,0.18625775183797308,0.2603548534915273,0.31949048409729014,0.42926778452150594,0.3460822710317373,0.05117406113574208,0.05555053691472026,0.10768737027045092,-0.01860834238392229,0.24989891039608284,-1.9261855407460506
-6.510258799140117,-0.3878008566233784,0.6016200481601873,-1.3813961717096128,0.32318765405381333,0.33574382254586244,0.1462228617146525,0.5244818578007813,0.05807613351069603,0.046212003553707914,-0.18014101705860272,1.0770387169952214,0.7186922221468617,-1.0141943016618267,0.6609316593586797,0.8022740768409116,4.611735804351064,0.4926515389026854,0.909248292944162,0.14356294092789273,0.4429686510844359,1.5220837191999028,-0.32482352036462386,0.12809718913489002,0.46008665120846043,0.056180249715071066,0.6195987949084714,0.09897539484388906,-0.502103077133013,-0.381421122882162,0.5057398055526436,1.0056861068386573,-0.30170992391348017,-2.096199451058883,1.0367294750450984,0.20741261166823566,-0.7027198376742132,0.3467118084377004,0.7160435730694396,-0.36722728781909764,1.318392329035209,0.23305136668514218,1.1322944443592848,0.9553707805618727,-0.4203091030427421,0.7181526129833338,0.4020508702811962,0.9150650638218256,0.35371813564761356,0.03856835915402856,2.5055677895833552,0.45889855996287404,0.8537078011965155,0.1751576128298124,0.09201890469118586,0.18317768769549228,0.6243938758333641,0.4466881734613116,0.8694849772338205,-0.001567472633650914
-3.3420595240809257,-3.346890042427564,0.5298496064563782,0.23822014374628686,0.7787901704173041,0.25408999745668337,-0.7728084342421485,0.3052754354137361,0.15040794478981684,0.10945032248897542,0.053243295113968116,-0.07399935337005181,0.15678305069307683,-2.2239713439975115,-0.07226948806492754,-0.03371210702822618,-3.3926130840541955,1.1439669541200377,-0.2856060588226426,0.17190275579861994,0.73440605145192,0.38754075460958526,0.006976988019918975,0.13877139265986482,-0.06881558749867064,0.004200330031469253,0.049240089780526616,0.20208771562038397,-0.3223942301998957,-0.6066292132710439,0.19124848214363202,-0.0036017235851416186,0.8097846719851793,3.8809131852720644,-0.11925472252468054,0.06726527457807731,0.09830892476083931,0.8138634736201247,0.665867148871048,0.6577660867129567,0.25843571396195747,-0.470978169856199,0.027309576209027783,-0.139955848036428,0.016714912653291537,0.34719225048832714,0.2490226933850571,-0.09204373976759943,0.633392475238462,-0.03048253727374372,-2.1169145181120563,-0.10657054266193132,1.239358482116932,0.2913898249273019,0.5016737071760128,0.14154456102059707,0.454164666822077,0.3102632842553073,-0.0033061336283729463,0.6838451771863454
1.9036948981078041,-4.461235073982412,-1.2081247259280754,-5.678565322431916,-0.7978519632604442,-0.3824138691035742,-0.8616555132799284,-0.4010695896087436,-0.7064245631483616,-0.5286922656025541,-0.768677453363819,-2.485564904906195,-1.0521065121306756,-0.4667950414316017,-1.3690033961282704,-0.8393505203707223,4.720902892842579,-1.216279073440811,-1.0321207546260673,-0.2122385225627016,-0.27559557743126956,-1.702826286649746,-0.024093044246124424,-0.47181217006263054,-0.781083767554766,-0.23296111893014576,-1.3115256382449183,-1.3922851921908659,0.35961304202246785,-0.7413386377253527,-1.006975528230743,-1.3074705401136897,-0.34924290355940013,-1.0207403814613105,-1.7219457279895751,-0.3312396771625038,-0.20752525440042868,-1.6417849773987105,-0.7842305598906056,0.526948988234356,-1.2710367154333986,-0.11300381546937796,-1.2019043976326658,2.0552000435328948,0.16378677079514864,-1.1609237561368722,-0.9474233000814756,-0.8708137173027045,-0.735175211732237,-0.4191501337850465,-3.1515297523687895,-0.5958589756826703,-0.1905020442272008,-0.5617514156410146,-0.4781074907683978,-0.9323561329458477,-0.7959278331139347,-0.6638001004157681,-0.6133821109589269,0.0024269116550621177
-0.7683908332276117,-5.405974901963826,-0.16580045978669333,-1.9239062331312349,-0.43391931053111144,-0.38206285472002316,-0.33203056732344854,0.10980756606770622,0.4232917468282171,-0.29984671385637524,-0.17335190627419056,0.46375441744430207,-0.3426218229388005,-3.778766054361013,-0.1297069136492761,0.036877638081237264,-3.3519595746817408,-0.5422658562527751,0.12671491214863354,0.06123139176749644,0.4062568964006081,-0.3082168836828814,-0.028983829479732548,0.49247922111597753,-0.1533087834594589,-0.2143807804780113,0.07070720766077852,-0.7253898594829957,-0.2594462864482988,-0.9995001319328062,-0.12302373485693573,-0.37202677931503453,0.5022770571378752,1.057530186464911,-0.7611129591811808,-0.343468622670293,0.6377171125076486,0.36097131362841883,-0.8261344976679804,-1.5425525687387194,0.003066894482974877,0.12078951142148374,-0.3815824028951786,1.4741103944043028,-0.043868538170922546,0.03733150425135425,-0.046841179157454116,-0.14782985331515966,-0.20287774735830244,0.24922116606463332,-2.214737786549542,0.1773333240126915,-2.2637364933961055,0.20902048506222173,0.22222364140242387,-0.17088940764351865,0.3162436408248499,0.022468522811105614,-0.3246695141235534,-0.21333710070472672
-2.910836923681017,-2.965454470947841,0.31671709568231904,1.4797896781888304,0.6842647832002933,0.5051328168613791,-0.11834093975197547,0.648972875518136,0.32286175745555434,0.2172232934844104,-0.39830878546690957,1.4895501215966096,0.7650042860602766,-0.37669787500226815,0.691541327537634,0.77823491356848,-3.425437692813851,1.4513913148205304,0.1124597928428614,0.3421210026540766,1.0105649250940731,0.6893619911007528,0.12848827008732155,0.6190487273409127,0.008957603727008108,0.3211821086087764,0.5441069221453635,0.11482467787574964,-0.23694249616808366,-1.6648016770609257,0.10019283304793569,0.6772186983306501,0.7789015660706591,1.137353033389809,0.9886716956086635,0.1809941560106646,0.6379180417429207,0.8649002683614585,0.4904271274580741,0.632802138750063,0.632083407731347,0.27507665252979296,1.0140526658887659,0.46704932744123184,0.27590895434842544,0.3147083664777584,0.2414010817730627,0.5772197148753855,0.13360911118472837,-0.04506257768620516,-2.8013155948421407,0.4253810850271434,0.548977255724484,0.5936756298679948,0.7840058856789837,0.24967324934845306,0.6044498913898706,-0.19408786182075105,0.5728308470150691,0.15810570381229852
-1.2505093648990215,-2.9628057648236785,-0.8591202315215283,-1.2043206520118725,0.41539409815903494,-0.29993618827836277,-0.5341791948572098,0.0830807126589939,-1.024081003886046,-0.5127520717369358,0.01695360446145415,-0.4819547005376023,-0.7293257991900286,-1.5596994477285242,-0.9400386757188087,-0.7524765747544071,-6.1545024874675915,-1.2335597266474545,-0.05054216901302923,-0.5432248798684377,-0.2038414702474856,-0.9685716843712939,-0.4069477046436677,-0.020798774627529645,-0.14521134111325645,-0.11079953406411903,-0.4791224452856035,-1.365888964293202,-0.05894566137039948,-0.44064682934662175,-0.9007772847085699,-0.6598385414591161,0.9886663901635762,1.7767723626449103,-0.6129139574121256,-0.7558642802730964,-0.2500628189132796,-1.2162978423160364,-0.6750892404245343,0.0574129580376898,-1.2488045331674262,-0.060767568563246395,-1.0377432063872114,-2.3073212822273095,-0.163840005829663,-0.46751374571740967,-0.7094140152017007,-1.0418212734722307,-0.8402190705003172,-0.10210973268808703,-1.1646937954021737,0.062419706853526054,-2.1979453303808594,-0.5711058399382818,0.043597605644154026,-0.8959626918627475,-0.5110922836039744,-0.766698350317899,-0.2107194762973304,0.605645515789974
2.806515775078038,-0.6258484421698204,-0.4352877882793927,-1.7089964704075722,0.2710185540777485,0.3485715125421793,-0.3543889854636696,0.6528568671776394,0.10965061314560397,-0.22390230545706397,0.16957626414190174,2.9728429682882327,0.06002911357206067,-0.9768870604992623,0.30624895494151577,-0.041931929485912525,1.2044102703493342,-0.6151009107829719,-0.11705106452233827,-0.20224662767030016,-0.2035572342779926,-0.257571457680422,0.31885314366798634,0.8524830302462932,0.10843637077121282,0.246354575050243,0.08329377257261886,-0.1045900362045931,-0.3891993166220774,-0.6923918430363891,0.09104808137510169,0.2880648681590072,-0.36480561561553887,-0.45685339556672794,-0.3081518871275819,0.010950246605813405,0.3860487688625748,-0.29586861210652504,0.13472524128555205,-0.5378416054311175,-0.00762934146450145,-0.311931751826657,0.37822192797803733,4.308898994332783,-0.4365208606062142,-0.5924363492607643,-0.08087821375986565,-0.006362056488650702,0.29308846845848757,0.22369669262914327,-0.6232162301715077,0.35740096634757673,1.3250564360492088,0.6223278538796659,0.10366674046733687,-0.4219708693804215,0.10576719445890823,-0.461441975348156,-0.7818902501213602,-0.1312655542830405
0.8767088922305705,3.8083084680618553,-0.9372822632362188,-4.447051738732461,0.14657236121123826,0.04768009954093483,-0.4840899755187832,-0.2585042720700794,-0.6693929261426047,-0.5611176573571854,-0.07244566863830354,-2.07012114061959,-0.8372992120698589,1.7401179968844043,-1.2518560127213796,-1.5414769209268744,0.7141264898213444,-0.9944522769682955,-0.2965853600586013,-1.0187675983064102,-1.246708618988171,-1.369751775107932,-0.553663498231344,-0.48397973209054534,-0.8133341279065389,-0.672082798797548,-1.1170360848798506,-0.9932997065025024,0.4929029918971494,0.6624260169470559,-1.0984574992555842,-1.2211253541939577,-0.7833281882573371,-2.840765898722689,-0.8020196178915568,-0.32876890577215495,-1.6235682645213065,-1.7362443105731187,-1.3927671059610276,-1.5809742031540936,-1.5364559747926247,-0.3917057200828563,-1.4422677658811527,-1.0590173993734102,-0.5156257503045932,-1.0505650653743233,-0.9553791410198794,-1.4298615257362428,-0.9792386460395489,-0.32118446507140985,1.130861514262501,-0.6252141390259887,-1.6282670751674222,-0.5714761494675789,-1.2338530526685185,-0.9404467632658429,-2.2320494620462776,-0.9673132472431635,-0.6259193362596023,-1.2880119463821134
-3.1760528463252773,-1.5981545017645353,0.1671184593124215,-1.5935687079960386,0.1275480304293413,0.4655750148481759,0.15790995860249601,0.38295352622064066,0.4907724354800523,0.37317016961743227,0.23299242871895828,0.18011465678909597,0.12646919165347864,-1.3092819364903774,0.7673129950351403,0.9673113116003621,-1.9168961763489683,1.2266479023757915,-0.06917144305421982,0.6900641834332178,0.3827652545398253,1.0988032279382502,-0.07596672606168352,-0.08190883142311464,0.3685118801795596,-0.08267148961207024,0.5265047901317829,0.2731773331457308,-0.6650863253526813,-1.5064101278031157,0.2884833972171311,0.7420576531180633,-0.32593422871892913,1.9881232475428445,1.234017302500913,-0.04242328913885733,-0.6428250158401545,0.7475917264009408,0.23480125539384658,0.5555043745017564,1.0989525614098046,0.18445253521431315,0.9939346395547409,0.4872513610677964,0.2925179294725653,0.3093483152418451,0.22304445911101364,0.7053551245798855,0.4814020594356144,0.2092165139791598,-2.796216830246723,0.15118055991682158,0.33589102318934966,0.6287190364335443,0.2979239238354403,0.33925876838541436,0.37170334266053046,0.2331589393982277,-0.004617718896104878,-1.4825409343545637
-3.7996752549735766,-7.356253806038645,-0.35196002820379696,0.28380593251586,-0.12488985178932573,-0.2509720163335019,-0.5480847430888285,-0.1852997703707834,-0.025738459728821914,0.30160639677170753,-1.6149194481250038,1.191812436300387,-0.3318886214304598,-2.154996285997183,-0.22228430924776066,0.5017726762966613,-4.057736486028115,-0.23739901122097729,-0.23053652417807166,0.24885295458867027,0.9082102575584289,0.5892003712013888,-0.4070226351420987,0.44976917180380166,0.28815337371133465,-0.6136309187407993,-0.37122780824625123,-0.07285054671345986,-0.2936841608575849,-2.513081488474735,0.11149296019769146,0.6487348609973599,-1.5503649483324857,4.922417592319923,0.8090183796270279,-0.16590487376758845,0.6176948167786227,0.06603268293532266,-0.2925946642958785,0.9618891141679119,0.670191876126501,-1.0573017902915292,0.37695604193940674,0.42477782001457465,-0.3004575405369452,-0.35993363118862953,0.03210847917317211,0.8584997226695786,0.11555488836324512,-0.12784587617026516,-4.994432937430569,-0.1570728919046108,-1.5500342115786467,0.2373695741841478,0.3886835054621149,-0.3083901267194582,-0.06382044084867952,-0.22473063751387304,-0.33336489403590797,0.3499270471399989
-4.998122326534618,-1.5245006840063378,-0.7118043630634809,-4.587659577582569,-1.2714506151851739,-0.4658829175303629,-0.7594644291983924,-0.7303783013765276,-1.5160394570139883,-1.0013778913168037,0.6578329353771412,-1.855200788398357,-0.9742587950201752,-0.2855557402353051,-1.3610216381170486,-1.5386862429862325,-4.2048105626929715,-1.1368740826782209,-1.3096989792191118,-0.742858669923546,-0.6676214983995769,-1.883231938677125,-0.7146816072521616,-0.6653143138200099,-0.3398373630278378,-0.6487489339227557,-0.45278743635817403,-1.7908125520137792,0.37310555007408264,1.487753699752056,-0.6613738924428009,-1.7528502946702085,0.6316757937485272,-1.695208443911465,-2.514591324585104,0.18917791282343963,-0.6913438168854948,-1.9036292004897457,-0.8388319453833125,-1.012306901961943,-1.4878463775209583,-1.1135673338460288,-1.2407566733414555,-0.3095826176831681,-0.5248659406308049,-1.121450950915489,-1.2471333433366085,-1.1827504231858723,-1.1797220876072925,-0.3078393327478911,-2.5181500032411837,-0.40547354790503715,-4.797761265953373,-1.004439905258397,-0.9661107905087869,-0.9150426505410911,-1.80639540592407,-1.1723169753350238,-0.5730472917922725,-0.3487632850827152
-0.5489134837149566,0.9760424703720502,-1.425555196493451,-4.830635183324873,-0.5242541032846464,-0.4392489520493149,-1.1078273712349256,-1.050118246693333,-1.3811007488940648,-0.7956860965713529,-0.8918090707473136,-2.562483213814853,-1.1353684858546051,3.4025756868097803,-1.3259642001803784,-1.706899499951322,-1.9924172568962613,-1.2068806472501563,-0.041391837947746535,-1.778386679677384,-1.1008707528783181,-2.199100285964488,-1.4833296569428085,-1.3021808085852005,-1.015528467100031,-1.2357287117886782,-0.08910315843049849,-1.7298679757150563,-0.20877587965809566,1.1678179052414315,-1.7285124448316276,-1.0924945296815345,-1.2098769156442177,-7.203698653118399,-1.69173083756657,-0.7765935529753067,-1.9139648537324299,-2.9632455162388616,-1.7785556717340179,-1.2586884905591458,-2.033096947757908,-0.5728012076920856,-1.5439441969692966,1.4287333292595417,-1.701478673624717,-0.5315982993056082,-1.6107549766043123,-1.9980476057203551,-2.082678822985727,-0.9924930930603557,-1.9043740284269317,-0.6033645313793874,-3.0577982075091716,-0.7193224113193454,-1.552702677777832,-1.811597312569625,-3.048977544479349,-1.847938746848455,0.22746851202599494,-1.992412024301884
-2.3716726331969857,-7.996304420614777,0.1284368912549804,1.303418687982029,0.34957070957839254,0.6390717849829328,-0.600635885093897,0.27966443661423984,0.6706018918703905,0.38264716860900705,-0.5009753978656655,1.741044324086207,-0.26104147220611423,-2.487924338425639,0.3747862234383094,1.137921501141416,-3.7188517919444117,0.02820214359269043,0.2940053721368006,0.24986607626514915,0.8758464215498906,0.562301696706947,0.3933669302960263,0.654097021624812,-0.15570219783149675,0.25347473303366386,-0.1653736322736598,0.3836009961469026,-1.1454012802660098,-0.9936849223674327,0.14371666391704638,0.5565821383549976,0.09077412556581838,2.78604722881171,0.13102194231849218,-0.09320775962574594,-0.6789205492454182,0.6778710896575205,0.30570829778002495,0.858729135301815,0.8806355921180851,0.05352728034765463,0.8938532234879037,-0.8314034035591061,-0.17414083847192074,-0.5890130205243401,0.20420983406307167,0.9803592497844991,0.40656055672652436,0.12044539210362791,-3.595409150744796,0.34934994316433776,0.9082138462107396,0.40544130484488283,0.5266282610515193,0.6302311919846958,0.4266528070212684,-0.08508086987488817,-0.24525376800068793,0.1937967586792927
4.174692804510996,-1.6052462996186405,-0.2888832533117188,-2.739519105173947,0.2386240387738181,0.5377353257367407,0.8198590331941891,0.6859197329587035,-0.27593250035125705,0.07182990710675421,-0.28598501765884043,1.7946377717421835,0.14239643742068242,-4.4943824103909105,0.020936130434071384,0.609291816090919,0.9594952696379024,-0.8664143925563531,-0.32782618835507493,0.49374561157873437,-0.3036981601974027,0.19881466994992114,0.7529189291270552,-0.12863637718451718,0.5808406575731071,-0.11760441406547256,0.14342396036461635,-0.2270384410814395,0.4857714756422938,-1.6936459692949193,-0.08770048921097566,0.13783260638303657,-0.5564348970322706,3.813463362103863,0.4156857067408205,0.09163238655960432,0.06558166648745113,-0.13014466810374678,-0.012737693921895287,-1.995911904983898,0.5743079950047428,0.7518782096030853,0.36764769958999444,1.5740566243597747,0.7267107607324145,-0.30144583463657726,0.1849728467644554,0.8888951282140871,0.5354864464894983,-0.037447844118079374,-1.5520573664495898,0.17355884060881502,1.0891607557777707,0.005826604632810261,0.2843104648050264,0.15397316773524694,-0.026759801237837087,-0.24256935200244112,-0.19674792891390516,-0.8213536140158872
1.160917313567753,-4.322726141152514,-0.1478383653455857,-2.0819884459750178,-0.6895556427397069,-0.4717229957776872,0.6959623258429758,0.060077495757580944,-0.28578768544641053,0.3213824885039229,-0.5317034221082122,1.5497990195938183,0.3087361469399387,-2.373886739266411,0.28595447921809114,0.3549396598354297,1.6811007136933687,-0.5425821981234215,-0.29473311259958546,0.6113539370407085,0.5298034820062228,0.5167539972389981,-0.009911515947655263,0.16817655663576217,0.43876226585378747,-0.06931451723139817,-0.10380511162854748,0.04295437491239102,-0.39532632709041493,-0.7098726818372484,-0.09690572182171586,0.6342598055166939,-0.20842070546463043,1.4894838663398948,0.2647374609264086,0.14252746505300762,-0.7981748504920527,-0.3151478622205108,0.16482033543048627,-0.6947824224669046,0.7906480704757827,-0.13054174984111896,0.5887460205743661,0.5753887205800966,0.38282108273220805,-0.20775521823767606,0.2777185385902505,0.7914169624245126,0.6260341928720278,-0.16316570384616283,0.09456792161723974,0.46885359345956645,-1.4591724145154712,0.5326384509034239,0.26592794590393226,0.37800112538372665,0.057207455777353984,0.25904910033053535,-0.2936551476934208,-1.4078231513320656
2.205259853111797,-0.7621101006742368,-0.25359850734147354,-2.9133072744364026,0.31675412695979654,0.055590112732365436,-0.07358006625046189,0.010597780369278522,-0.13472103041429645,0.04666439488512179,-0.3831386163495936,-0.3495971418931434,0.34361048449806353,-1.8061297473483469,-0.4434192394135145,0.49136916129661,-0.3596948791713207,-1.0034139763782026,-0.6206293521222612,-0.007674522441279561,-0.3536736469019348,0.3064014999272852,0.24325977032031296,0.14652814696206717,0.23890328328188834,0.23382607511677078,-0.059707314383308854,-0.4104586950412042,-0.035717399659349856,-0.3160707161508489,-0.021830275292714137,0.48388768129703597,-0.5019976913194855,-3.0867205413238334,0.2584791160153277,0.12692611105941878,-1.3151347411455871,-0.3090205363996645,0.07291387852428649,-0.6380845169887915,0.3029550696576234,0.09153246840510373,0.20067872168228146,1.1030751876119802,0.34400767827063883,0.13224803502562,-0.5394842371750996,0.1662105983280208,-0.10032233925527122,-0.08380597260519335,-0.21458890600967795,-0.09253472624619254,-1.059027738582715,-0.22463761888980974,-0.17552127249997873,-0.1785271360491018,-0.2546970951627531,-0.2887433508481015,0.05306968872241202,-0.6192263154412291
-0.7125499451936054,-3.9501697274813314,-0.4863862883126389,-3.910578124422421,-0.07595405199722624,-0.316965473809085,0.27223704951034333,-0.603988147335228,-0.4964310109548832,-0.6753370941362808,-0.28563565693995974,-1.639218754196903,0.4674191554307042,-1.522672834522826,-0.23903262458890348,-0.41506666213376026,-1.6973147664276738,-1.0840726751513028,0.3048003699240527,0.0054286640591008585,-0.6792483573822248,0.49556034225775314,-0.22001469088452585,-0.7619638719302442,-0.37714678717278793,-0.4213971678969063,-0.019040724071488838,-0.37300830591739076,0.120202635993601,-0.7638432422979006,-0.6449841205446945,-0.19425418279437992,0.1267412877376373,-0.4726560026580865,-0.593817022215372,0.16050582524553986,-2.201393718972123,-0.9546876610012391,-0.46753580402581274,-0.5384538687128104,-0.06674492542748503,-0.28888725528982406,-0.1608626488328201,-2.386904165810958,-0.5206931125993209,0.4628104732002311,-0.18702901161085647,-0.25610318914231495,-0.800673449418061,0.016962186262536764,-0.17515762842792487,0.008569102666376633,-0.8842069985374933,0.05131610681831643,-0.3797080826622119,-0.5138981626269497,-0.7130459610007064,-0.00858292694925947,0.5453695391640238,-0.6888352230447325
-3.7578061173268,-1.4818632660455182,0.6082067659466588,-0.2556425320561159,0.6584927786659104,0.04968674503218653,-0.028394281117521,-0.05202781730231759,0.15660684962438537,-0.09678016335045843,0.018216610429896737,-0.4926494002974487,-0.17198195089376322,0.2373784042372324,0.05822090519150037,0.05131091906477433,-4.563187406571165,0.5382862265541665,0.016213534692676897,-0.04169273139203268,0.27932098441442355,0.04548793402862625,0.20682602541300316,-0.017618507499790704,0.2709031987949832,-0.12251518396689165,-0.153258766579651,0.44149399060409455,-0.16561581746006682,-0.6731556952220057,0.4050996419016439,0.09792737729917078,0.5231760673782987,2.1485561403075475,-0.1919087642988694,0.3064623353473147,0.21960735305001283,0.5034755256304704,0.08231932996208263,0.6137865384257264,-0.1683189862685358,0.42934621210935164,-0.07787754565856964,-3.9883308746653935E-4,0.28323288173070726,0.27903170726770055,0.37835012821074027,0.4093360542219172,0.5343846523871476,0.06140461889402433,-1.685120690294338,0.08092151037174873,1.552494270776536,-0.16165545089611696,0.23659381799855522,0.15760229671410694,0.5406968715355923,0.5692259383093193,0.44279658912986086,0.2611810100663129
-0.06582521371632233,0.5995009871412311,-1.1073495881119255,-3.6925246882912117,-0.5858471074816186,-0.4149552601338404,-0.42777026375200145,-0.6946280367288657,-1.2791111651823512,-0.7844341216464888,0.6053865642816403,-4.061469684729014,-1.041398184480376,-1.0672852606629823,-1.6209393733064281,-1.056779150404142,-2.555453534175178,-2.123602327441375,0.4452429644506944,-0.3569083470745438,-0.8338529668881742,-1.4880449717004014,-0.33804199682495245,-1.2253295081212876,-1.2792691071814928,-0.20387545282774572,-0.03072779611752343,-1.838504057260036,0.24625554544299136,0.41731139768706527,-1.1813367320450865,-0.8981789307309312,-3.233619926983291,-0.5551767797952131,0.9783835667111399,-0.5818946048315236,-0.08288054083557149,-2.4428153651642113,-1.224453099047783,-1.308780488356407,-1.1915976531037422,-0.5004932110934814,-0.9879192153163383,3.1610866991229187,-1.1663740547450459,-0.8762901709058707,-1.283839312276874,-1.282716141665407,-1.3877824686690041,-0.35550699226889326,-4.530201896889679,-0.30285627117823766,1.1588199010143563,-0.8174551273521972,-0.6443851202315859,-1.2728672952314037,-1.2233921083640673,-1.2437617888444417,-0.3253466222238028,-1.7237086190432858
2.5284339848547215,1.430672791271959,-0.0515011134084506,-2.570778887030391,-0.5368549928154284,-0.43307841118550344,-0.033636266283547635,-0.7866468878052217,-0.9853105473817563,-0.37909827601997587,0.7001048876250539,-0.6069960495324863,-0.2710302068000128,1.1314113676321211,-0.8531190101578704,-0.7768040871798977,0.8902423760550058,-1.3311295638525455,0.4495646987008391,-0.08074092772052682,-0.375635355938394,-0.18459956853760703,-0.3924720005013502,-1.2182010131811907,-0.3504980400944456,-0.08860680482903047,-0.07623261830558022,-1.1603129709943214,-0.3353439686595976,1.5246923806021981,-0.639015913506005,-0.4111310877305379,3.0199824606100725,-2.9364368434661112,0.21114729012862907,-0.17878609992526948,-0.404652146717356,-1.2077454914458334,-0.9171404219213608,0.06616357839296824,-0.8346488882137874,-0.292491439344374,-0.4160426169211323,0.8550263606566549,-0.6450062513930552,0.08543826260408241,-0.8618385700089115,-0.3580703774558473,-1.347149080161482,0.05396039806885031,1.6135255835079902,-0.5829789012006916,-2.7031430769755875,-0.7080062247009262,-0.24332828226627193,-0.6776195581763366,-0.2736298771470485,-0.23290340880076174,0.30916913727884876,-0.5368113427318136
-2.065564751854226,-1.2361687886557238,0.10434679320700291,-0.4932593376810075,-0.0896381900092661,-0.18388985315443857,-0.1765019843908257,-0.3006763170437645,-0.22347680639593262,-0.19341168205890377,-0.09396453545515673,-0.69512089256038,-0.055293319014753,-0.16707545158313752,-0.05561081048434105,-0.577299861019731,-1.252462380216408,0.40302308134181464,0.18714653320588182,0.3588756787878548,-0.12945528710934098,-0.34078996552378304,-0.5527193806867026,-0.2412966460123063,0.24438648259972154,-0.13931541897484642,-0.028969490884763544,-0.4552095609579244,-0.2554844739643487,-0.5269092686962825,-0.12306628930633333,-0.01990041525775998,0.653897899238184,2.361358939115522,-0.6427970371139837,-0.2763393315433135,-0.8930805573068558,0.34529650651713706,0.16090165889760003,0.16391244721755843,-0.31222639249389916,-0.3550331272643835,-0.475335561663557,-0.3384152277396576,0.2248703902800731,0.3451939073819866,-0.193749822357698,0.029898285709241974,-0.161299993409215,0.05949639291092023,-1.7099382392124682,-0.2500125069722129,0.894599980722462,0.00977982075012713,-0.20634544862494722,-0.17546026634014086,0.3345512904870512,0.00394100559926932,0.11951666944127733,0.1577125599699801
1.7586177438433712,2.8169946366055405,-1.0954440374334826,-0.7642422276520644,-0.8096051728262695,-0.7917817563543805,0.5439871832910086,-0.7229583635508589,-1.1102591549710548,-1.2798791123325177,0.5671930366979017,-3.674379661827424,-0.8351646604006974,0.28161395674940026,-1.7355177213128625,-1.9541297647630875,-0.4162697643727127,-2.4484058831042432,-0.021231535610120242,-0.5016648317764505,-1.4113277133776525,-1.777204459499124,-1.281339913604881,-1.202888132196213,-0.6198744616297541,-0.10622183948748604,-0.7421792105893825,-1.3474643588971043,-0.9126460635912985,0.15489466199861557,-1.814660919748595,-1.2921806472242485,0.37373012853083865,0.016088510510238595,-0.6272963524149029,-0.23320246145811002,-0.198179935646602,-2.194893245668691,-2.1410898970861774,-1.2016681029600194,-1.9225064198062631,-0.7520603916568539,-1.5375049352106902,-1.006340870433751,-0.971323357648313,0.1695747822800953,-1.5442321954569551,-1.1786339962579049,-1.9091423818264892,-0.4908727336145092,-2.3396137971316247,-0.4026930817578468,-0.562650561963447,-1.121377730163669,-0.9563150911245009,-1.7145405012069856,-1.8846489749070794,-0.9903945987773841,-0.882795423315735,-0.07032231238067262
4.660735478995666,6.139302034433326,-1.406010970020153,-4.536802018496431,-0.003579008638068636,-0.4060354707557073,-0.5330707135500661,-0.29651670655512585,-0.6228238241802574,-0.35647609666725827,-0.4008394170476329,0.23668689578862218,-0.5965270181801402,-0.789042055943143,-0.6503927726236375,-1.2008083934675722,3.2781620357302192,-1.2342562187232287,-0.9960492281106545,-0.9190551097107686,-0.8051961792390258,-1.3654471713483332,-0.14459037171292283,-0.41253532667650394,-0.2568599105867639,-0.217864185397979,0.6294654431459835,-0.9122665923860848,-0.7138400974288306,-1.0641686257188347,-0.9013217099887384,-0.07049056396330695,-0.6672166443456005,-1.425635819356522,0.288200150001699,-0.4013509748443979,-1.1509748399374726,-1.7842234028427968,-0.8307075263895498,-1.5284742708756465,-0.5596116617299934,0.3676710437814955,0.03831993411300461,0.5667922252702458,-0.5420967879700406,-1.1112276573814406,-0.8441629948839832,-1.0562446297017625,-1.1107995428336033,0.0070882972742895905,0.02785358542507739,-0.33433299873107675,0.29863521200134535,-0.1111226430618749,-0.8397829716313007,-1.4916900454058368,-1.3980291569149774,-1.007443294601298,-0.19015412785832508,-0.9928076365668294
4.172417715400439,6.417317584845553,-0.9317853089786224,-3.5845824759498375,0.05711268664452346,0.0558110391178721,-0.534313465798635,-0.5475050703793345,-0.7146958728091921,-0.8515463184206944,0.4666063665062153,1.390650849138868,-0.25335732925054394,2.5450902175756247,-0.9981664342810314,-0.5745288902531899,6.4148450684527445,-1.300245764659626,-0.6416320068776904,-0.6875183768260963,-0.6956632830664825,-0.5190185992973532,-0.7447767673123347,0.498678308414575,-0.49176651717551545,-0.38187247338105734,0.38994516135754814,-0.9349550735225558,-0.4713920813849671,-0.7531699604981836,-0.6861807703795001,-0.07078540576503578,0.19641177471873394,-3.5470407552646366,0.2464045466335368,-0.2555922369330089,0.36237742663275124,-1.3211614055431131,-0.6114715114683783,-1.6686856027093722,-0.6474567618478866,-0.07379967288028819,-0.07525559721051782,-3.0379994753790354,-0.39606605212379825,-0.23196179462833352,-0.8339996459887804,-0.7585834180395309,-1.2348024597126372,-0.005851766366709289,-0.5993020431622201,-0.12452355386988545,-0.6282442184905364,-0.11080356831912598,-1.0417943083786843,-1.1078604070068707,-1.9708201011067152,-1.1748647770906462,0.43013508307237874,-1.5163036418131766
3.7383491235482675,3.414127454845814,-0.7546682045235297,-1.3915245445660829,-0.3475160893660201,-0.4169802943850602,0.017656629381794898,-0.3261739518105219,-0.789354885939869,-0.7272921629252668,0.05967269122264474,-0.9926742984189871,-0.7258780202436103,0.6552189946740187,-1.048551553902524,-0.9930412594128523,4.582204300600771,-2.3903337582050823,-1.4446519465087926,-0.958431534089808,-0.5591648390649752,-0.7068393239705264,-0.6977594195503178,-0.800284398396145,0.02798815444553823,-0.28590303612318835,0.1511614650749741,-1.107692821534834,0.24400689071683865,1.401311753819142,-0.6249249786916468,-0.3276678815312796,1.0850725103245256,-2.1314912485164936,0.9936947393615534,-0.22055543225295504,-2.317164628068713,-1.3859860753089164,-1.0599199717914982,-0.3026947649082035,-0.8158597875459817,0.4211037182452707,-0.496806846556077,-1.7571723848048098,-0.1556771754251491,-0.5272110195207006,-1.1561608799973375,-0.8637868884992597,-1.1433896526572525,-0.09568159807675687,-0.4336096757813583,-0.5165952818805071,0.9643927482820285,-0.8556899242951195,-1.0043837082748892,-1.1013125494529743,-1.347812839241198,-0.6735315180346211,-0.4391184153886558,-1.7276631616809157
-5.0948644811201484,1.4594412984928737,-0.02563423626724316,0.1085521189306478,-1.1686015640434073,-0.1423877323234612,-1.7704715839997134,-0.13904899297855958,-0.1927944556080482,-0.5503237521270409,-0.4754625539659445,-0.20542742903187722,0.3069735110907597,-0.9848361666715129,-0.1587941954498332,-0.3872692208732825,-7.028841576754398,0.35359954557600703,0.7953148429782296,0.1701285550145023,0.03537092642601587,-0.11525159004660031,-1.2742566088961211,-0.29460777879265443,-0.46229731307432886,-0.36597724401347836,-0.058258888486421925,-0.18207248614584767,-1.4059636677760614,-1.9322591021496547,-0.4397430219806162,0.23885239360895846,-0.7469748637988564,-2.158457335332399,0.12706369023327654,-0.5903985397046324,-0.013680016415635547,-0.3307195916491029,-0.4037464751643248,-1.418261744115217,-0.4750604240266535,-0.21949048572261884,-0.8136117415033439,-1.565146338964601,-0.24477589417447268,-0.2735415687273103,-0.08429705493391365,-0.33892946950835984,0.014036030234613492,-0.35857200659584126,-2.4928808643918927,-0.18593312680634344,-1.1664617591019377,-0.03419555651358929,-0.13418926200458678,-0.36882798286112106,0.25441833144266435,-0.22118176690450717,-0.1934971160389436,0.28168540624543686
-5.601751686417666,-0.23527780356939126,-0.2976063800186612,0.3550110715683855,-0.676470870892008,-0.6171618788176054,-1.0395417734740744,-0.1689999904160895,-0.6500485525879646,-0.6371702977401004,-0.245996388719208,-1.6298988757815214,0.0433082725810644,2.614528758386214,-0.8862928024273896,-1.0275614795121737,-9.165431435622503,-1.4288569755097587,0.280485967556502,-0.6547920269648175,-1.2084713070217032,-0.7292229005499555,-1.3215334808021186,-0.24717542502243836,-1.1844870446615845,-0.6055012992352576,-1.1332306931470537,-0.38020023852850576,-0.3409660055680953,-0.7766738750381937,-0.8203248627596463,-0.7410578483305538,-0.09515314436483241,-1.4350673308218176,-0.9164060965585267,-1.0088320112339109,0.12332757071589519,-0.45302043848144796,-0.5937826330276544,-0.8827513325971118,-0.8813807890627074,-0.0197312876126746,-1.3134690221155865,-1.0261509488462182,-0.47683061465073195,-0.4550045914566322,-0.7009227520469256,-1.4249826173208289,-0.6528272703371747,-0.3563297772303883,-2.6430884306039846,-0.23676818225367063,-0.8070982046365068,-0.5096722694919439,-0.4820218687299124,-0.581772962322483,-0.8592239353402915,-0.4964462109075087,-0.0887222827882427,0.08470848000182057
-0.3976674133025971,-1.1873748262357484,-1.6779452039213458,-2.8419759080504123,-1.1862218446379715,-0.6276020640074839,-0.31611291840928907,-1.1544385599677345,-1.2313656595330593,-1.2744856707304164,-0.18141716641903807,-2.9524472351401916,-1.4395654120788726,-1.4481521320135362,-1.776214611941456,-1.5637270182796075,3.340688684980615,-2.4821977809643534,-0.7555066748396462,-1.0008028705545051,-1.6066190701284981,-2.1623577293858283,0.21187244213519962,-0.8256833127450344,-1.2160994813940975,-0.6191235159104347,-0.5593459733418045,-2.251313238232764,-0.15676656522311333,-0.2940359769739183,-1.2132881138369256,-1.728554359307462,1.5228942772262353,2.0914432612955554,-0.5681510032255201,-0.735736221024786,-0.4164324608953595,-2.9583969001418153,-1.5591119347355815,0.5091988759622851,-1.9296229987942002,0.3799708207421838,-1.5754737317011822,1.5325183840408128,-0.41882531716559485,-1.4258488314776272,-1.7569952472382127,-1.6123984236635696,-1.9327766988998867,-1.010212190082922,-2.4558493811456135,-0.8940101672911495,-1.8597292532050178,-1.0984570702806538,-1.164253977387991,-1.8692497293603434,-2.0417954659808752,-1.6814192591034902,0.39788300034340723,-0.3570881599905584
-3.5215994600491967,1.1189750798938012,0.3750163687617507,0.9842483017286033,-0.20471907667774752,-0.4862377986880093,-1.0682531315710553,-0.14893686589039024,-0.004243038940491363,-0.44111454433503405,-0.09257241498155376,-0.9774185179008807,0.1992535176241149,0.0922097935140795,0.2460770291608017,-0.004940016265450171,-7.138931732868758,-0.08311843502183196,0.43814511189670896,0.16147301443573273,-0.7608390623489978,0.2712107781028905,-0.12986041441167895,0.1093109537291321,-0.3670273483514769,0.004325880120793478,-0.38600771978652554,0.4675561540073832,-0.5869144364005776,-0.9179404549965601,0.010965664110333654,-0.48360286958710186,-0.5794343402490711,-2.018913928128454,-0.7409398482648242,-0.31313361494081005,0.21234957685709224,0.3751057339718038,0.3105713932853488,-0.2714493975409042,-0.18600220253342703,0.6265538440945577,-0.31018062402025437,-0.7264699575411643,-0.7419440889228811,0.6556630235146997,0.04606431239964069,0.06776245545729358,0.1388328099693984,0.23810747825930467,-1.6195493620640102,-0.026092570662060565,-1.0391350533090449,-0.18952672087612663,0.0686377846723087,0.17160276581659728,-0.08620313772271086,0.023091134548544334,0.29418236628169,0.5377901351661291
-7.488222734712561,-2.3331135260059304,0.057073745116062696,-0.9233289531666442,-0.5353784492371674,-0.3854397513832517,-0.3195848408420594,-0.009758424791626055,-0.2154941773736475,0.057292490331477784,0.19429349560578046,0.48979677975647024,0.009492074150153587,-2.505931060046147,0.13764550718816135,0.1275921657785747,-9.342318098297042,-0.11732718297669449,0.1465526662947574,0.028032653623016077,0.8083262186342298,0.24108606682873743,-0.5290274853030569,0.049450535870363584,0.3289353484150403,0.2435312800384596,0.44382862126318695,-0.4865412784251828,-1.8283591911154544,-1.4265273932544977,-0.3839700855220227,0.08456010780413807,1.0071714946249701,2.2723893184420025,-0.40241605167936917,0.028750815312055637,0.03484154529923425,-0.32700765681713617,-0.3877630869583822,-0.0629403391086259,0.06157271256558466,0.16748192430255657,0.48377829020562496,-0.14445487827293754,-0.3898207659959088,0.6483331434434886,-0.15694393705816695,0.38613404185475575,-0.239153328701619,-0.1980500154549244,-2.84770041186609,0.07041409192221791,1.6975421145925467,0.21548217539231548,0.05606268486179081,-0.2664180729424772,0.24432760563670916,-0.02663485283335264,-0.16802720896705406,-0.5352602706648751
-16.497143744046358,-2.0227129512769526,0.2897377475208602,0.8177118329866763,0.122269627332568,0.3744165968807081,-0.9980836765399966,0.9480110218218614,0.2624693909367378,-0.30454419307635144,-0.4475553887857282,0.14147388672812078,0.6476507618519887,-1.7226841600622391,0.4411875087816189,0.42703703999297,-15.469484285251358,1.5326464411820684,0.882623226799998,0.024043251719156847,0.830198236877208,1.0638810901195859,-1.0474247865102644,0.38670263136111477,0.22949394276291032,0.42287803726154,-0.09598377532626985,0.709877941154849,-2.056370007094831,-2.7733795798483643,0.08333516869015346,0.739576208970209,0.26963053735481407,2.7070539686988346,0.4992917189411125,-0.37622449950440917,-0.5758040893930975,1.1384484757241107,0.40659916097776977,-0.2586242555767897,0.6629838594796562,0.35754987416162554,0.11606770925749134,-2.149191297375209,0.0756261556502823,1.0234330407993988,0.3355261170545221,0.46111122578844477,0.11164130599701025,0.021614037906556405,-3.9705384257742344,0.11852608605284802,3.825142109966654,0.6179486279137313,0.4220202737725481,0.12220842257769639,0.6551558534414156,0.3524167717203335,0.6171577195223961,0.17848451708813112
