0.40634728825153554,-0.6129896964505055,-3.887990932725066,-0.5464398837382767,-1.345463636018069,-1.1482015487925252,-0.19765643969310107,-0.3297995581750155,1.4740014830642418,-0.7310282624865897,-0.288313680450727,-0.026037222394435386,-0.3649896473757971,-0.48838681362516595,-10.944077554906109,-0.053748311898761135,-2.87517318372082,-0.03219726704396698,-0.6086276199777373,-1.3861352044613007,-11.331524938170435,-0.43428067255813835,-0.4756546358104512,-1.7168184078302247,-0.39412752382342103,-0.08624808396281615,-0.061034777455252064,-0.06176582984603936,-0.36398971870141644,-0.09242020508079213,0.8037816676206828,-0.9751138526973107,-0.3962491921488527,-0.4755159426680642,-4.064565650270342,-0.22614004164430904,-0.37812064983983995,-1.235445884239811,-0.12281138092357592,0.40652233274420646,-3.7577490548868697,-0.8222576810357629,-0.03210893294621926,-0.6179521131816339,-0.690422076664375,-3.4920652085704016,-1.0207761056206834,-1.3086596411836104,-0.179740001615839,-6.35148180826267,-0.11578500856274183,-0.49350535324871714,-0.7145830391220106,-0.3887553294810993,-0.3710418023200974
8.658402251579671,1.595497223297685,-1.2509478474550901,1.6999224035734373,9.694080577157104,-1.4881118041034578,-0.5556877169797783,-0.3729035250277718,0.9059483536750274,-1.1221400731068634,-0.24930283688927596,-0.016004462291288886,-0.04059263425370866,-0.2190938061482606,-0.589569399281994,-1.7952105572219312,-2.6071317200119113,-0.15548851086386342,-0.13529351750902238,-2.1648384187344423,-1.5089172784891838,-0.0672005726146637,-0.6641635172350879,2.616535006239932,-0.16576189835350133,1.523828147095874,-0.2131839411945839,-0.2506626356039946,-0.6311428493983505,-0.06153048381575675,-0.6756411698995504,0.07613418978472805,0.5864359839388474,-0.43415993578260825,1.107747404851562,-0.5723538916981139,-1.3366876343557275,-2.821849140863563,-0.13430711976450604,0.676757640171257,0.5292628840061855,-0.15447168134206393,-0.4217771184988118,-0.8382328878045184,-1.417275100269113,2.342851688826867,-4.826385473814443,5.3048342598329175,0.34045862581274594,-0.7942945789871857,-0.44409589283415696,-0.7009278480262101,-1.8832690183769536,-2.668192357871963,-0.36758149721096606
-2.7036967234156215,-0.5126631843879652,0.7640082131560074,-0.34725072894216524,-1.4327395107810659,1.1450663981908298,0.31151105902080584,0.34525070250734563,-0.4855077561114942,0.9027346283700477,0.339399503727958,0.2860183115159119,0.18190287485358528,0.09937437788172858,1.070369359904989,0.8837965945181375,0.4056367455032028,-0.1875281171776886,-0.04343622422726297,-0.5568256988146827,2.1398958835772546,0.03596991903513143,0.3727595771817665,-0.14762280642257164,0.29053303441403794,-0.5780603822566982,0.12539450196602095,-0.007902743695646941,0.0014783100857842834,0.06587983663396421,0.040086344652738824,-0.3789725101449678,0.01924020221840826,0.660629129343088,-0.9952499777320162,0.7104832366498073,0.5036653542696413,0.7053632459475467,-0.26205325770921306,-0.3190318797881372,-0.41392172028478924,0.49082863215150746,-0.09924824302065997,0.21875034349292358,0.3380073658438617,-0.9409009811391079,1.6717645883044228,-0.7519601234040526,-0.3127598192444229,0.9901081868676108,-0.2832283079760526,0.050308318522294525,0.8530432122105471,1.6490027483163903,0.2268798927835241
-7.985109877578453,-0.7718440462297261,0.9244028184135118,-0.7734324295328103,0.6936824932240235,3.3290383887800132,0.2520865865918242,0.7494468811650598,-0.6171241847367344,2.735622805958823,0.10373696062132347,0.46615703913292045,0.08906457775277378,0.034256787491850786,2.6726091643383,2.2207361188707444,1.7592387713431699,0.4172949160423496,0.196087554163796,-3.075266764951375,5.501951168335341,0.17790453985901072,0.5600702990274298,0.48834707723189913,0.4996471815900748,-0.9664974349323013,-0.0017198731720493114,0.2490661019992164,0.32177319954309913,0.06215116463100893,-0.8415844755339212,-1.1549377104565608,-0.08635158163423584,1.5294897433994374,-3.010253536359739,2.5653178388965254,0.9149112404631201,1.4449659787808589,0.21307297457285876,-0.4160786580662755,-1.7326377101379815,0.6744592975391901,-0.048060970339926797,0.5925153603244436,0.33840976135283446,-1.9255345225957001,3.8372292859010075,0.02409737188468822,-1.2045810658275253,5.060578153840731,-0.34958601179940185,0.6433940785753018,1.270049195506399,4.3218291577316315,0.3492884194137672
-0.5434361139798641,-0.026449939629364854,0.18736188591822728,-0.11292041728741704,-1.3735377482838638,0.40666849666370525,-0.056891203915052285,0.17769677585351284,0.14547616743552796,0.2823021561298052,-0.15363936280013005,-0.3133991184739678,0.2199877290006553,-0.26557271053249387,0.7403457507849591,0.6819391773458711,-0.383338835188278,-0.12065978050667055,-0.035843246139048206,0.2911950279578222,0.7324814541214952,0.015449660114319924,0.07092039934691244,-0.38515201028508955,0.11411196112741998,-0.23865443468794187,0.06830220515324356,-0.09892181194770792,-0.2439810650314624,0.05807065269447994,-0.12083960340340652,-0.018275308576389607,-0.3095122917725503,-0.38448013620137594,-0.06523114910868355,-0.1404934679126909,0.016775724852035875,-0.6538660821552302,-0.35165234061826856,-0.06418338359716094,-0.41596388762474024,-0.055634910879074705,-0.22664169911259008,-0.0770963169397611,0.2302348428966314,-0.008935365366980388,1.2329974880591337,0.4179785607365239,-0.024547398413896165,-0.31431898981316053,-0.2216273733243824,0.24229541543760366,0.6310783268308222,1.0604458274326023,-0.014761898084245814
-0.3241200625561333,0.11541850851604026,0.2787557288780992,-0.09494363533752885,-1.3616725330775605,0.46348286676191947,-0.04435964850254997,0.201216498946696,0.029236376182943273,0.3574529791242863,0.08646036854879162,-0.30840839804560344,0.09289286935281067,6.101188467214335E-4,0.6327156123201247,0.32404453110209824,-0.0535450216502801,-0.014077040163573777,-0.06587755949222344,-0.004103204108915723,1.05817099971665,-0.3145448711463963,0.1318846759531572,-0.27019268455826195,0.0175902644466741,-0.3691716457596668,-0.18108155779491766,-0.1286632349265656,-0.29459201375451505,0.07362210847051562,0.10047829701363582,0.1868189480953566,-0.40850245029020493,0.28488043373550415,-0.17900423598476312,0.55002829736939,0.20149484757394437,0.6960457934831973,-0.20053557346207193,0.03381218258816291,-0.3851290585340523,0.2952460089816995,-0.23321243596364716,0.09782357479689074,-0.12584076335856564,-0.2072851227010524,1.190643732274332,0.12204013380973147,-0.21713841944763232,0.7602455542627461,-0.0011483854235521285,-0.014748616462855448,0.6221569562152255,0.7519280064033615,-0.18195842903012713
-0.605461554599659,-0.23371725736843552,0.2799468480272147,-0.5589485555652872,-0.5216574226806683,0.5706194343605211,0.25694841557743214,0.161035369926538,0.027923486180435463,0.3795304274044813,-0.15109974449847044,0.17672576521149622,-0.3312931922750039,0.2719814071646025,1.0420891719649408,0.8043031036998802,0.16409538449387026,0.13282181150224456,0.12024481828850765,0.8982477162936424,1.182167878617389,0.23347710104663746,0.13080234205490684,-0.3763554704263043,-0.15578376236129288,0.07373972779645402,-0.10260781053334861,0.08203666384377716,-0.015031318662216063,0.09418431440849645,0.08007839759713574,0.3005200459070358,-0.09047414249722946,0.09220842851386424,0.8075217802940646,0.18978114430633064,0.5022679542346787,0.10878275247303021,0.09026018751645405,-0.032600604177655285,0.29111943838387927,-0.014056529710889823,-0.1352744363310376,0.21555946391869,-0.1096313710328484,1.4657031524569362,1.277419008115547,-0.41153393737220473,-0.1011736734857451,-0.5665991279060564,0.14684046125569566,-0.19128237669115974,1.00930918709805,1.3830683700305941,-0.09548147437248942
-1.146954234866756,-0.31746394654667437,0.25608231018360217,-0.14387111599289137,-1.8712803517681356,0.5731920699633194,-0.013922928852594682,0.06870006307962033,-0.02409821375800273,0.21088885560180876,0.029280835855730696,-0.09980989549820236,0.0985226267989007,-0.20116348971782141,0.593240216745671,0.4318066717553737,7.149616515106427E-4,0.18602497981872312,0.1115679207072313,-0.6650775400288086,0.5848354561147453,-0.15355617571428257,-0.079098221980075,-0.004094292398684763,0.1940803803063584,-0.10791343849676356,-0.16554722550501452,0.16966781100056744,-0.16897664952027966,0.08112730544365665,-0.05102288714552282,0.02506415220591102,-0.13816524174960718,0.29164662024806537,-0.9795081557933198,0.34230082725246863,0.34427537771337635,0.1328966931518331,0.2022700984600099,0.04481084997199693,-0.7302934749046396,0.006829384531522224,-0.019186325069038467,-0.06033640551889728,0.1712430221356245,-0.8557999391363971,0.5868126523263064,-0.015166902171720705,-0.1972110240296491,0.2925760734799165,-0.011018224365390952,-0.13478264536077406,-0.17139040955290882,0.7908186377050035,-0.08747373159341372
-2.4302125237385686,-0.36057911467175646,0.6203546086988302,0.04267728689209875,-2.1946230371883924,0.7442498497591756,0.24413708937178596,0.15623640709693123,-0.17468351368944762,1.1887222061037053,0.19947368216012243,0.11166675533984327,0.08930178465513051,0.13733717838506235,1.0195793598053025,0.7468270278526135,0.22014340152969397,-0.1046704225851165,-0.05321554976814354,-0.762985231856466,2.170855909508108,-0.16296365582806446,0.5093955615048847,-0.13975091973124415,0.3271066626057298,-0.5332128879154874,0.19303921216105974,0.27572314733965614,0.30445779888161917,-0.05581902275896313,0.0688263764585924,-0.2158966569004238,-0.02642168075068596,0.6663297069876799,-1.066100247141227,0.7988886043101534,0.5653336423327255,0.46023761848053635,0.23786385681804567,0.0881630939284365,-0.3919072891119817,0.39585018344882,-0.02411212030195615,0.3664694959452297,0.2711058338466773,-0.18016550189199235,1.6206914410765798,-0.43175345817720456,-0.43438829501339593,1.3347100080362575,-0.09622734533983601,0.12457591587018513,0.27285934705097975,1.2795845098504939,0.3185898300106192
-1.5400404786717836,-0.14422153037952512,0.5229285173612692,-0.08816208990235311,-1.8889141188286782,0.6309795552422802,0.2689728918862144,-0.0647475791396121,0.1938943049460022,1.0379608861435783,0.28947617290630273,0.21474790240894212,-0.238612964949609,-0.008872048904305586,1.0030668472846638,0.7671492951533703,-0.1788502221761043,-0.16136663805734722,0.19551677757661579,-0.20120455345739047,1.5671948897973331,0.36146680143762244,0.1543463853856385,-0.4770170019518847,0.05169385088372389,-0.2946986732004735,0.29054606259970345,0.17386339276943227,0.3423085950161316,-0.08255135166345319,0.09552206791205015,-0.591772966218515,-0.313022402655162,0.1482560153186834,-0.21644237590262624,0.6285732551263334,0.38632019874105916,0.5718182200464627,0.17203995708725844,0.054987840028521306,-0.015979700359320878,0.010823241189589662,0.15389960563172284,0.2641331291030909,0.1148405638261207,-0.2663343203004546,1.377973184372378,-0.5027169735634162,0.15593702469671344,0.06992344672859559,-0.24952380642431246,0.3246109820092049,0.2763062481268012,1.2064830330403835,0.012022678535788563
-1.311938990406892,0.6423859586318672,0.25393806820593884,0.13454437439521805,-0.3359571041515071,0.32362484183755397,0.28869483536310847,0.05783592986756022,0.09710244163329011,0.2453241348096974,-0.08125220469920275,0.32841163333521417,0.21679792493448483,-0.38320697737358217,0.23153747226819335,1.1109921838654184,-0.7263120948306733,-0.040131489259109185,0.04056650192887531,1.9090546278220173,-0.09772692647155423,0.17710437758935563,0.049830360898411655,0.40738521741477757,-0.10270989304911973,0.3152151517644288,0.05822085870168203,0.07181795163871767,-0.26100584173259167,-0.025127283689566588,-0.19013267374882994,0.21414922145733947,0.24213552877192804,0.05664703626039982,0.4908358159368487,0.09253603723509263,0.18938402635133583,-0.8169131460298049,-0.18853753089452582,-0.0974971603592205,0.37149695014774015,-0.07465307780844722,0.15989727038560572,0.29553486640024196,0.3829640750052432,0.0595609940301617,0.5890369053207117,0.22733160821037618,0.13968235477584348,0.02774861852411773,0.011260155078198707,0.15488685699952054,-0.1250509992272667,-0.2910174964276924,0.10727136539043351
-2.8536944449368336,-1.0744926554991971,0.017962593548152016,-0.11496856935775726,-6.02133458598654,1.1430909332682178,-0.11410383097920454,0.11063721039770211,0.09341603226642198,-0.34464040470222473,-0.11914195869859692,-0.37097888761539566,-0.0666381672423482,-0.03782144209943954,1.8106965054443216,1.195033880473531,-1.5797687382826973,-0.006254273467783549,-0.01678716594602088,-2.505262349075764,0.6207158743840243,-0.4777938230723642,-0.2662090339347833,-0.5998703768154292,0.0940722857155499,-0.6489172873225417,9.433620814267837E-4,-0.021213997052823872,0.01850097291346649,-0.19792008064242822,0.7852748569001607,-1.9896487145741382,-0.8110053976328436,-0.4946740694091987,-2.3744251997265198,-0.900192895571836,0.06506827007635117,1.0335701941975453,-0.2526386139315133,-0.09020123612792269,-0.4773524542427157,-0.21969169266777952,-0.42173115740183226,-0.0019793322121690092,-0.49374277610434103,-0.10195842914974078,3.2454109087775254,-0.4117336981740987,0.24478882696770504,-1.4622953167277106,0.001789834804066845,0.01754262919621624,-1.3814537274243868,-0.34677736351954014,0.051708265047478115
-0.9651465209853238,-0.15223852895845946,0.2886203777017118,-0.05677894836429035,-1.0345773840745192,1.2256030059541587,-0.2179178595282613,0.16296448833808655,-0.3644980531973459,0.7406724536939913,0.0405636979166254,0.19952557415082478,0.32370025767287064,0.0990131978823892,0.7535687269144566,0.3660975127688321,0.3360479508465227,0.308729988026116,0.13296195794873633,-1.0847406738295664,2.0515798915761807,0.21862870018942937,0.4717499786980885,-0.2180772697302018,0.2897139339495032,-0.5688795995842842,-0.2025936992341787,0.18920009328066492,-0.06596711612891992,-0.17933259185548014,0.03879394244416608,-0.6948513257237635,0.14234903596318532,0.20916874080052708,-1.5633059268300404,0.5774056415404282,0.26563640925482646,0.312362798632656,0.3109680342475642,-0.1840418436735819,-0.7527809483784814,0.19289463548501629,-1.6076610599424535E-4,0.2279546575029467,0.15400742863560307,-1.3707414103887883,1.1556402515880382,-0.6063531822797767,-0.24125347218343104,1.2312880592522575,-0.02664550120765408,0.06672107527400127,0.38308073496116285,1.1564905769992815,-0.12657886335555746
0.7102962221222751,0.11018251422257092,-0.49673732788645486,0.2002779720293747,2.7931014007101753,-1.2046774993016902,-0.22050006723229812,-1.291581018668106,0.13282447372821082,-0.5316159291548731,-0.0788607402314641,0.39614291003130275,-0.03978152845890285,-0.37598596732909173,-1.5632638361833309,-1.0755629981255235,0.28833713319412774,-0.12345554897429246,-0.4119271177999594,0.2371529120291923,-3.3347380178276658,-0.16151476021432967,-0.5115869256774039,0.9021132302791749,-0.11678532927960728,0.08719063754871997,-0.08826175793660065,-0.14671906727662706,-0.29333229178962417,-0.06035135332382013,-1.0865860284343412,-0.4394297128984749,0.1625325818854499,-0.6338971004080274,0.48954970913800283,-1.1333550341979344,-1.4091555293305846,-0.7790797844297366,-0.032073724365724955,-0.35256783141335213,-0.03653417854548984,-0.29831728777650324,-0.044837158198347195,-0.29964003834933334,-0.08995192860632066,-3.3248280468938534,-2.626860329451592,1.7114603793997183,-0.19159841922576032,1.1748109830031,-0.2983801341292238,-2.220087501813028,-1.4384426878748648,-1.8580331115973105,-0.425857545918816
-2.449197413924415,-0.8912121138146389,0.7919146621321023,-0.5227558169508273,-2.0519616831539746,1.0122469344752052,0.14771285215850158,0.5372917693508633,-0.36026705945952,0.9231277202035058,0.11346999968417616,0.15980621815358903,0.1714462548074672,-0.2407539111075648,1.0390500962476492,1.0661710048709636,0.374783240088259,-0.1832327865099062,0.0659281228345155,-1.0841959938054804,3.0009003386137008,0.33609118742283056,0.30080562099589886,0.021900295872703937,0.16841840142394052,-0.5460034804785361,-0.20206502622330522,-0.0106697029930203,0.1556558371158248,-0.16640442457343332,0.30678306646316134,-0.8737101247453137,0.1381128572439276,0.7319414303736804,-1.1187786500995915,1.217745020262267,0.43730786717003844,1.009009909477753,0.08419878407574226,-0.11548554102656447,-0.7690212760576779,0.534955787350876,-0.2670744610643463,0.278125826687818,0.43182842971084145,-0.8956516349381793,2.416406276256201,-0.7494864797831916,-0.36005116254666003,0.850266419041152,0.31548248088252434,0.19686913462213196,0.7550126918863024,1.0016053005658587,0.008133083104044963
-1.9868898735868514,-0.1436822605608215,0.7987175618883186,-0.5495447986853615,-2.8710809579914116,1.4542173239024767,0.04705393964480624,0.46626947362896565,-0.24099688776986156,1.4423353971812651,0.060330485529681725,0.3459123694843406,-0.14278706780228637,-0.11389353689836428,1.6561954602016373,1.233455070605613,0.11659485156040296,0.0671291594961011,0.37914568287911343,-0.022499067039009463,3.4908317893043765,-0.052638650867847775,0.4740329172640545,-0.6468960310735754,0.5172327809402665,-0.148233076189803,0.3154097340211835,0.16531546916613835,0.03925704535637894,-0.15847944723285623,0.7430222110139392,-0.22488888479577412,-0.12701435447456183,1.253522282841123,-0.2802049970224811,1.6171785743455855,0.4791924387312781,1.6809812341236432,-0.12899655350324835,0.07027830316693827,-0.3625819591420812,0.3239844791941831,0.3475588138474821,0.3392016786134346,0.11125788614572968,-0.23047511838771803,3.123362686982793,-0.7620791792393724,0.09177549514558397,1.4791992612304408,0.17523430810029514,0.646177684928316,1.7512286456316617,2.6447513916627683,0.5405257855814942
4.286196166690802,-0.5578502147555485,-3.6198773665901602,-2.5128793613959783,2.208816196859836,0.3091001170476644,-0.8844057733665645,-0.4793658882154431,2.2553020533261545,0.22870718324483227,-0.8343296302112805,-1.4823562474986158,-0.46371124655979057,0.25861151084384887,-3.3603685699702424,-0.2590927604479647,0.12476592877572307,0.029620436474130395,0.051375967862483565,-4.084602380200012,0.7150610066609822,-1.0210783835972725,-0.3022440001730689,-1.586247344007399,0.12484078782564619,2.606591150466614,0.027226850287298588,-0.5566700934431679,-1.027045746179095,-0.15927345256129813,1.2748835665451077,-1.1133609943332645,-0.7496877977738026,-0.17776069917190296,2.622045285598945,-0.02934096835867026,-0.23500215158114923,0.6488297973248736,-0.1099125882698298,-0.15395061818646677,7.9953209439674335,-0.34870249115413793,-0.12710570291227333,-0.7212803050688388,-0.5894280663760607,6.1003676732601635,-0.5668386844818232,-0.5190333975273007,0.41799384063979783,-3.4012246088842364,0.1211647302936961,0.007292210574461022,0.1704225071458005,-0.40771219629257566,-0.09920829329771455
-3.3196461248075066,-0.7387036824805906,0.727755651016493,-0.16037998796205574,-1.2017764288634925,1.3195879861764797,-0.0297395358649004,0.6224464468764106,-0.10159455793537563,1.0228077679503325,0.3327325893457194,0.3380474904968284,0.11509983541464389,0.14825937593885055,1.501353674021524,0.7752464627023415,0.015050918901471267,0.22397352703329806,0.10101696717130192,-1.4136644693132132,3.470088174350789,-0.08241539548117077,0.2982659863962888,0.47789317280096316,0.13251584310892683,-0.3446178931206115,-0.018755679365684497,0.291512050690194,-0.03582284133569079,0.3318792686750147,-0.12278678578640813,-0.8196791858350508,-0.4104479744421858,0.6640995488349591,-2.2635805779784324,0.15855124588488828,0.6691438962350522,0.8701889129735707,0.19098986508715898,-0.02633683887125581,-1.1026503470982434,0.46130352844484057,-0.1584928353882375,0.3169370574103265,0.20668841149260983,-1.598258300280015,2.800485605069406,-0.15023568198156395,-0.4133938348458412,3.25598386543883,-0.060302189596296366,0.5964703213744386,0.9096588516638591,1.3115810227757354,0.08275712847400836
-0.8240045901414581,0.07167068140444417,-0.3233574443932359,-0.042817797866077,0.6268361739861266,0.08096361605941474,-0.391937761903814,-0.4214894242573123,-0.22939388294552068,0.12677579641924316,-0.28199226923676757,-0.019813860194769686,0.04046023982680851,-0.06659795860210377,-0.03151528131615978,-0.28485385669025026,0.2440013400395444,-0.03816157584484127,-0.06916620162465356,0.1681940460165903,-2.2372371747495783,-0.0669649909552448,-0.05544593303700567,0.09403550091001998,0.15319072917923027,-0.2555651936055624,-0.1471794692534254,-0.03616514911029507,-0.2037216606984921,-0.06456390268719642,-0.22797608940610462,0.3533103091127746,0.026588948347815666,-0.2811419732551943,-0.43994936161706133,0.10314144659656989,-0.09000099256252056,-0.25385602013634656,-0.3590938199953144,-0.24793504667272567,-0.47585983912661917,0.15692304021614287,-0.27809893705391764,-0.4635473458974449,-0.12296055490829456,-2.3002195163488217,0.17137505559279917,-0.3093678982941657,-0.4892984477789144,0.8413801477649725,-0.09588813988141473,-0.07575546840603224,-0.1537339318275143,0.14632260784323753,-0.23076987340851454
-2.4558888903299185,-0.18256059858684837,0.2710667585601074,-0.3557082559803901,-2.1491728540043415,0.8610509823790786,-0.07057847094673893,-0.03241302626048841,-0.19344535270325613,1.2177735514264048,-0.18374608490596442,-0.04204990377266225,-0.20283540959214674,-0.27943567523331875,0.6832025999864565,0.21268398290453214,0.29326023811407353,-0.13168711605187589,-0.10429153040043583,0.09379693457275308,1.6629745482274518,0.09766287638604147,-0.048748369845048364,-0.24694050706665094,-0.15864308023640342,-0.2707403841092552,-0.2606137324223676,0.03789010683147119,-0.1291198038780017,-0.19265682210379567,0.10140440321171762,-0.21931464145792226,-0.1527994349205794,0.38334264435812127,-0.207394850731261,0.7988489238580186,0.1821480351132717,0.8495892528858872,-0.28014455037408575,-0.219251813943417,-0.44547565004108297,0.316489702805487,-0.25510147232241387,0.17073326110841075,0.2092832969028707,-0.3933454494719542,1.0464089096433928,-0.8281350802781943,-0.31142304023072265,1.104172919285874,-0.25808124979505537,-0.16528709809165637,0.7618606852088432,1.050991959602038,-0.09274685512960247
-1.8468848598514997,-0.3098233951459173,0.05406560627799724,-0.29523846852345065,-2.177710239183624,0.5596112136604291,-0.11770123265930431,0.03212894056017279,-0.3679787920520096,0.5924111114729932,-0.15388238927031375,-0.26191923479969503,-0.1543631767128033,-0.3303794917732439,0.7281096049412779,0.43496087705985337,-0.5116298959593284,-0.25795340724631866,-0.21317630320040618,-0.4976813507474749,1.2050902140501532,-0.30274121554846234,-0.1462803432219927,-0.36244547457623355,-0.18621397400594236,-0.6870893358863239,-0.23382278818586683,-0.1558400466036609,-0.43389959900103364,-0.4338339235789102,-0.13496612322987842,-0.5153959016372432,-0.28438752102159526,0.006874780926858174,-0.8894280244644773,0.5413085777534765,-0.17003822665691257,0.041004692444288296,-0.3202071097941581,-0.6319051775303542,-0.49834664684783864,0.13014497910628167,-0.39160367746388397,-0.02434659474618183,-0.2879238466502431,-1.3579064729909929,1.4890408527883585,-0.4913308323792765,-0.24058484297582317,0.6767167710233809,-0.3069490109102223,0.0972256744635637,0.4437507226269997,0.7761407546009775,-0.18543160261609115
-1.7353935502613493,-0.28025851500920923,1.1666520600506969,-0.21072670007901012,-1.9745509189336432,1.9022152278638966,0.5224426289918199,0.25524449664388354,-0.6014995631775059,1.8513927822288385,0.32534992678067537,-0.05403848042340016,0.5045998923681168,-0.2501222872611238,2.3805409133533684,1.0778997269720814,0.7649895749586977,-0.0675846962761627,0.3901503888015918,-0.311221510044299,4.743013408802125,0.4676309879831352,0.5377541220409485,-0.6974720845522986,0.18291818572604956,-0.18688499634015468,0.3965765868812744,0.5232399917525383,0.34019954981569145,-0.1632057382663611,0.38758137673512966,-0.5388030017078342,0.09887690570351136,1.2682290582351912,-0.9961357938484191,1.9961740082288302,0.7560652417513407,1.794139484494801,0.26904318824414086,-0.3861427776432815,-0.5349983221753787,0.5759664906118138,0.23814680641738772,0.6120428139099713,0.5971700367493357,-0.7903723370084184,3.4751128078392775,-1.2831648054379714,-0.20704438940533312,2.134208346967971,0.10535714460545202,0.6179340868104285,1.966026363279061,3.3165160702419736,0.20034322907045388
-1.541297753625999,-0.2495517579932547,0.13244609790893958,0.004216496832965968,-2.508085011620375,-0.17388445129590585,0.2853089179584138,0.05499299569422642,0.24330413149034552,0.5019055270650634,0.07743447002117744,-0.24238052594798049,-0.07733606687101742,-0.0325594026551232,1.1302557614534114,0.2948523992718821,-0.7190311676594024,-0.2749615415509418,0.14645120492442282,1.2644610475435227,1.5518748549564239,0.3141127994053471,-0.1827759960904143,-0.40069164628126697,-0.028318781748257364,0.2582975661232986,2.806327779064522E-4,-0.09443878791248013,0.27652152421726495,-0.18974343864226134,0.24016956422272717,0.05661725595918958,-0.1280918497351168,0.40639302779542813,1.0362103179855287,0.7737482726402829,0.2821567533651552,0.7491122856595583,-0.3372458536642939,-0.2839480069463355,0.520849206253,0.21042067972555492,0.025864779837336125,0.1529214619118071,0.1629328936457845,1.0192495535816604,1.5050069303863942,0.005283865981739227,0.20288874496792267,0.7559045389789097,0.09362406923858771,0.27546858442562633,1.1074440283781923,0.7667176128620066,0.05220681147485001
-1.527625188022412,-0.44019109188119426,0.14372327426103165,-0.23283793544594636,-2.492141674926209,-0.4380508033958079,-0.7578654850230808,0.10004332358481209,-0.10704886243752135,-0.8234602660024938,-0.4132145231280519,-0.22282827349394593,0.11283928792277152,-0.1529808123454012,0.47247945012581677,-0.6332167555149804,0.04785639057227907,-0.061560588390695066,-0.2926936947924568,-0.2697804952442545,1.3757568020103632,-0.26096375754121104,-0.016230446023573628,0.0014140643594368594,-0.07223108290183558,-0.5728996235691979,-0.04505121151572995,-0.07611695677692455,-0.16607307205620178,0.008528300058106049,0.06084264024418141,-0.06405175062281786,-0.16597893198000022,0.20183349195777675,-0.2062233462737452,-2.3217722540705696,0.3328714053231391,0.12333334861457113,-0.05891261890216108,-0.010694538042394789,-0.11494005031656584,0.3712356933282408,-0.2667599758980513,-0.09463218940009298,-0.04305529668487005,-0.6982377561227492,0.8671760080860882,0.18741339402622192,-0.11377425983443791,0.8224407216955839,-0.3170944088966093,0.01187299197960799,-1.5320566141606677,0.5999968746041717,-0.091154191399641
-0.8176782611464551,-0.3544620388913237,0.3167760880113552,-0.1388602515398005,-1.3931280440920784,0.5362585866838588,-0.14314113221544278,0.22122898652731227,-0.12783104367514336,0.7833227109931579,-0.036882629925549845,-0.04656825019609455,0.24932794409347744,-0.14424495060503195,0.892714403536364,0.6196788017919623,-0.32722973237978475,0.11109656591156203,-0.23282378667685788,-0.06261690923862874,1.675953043769009,-0.2552568576113568,0.27693094349182923,-0.326041678182985,-0.0561266726132963,-0.05044389920044971,0.05593941131310548,-0.2268571993426791,0.015686377166800484,0.05398893892545674,0.24496727268159654,-0.19287473352030077,-0.04611672541604044,0.3920428316532209,-0.14242890460107535,0.5510717663975537,0.4262919397638745,0.36251143462563573,0.054142959540107484,-0.10630715639548795,-0.4643276182228518,0.08848447577894804,0.043721386168490646,0.38925718742785803,-0.010078601057429226,0.12223993005862398,1.4977516364097487,-0.40929271173466747,-0.1497813851135338,0.3588362300120326,0.048551894859397864,0.30426185570135345,0.4762986026182415,1.361534823650334,0.05803561416890184
-0.9238146322263101,0.015746874563754645,0.6822112366124423,0.1232684380463139,-1.1507496800045627,0.14340906372929985,-0.027938980802071956,-0.02315335216550336,-0.11089149674005687,0.8765421372022304,-0.04031599611421444,-0.012960686181660484,0.1177973354838845,-0.23136338053432293,0.8179665385991012,0.5213430935326482,0.03724373974128003,0.3076567113381704,-0.1897925442673198,0.4684227467105206,1.2454972935358677,0.20328628097869597,0.2603892324719145,-0.36016086638624106,0.17918344058519406,-0.094942520675579,-0.09084939005010433,0.08724559004102389,0.14717599252215857,-0.26728921442432935,0.3600837144498944,0.2513337699830462,0.1017754966769495,0.6689143819306269,-0.36175805512711834,0.7531107107451265,0.08368177462300781,0.41304091511387314,0.23614839650104044,0.09135831498083527,-0.3602842122464397,0.3706879686601427,0.09652140655837042,0.18321698136434114,-0.2060022654651928,-0.26400493370865485,1.1121419098580887,-0.28776560606649537,0.23814207633504053,1.0307819593386496,-0.09369926537666465,0.2904114582914995,0.7668985177414313,0.9050778960765288,0.235400417033876
-0.3215099032621535,0.06180539474872806,0.2859522995247423,-0.2802398301507956,-0.6968892017869275,0.38689451163724414,-0.20445214741166348,-0.0013736872374469763,-0.1702972687045468,0.5014619161303496,0.06349424251154638,0.1653123427414205,-0.11199639790260227,-0.2547973556964697,0.6199831689881818,0.8412614506891178,0.2547813835361814,-0.06110997719207991,0.10163240190179956,-0.05405299825423576,0.37807208894350997,0.21802552523064375,0.1955450803212729,-0.43931755460318467,0.1417297898725232,-0.43650213349002753,0.028785095087688697,0.1358820030906316,0.19703768379672573,-0.10517367165026938,0.17852682396488154,-0.05786973612506362,-0.11746734519138931,0.2988696812730128,-0.594611764114292,0.28292421300532256,0.2934093142802961,0.2250429643624236,0.12712391326513386,-0.24837347741602864,-0.5459806168681072,0.2040095371640158,-0.06548192655208644,0.07284037888242567,7.954034157067421E-4,-0.27101268034479015,2.2031514153536453,-0.005171979888641123,0.25917093164535254,0.41651875370524916,-0.050264077754627955,0.18322870305944783,0.5048290767729834,0.7987447348827001,0.05902467422712787
-2.4715617148746842,-0.6216106440581911,0.7912976772349741,-0.05138933057733702,-1.9812637414541046,1.3056965994116707,-0.07859858825786935,0.17811502251330819,0.0023314437215784484,1.5928576842126536,0.35880010514080996,0.3078475912878278,0.14294085833406828,0.2125575902674755,1.4039510464774299,1.079518580525901,0.09518075145520535,0.3564609552009959,0.13494761376452116,-0.9340626970303751,3.2786939843179876,0.10995989398795177,0.4794871133929507,0.17384327531291419,0.2546517770663816,-0.5871155624050308,0.11940937972388728,0.22661248169171405,0.07861948022444921,-0.1933745618301944,-0.2833989302185361,-0.8391085718358849,0.1509314414118897,1.2235498410326355,-1.3985593145028081,1.4702673140475995,0.49933299806519676,0.9517310745994768,-0.13131686490876013,-0.3615389087391453,-0.6205296778446672,0.4731519211940767,0.15637307936143643,0.19584557688942894,-0.02108292795257924,-0.8838968087514004,2.3504793925387206,-0.5523957237621017,-0.40885069941296587,1.496498839436247,0.27342077678774346,0.5841413331779424,0.8922159136486394,2.19992476645916,0.1765899854198695
-0.04839960169353862,0.11474706473033248,0.40207232837342016,-0.2459656895687056,-0.6053124318863349,-0.2291926943898116,0.08319972428912248,-0.150400313845382,0.33402706794182496,0.23243361327852416,0.17431838701939695,0.16664888195725713,-0.1523524320042672,0.17242234106508061,0.6867486788374427,0.06119596139826159,0.5443631885671811,-0.042978869005293636,-0.2153188223804356,2.490780407397064,0.6088799999643729,0.19570914478613058,0.10090716207931502,0.21954731539964384,-0.026635554715972395,0.6508739973967806,0.020634442706633713,0.09776873842534545,0.2523644477306021,0.19233329110499126,0.27008154790469185,0.6439663508614955,0.3362764145027876,0.06249472544393147,2.413160584501825,0.17759467237857182,0.333573545417297,0.4490654752601548,-0.06390694475716678,0.12412520476710553,0.8110908194149345,-0.00603141859194051,0.1336233530129539,0.24755248909950842,-0.25128724887568665,1.7671909468327043,0.59043446958973,0.810749579396258,0.5680810190547642,0.42324890911471813,-0.0032521444019575083,0.18385312134988271,0.6422097569870326,0.33611253198985497,0.0559230533207102
0.566473370292512,1.1086911107134427,0.2032068886237762,-0.1382404386301148,2.394260145642495,-0.4490468258968866,-0.08991003748833132,-0.19022898752130585,0.36255242426072226,-0.04350611043562104,-0.10107835887870432,0.46198663459240163,0.034800730054276696,-0.14993541607497807,1.209378151993316,-0.4704185510821485,0.2270336237782355,-0.08782166560188502,0.040529882289608916,2.3431265513442283,0.8281905583710841,0.008402236310231223,-0.2744167130296171,0.767469293195694,-0.2376442011814991,0.8222857440671079,-0.08657007850552317,-0.02478928622859992,-0.12980508816501013,0.15714936068812746,0.023695295376628414,1.1395792629357162,0.739979535904561,-0.12158349803663618,4.129789261686746,0.3092500528738319,-0.46995564242459975,-0.3695366867915353,0.034509577686132074,-0.15544564434908087,1.6071556363766073,0.005098197002777676,-0.07439883156943428,-0.21186823280359504,-0.44698803558056227,2.5549147611113185,2.2930471569352764,1.281667545795675,0.6872963952152003,0.6742069822619287,0.0011492625577341105,0.17357540171914057,0.9949717901564529,-2.5605714811082976,-0.3185631166589528
-2.1559380320868042,-0.6728926869853479,0.21787672498774727,-0.4434904073953848,-2.3784087289484956,1.0070872910033482,0.08807445513973636,0.003330890627143776,0.021695430185424275,0.9399634455061948,-0.01867143138556351,0.21513243945668983,0.054241788585574394,0.30376999015415296,0.9563696489661593,0.8291799919424916,0.12449124928358367,-0.19288139740417604,0.08690966681474382,-0.5462299320430642,2.2000076702858538,-0.06951971470183382,0.0684346970510097,-0.018671124186850668,0.16262388993364604,0.05561568654436083,-0.191093517034241,0.09919315586289211,0.07925924851230903,-0.2659946687052108,0.36269550161493747,-0.7908627923258055,0.12804164917187752,0.41825492343305537,-0.5835015496364973,0.9624741757852445,0.6705310257381407,0.9750016378728882,-0.01214355898383233,0.0570524164289883,-0.40745887052494945,0.2376772213298398,0.14794204923805904,0.18586861910745026,0.20384841021122918,-0.07806544508002944,1.8934616993664488,-0.4784163375816977,-0.21186718426699933,0.844920227290621,0.24199878674197464,0.3283021604263475,0.4384905163293653,1.04597107618531,0.26275744142386126
-0.7792577956848826,-0.5672889222829877,0.751127087383149,-0.1438330199995175,-1.9126032000241306,1.4942645986674177,0.11494799585814283,0.46523398756411494,-0.09978778415597013,1.350339988332455,-0.1838977039484769,0.18032576142019455,-0.14920606803276382,-0.07338111620073949,1.2701447391082554,0.8933158548009796,-0.12645609791159845,-0.05807425945275067,-0.03172932792171218,-0.9145289825831351,2.90782247954413,0.006183316516889606,0.27252049625618807,-0.369775927033127,-0.06559453552403605,-0.42667585734120944,0.051531162115123895,0.2827336290734961,0.09403747176321214,-0.043605706433105296,0.17185345939214217,-0.4907414844929898,-0.261944505909415,0.8815907237162898,-1.3794948885625409,1.4462943134374906,0.3180582445814042,1.4618673714637291,-0.2233831475591181,-0.10810092925919977,-0.8188333454848594,0.32862732258447386,0.09802777227163281,0.3623470593458782,-0.0953869736553125,-0.5564774943645341,2.341190717183122,-0.9061056102652671,0.19530870141274034,1.1161222689246575,0.2761080890474167,0.3510102356918645,0.8364892876238302,2.021350867540184,0.3590977833778643
-3.1155655127524304,-0.7288026174957889,0.13254913856584888,0.8792760131069938,-1.4890856434407675,0.1579372272868474,-0.010065923234026167,0.08236318952793795,-0.2727558012167036,0.3515113442852781,-0.18963368796626542,-0.0648352581227544,0.07345312842307385,-1.0582015978557233,-0.11182898049559188,0.21713390215050266,-1.224691229690114,0.13743857935132375,0.056852956143608274,-0.46790339755507543,1.593965735827293,0.036480649137355624,0.11390514470157995,-1.1416109343797367,0.21306646572035004,0.2899541393245424,0.062244394866509234,0.02339761246709846,-0.07284534500149913,-0.24889565940470826,-0.008042684664721144,-1.3113084726859658,0.23193558468018044,0.2976358682787251,-2.457383302508883,0.26384546495972516,0.656621290796243,-1.8891557623241326,0.07277996277714353,-0.36534190644386644,-0.07285148478598905,-0.1713742000904689,-0.34710723689916034,0.9244706523032865,-0.5143416634391608,-0.6260439299530391,-0.2380514257360334,-0.9557500712262029,-0.544010581545081,-0.9390369171856557,-0.29969475119382777,1.7759768830984934,-0.6564888042463478,0.9537077910081585,0.052651121893065936
-7.885699519667313,-1.0663908927880603,-0.4780950863860571,-0.8323883493451025,-7.812328975471414,-1.3709727554009334,-0.07911188318426715,-0.10284924027593148,-2.5382316403114262,-1.0435422135179435,-0.24525862522741132,-0.8520807798991097,-0.16995429424107947,-1.3376167643874657,-2.8605995153241004,-0.4569660742285104,-1.8476571295960889,-0.12346430839659353,-0.08996919978612423,-3.252291486259314,-3.2759236479700204,-0.16726823820124267,-0.6948149485252059,-0.35033306163620964,-0.15873537004328062,-0.7096150825736317,-0.11208386779097719,-0.10454060885676258,-0.1528529727336511,-0.27343373068323806,-0.08407921507182887,-2.174618328250412,-0.4185663227605662,-1.7102047486041319,-4.821134609188034,-1.502153540840731,-0.9089322369008912,-0.7837641151448188,-0.09231620829331397,-0.2817633644921296,-1.9789413728645997,-0.07198332476645856,-0.6280447541170432,-1.370338313485219,-0.904858639788871,-1.9503785545486918,-3.9530021646163007,-1.1163456344101714,-1.888526087803063,-1.7781623248200735,-1.9825606219087155,-1.4514391419669388,-0.6609997305067569,-3.561762254484456,-0.15331236124194814
-0.7882446431362021,-0.4198262430304356,0.15496839036146515,-0.3882110752542594,-1.2949904498231084,-0.39383354210278304,-0.13494494983982488,-0.09221944252619443,-0.3615858304796401,0.5082034123893489,0.011460006816424327,-0.42244564298958803,-0.28804566434646295,-0.30523487609274275,0.7551509052475165,0.12910013585107993,0.8285272679247379,-0.0678032801866276,-0.23311273712384964,-0.7269246130235393,1.0405083662002181,-0.22336811770552534,-0.12253483160715473,-1.4704500411068546,-0.1963153432787637,-0.6436960801005805,-0.12364419742050148,-0.07125812161611196,-0.001483526219193992,-0.22390025985155354,0.4406836213548507,0.06684890596283084,-0.5253897605202333,-0.20824568552341455,-0.9578938324316386,-0.019666094412085267,0.20267072656971694,-0.7168749413183026,0.04614530261936004,-0.3476128507347908,-0.4571842678255387,-0.2404674825810845,-0.03557474458553483,-0.32760302616686793,-0.010309404543758985,-0.2510544901733374,0.11044157902412081,-0.6626963567788844,-0.24895761015751333,-0.7555681285248865,-0.7118842452828096,-0.16034617732851508,-0.02055893687599606,-2.8049943278166674,-0.004562050821039925
-0.35797127204715534,-0.18614543834858532,0.6673393072682472,-0.18606895374192103,-1.021717073177454,0.5605493419962364,0.24049820325930815,0.2443520041490835,0.018106903301241165,0.5883150411103839,0.05824346067069117,0.06912709418184093,0.08710686565051674,-0.2298326287057267,0.6262606840873389,0.46196541746016945,0.01114651848892611,-0.19731395015827013,0.18945723889932412,0.3431257773943425,1.30779742409471,-0.1279459160188874,0.344641411152443,-0.2961633932082304,-0.2072684516061255,0.1863646941207798,-0.028010166357591435,-0.009267976882278903,0.21116185617468675,0.1287090673749767,0.31816890349137483,-0.07257238573706465,-0.1908508772463372,0.6274566969609612,0.19585425800973932,0.8289995769296248,0.4028060695232002,0.9361642613172997,0.30475436512534493,-0.005701105260024398,0.045333304661871326,0.38249987295911475,-0.0796816411857404,0.3927751595892166,-0.19657332312805145,0.596404898557855,1.3217910075742767,-0.11057946669418832,0.29600856502089046,0.7897932716774269,-0.08287012825103364,-0.0388603502281963,0.987871707873632,1.0814975001191398,0.3722952252413175
-3.2802027229280615,0.7068621919901272,0.6931417588961691,0.5071951181483173,-2.310805064809623,-0.5061043151049007,-0.38132561068299037,-0.17570939846109074,-0.09547396402488326,0.1759945407668964,-0.11208842879023748,0.0914641192952083,-0.0531532684993233,-0.3186687359774,1.1282851213358103,0.14987895850695476,0.49391316033567195,-0.194661929508359,-0.3696626100584265,1.2168497479041818,-0.6883789448124501,-0.13302034417480746,-0.17921869938368837,0.07669493532971293,-0.07382064166443117,-0.2712381146688835,-0.2241053268514507,-0.18479334629820376,-0.41315573768678443,-0.18896947181031376,-0.47762716884110257,2.0406205976079814,0.16040795590400836,-0.31586805716202454,0.7064627901525266,0.5692986477579159,-0.02511817149607084,-0.1709105924234009,-0.2478602909185594,-0.12525062763477599,0.03293859699741213,0.29881526378743023,-0.557321415757625,-0.45831818162240345,-0.18591290481415593,-1.948428455088975,2.242369096785507,0.9327504161258587,-0.3081076720940865,1.7005117212970116,-0.23320459175401356,0.1479259921660096,0.016068638549830826,-0.5684197380314503,0.0020674011902367872
-4.014382089793007,-0.5589016641722327,0.6451922752676784,-0.5577982189557211,-3.449196342450986,1.8085683695566268,0.16027559230158545,0.5865608457510474,-0.2866797899258515,1.6679773859530227,0.13900225804705618,-0.12943707862605675,-0.006812260650209713,0.06238753286625367,1.4710800460888305,1.351218837104307,0.24826819805989134,0.3042115536977902,0.13218644386860953,-1.6599065235384933,4.070288802067352,-0.03744090208900504,0.18962402767183276,-0.4480482350328869,0.08518963656868017,-0.6097664734431412,0.04284093293348222,0.18734914291329857,-0.20987027446879872,0.06973054639709386,0.12674387864187278,-0.5809946063787021,-0.3597134495194933,0.97908041011381,-2.226178119080198,1.6915541526346567,0.8640559850708739,1.1674605272137677,0.04912560445799247,-0.25108786184182746,-1.0468741993358932,0.46726032811222973,-0.23746108846689737,0.142514854304901,0.0014260380768372212,-1.4920602014512614,2.655580159947866,-1.1547325947645979,-0.25943280055829065,1.7408649192549945,-0.19288878762860742,0.18670673671592583,0.8134939185396843,2.17332887307014,0.11453269160238372
-2.571794378163093,-0.5479818839894189,0.32604946863816686,-0.55960476243717,-2.525080048298155,1.0022410497342045,-0.024097779606342105,0.13611820591340304,-0.34531569030633136,1.0385305789280337,-0.12289643789759701,-0.11595368230803355,-0.2837105729810163,-0.25470884112854936,1.0875457316618067,0.7123753268548595,-0.08267641098924161,0.06171519636511836,-0.06435746762561449,-0.7079230888169346,2.5254835949467793,-0.13302369335932945,0.07778317668432813,-0.554428663539629,-0.1921432735454495,-0.2280285271451657,-0.09820034652046764,-0.13843092870181417,-0.136599073364881,-0.09243676585823064,0.041534160810008276,-0.5782358872919088,-0.38833103968514077,0.6928500329039642,-1.2797326023114126,0.9292026255458625,0.4817363204837763,0.9345443571120527,-0.38342146376887654,-0.4399185530757132,-0.915511478775229,0.14009780811960054,-0.14531284224913985,0.2536274874902401,-0.06435055293988465,-0.7265603013429845,1.9829249090556063,-0.7170539088174517,-0.20507923482016213,1.0364364396403063,-0.2306074884876985,0.17972742440965037,0.6920131103997333,1.2897897212006042,0.07074016756367223
-3.286766873244395,-0.19191983412780966,0.1726829965129238,-0.6105698006313601,-1.6400338253761766,0.5209230129599984,-0.04022509534065625,-0.21064270865717497,-0.6031986214478868,-0.157751633310813,-0.2856242886172591,-0.8512009855942191,0.05073853669351862,-0.4017414818099985,0.20049113393727236,0.3936537308071935,0.10875430188091219,-0.17156139623282507,0.13063381882522915,-0.21828930812468955,1.0524941358301094,0.10964357815309536,-0.021951151460914062,-1.3196275644860669,0.10411851006537894,0.16435595445133983,-0.07765544533736779,0.061871444998536605,0.1570579701000224,5.113663047284075E-4,-0.22084015875344115,-0.42334653074971745,-0.10077121444710352,0.1735375437063637,-0.7759588688202035,-0.35429382646673807,0.402616612750649,-1.2355246616427649,-0.023260811444798548,-0.19489190552435642,-0.2909757260385969,0.5661702177920902,-0.3476912504763033,-0.5041191617277445,-0.15097966403349328,-0.12092578414335269,0.8951508562799689,-0.736393438914241,-0.15724488420803978,0.5525821740637313,-0.31194954653305124,0.14139024791089327,-0.5636802297882121,0.7247561100064714,0.1100411229845879
-1.353310183786461,-0.5270896300296266,0.9837615502136564,-0.2768249939380471,-2.9813593733993673,1.5252494670458756,0.38654392350266564,0.2451316116116106,0.18385851225905048,1.540719948341177,0.3560801767060106,-0.06666357973163983,0.2490138797147804,-0.0777897170183666,2.0575190092883657,1.1970256210217953,0.021024184854752083,0.31855899776164043,0.36930676687281144,0.08623249365777065,3.716126181271515,0.13640314260092407,0.22701694555003893,-0.6097328984757335,0.387041090588253,-0.3520218239067174,0.3664823557612146,0.49961658410062687,0.12753650482392678,0.061417045517130855,0.46584914984044395,-0.684302243779415,-0.04216322887255608,1.3007567747945086,-1.0973698131953875,1.5139303813089886,1.0451148570457247,1.8331477439475339,0.1330867340277294,-0.2354197827500595,-0.8354093396915065,0.43684267054898995,-0.06458230987945864,0.4942468136339211,0.28518849283372155,-0.3757365927258095,3.593735793736114,-1.0121560524596303,0.04176067143029424,1.3862671469777668,0.41429159994459464,0.25692324429893704,1.7272890108907126,2.232693111956512,0.5273441744978975
-0.44153104407342986,0.015950134725908876,0.5171726417604321,0.18518953040109734,-0.9115180046630774,0.22225971688214538,-0.169196701763552,0.01485280841479976,-0.09840117618683385,0.5654512278263164,0.2207181683553661,-0.14548545704055005,-0.23647823551967495,0.0044974556617146475,0.658920597891415,0.5268117089064756,0.4923549781535464,0.11574154869675758,0.10798530063825869,0.25260669597737273,0.522916101379714,-0.1595888784656352,-0.08907691954517881,-0.4529281206724689,0.10484942634853908,-0.3116424407699733,0.09057163519689618,0.19170305545456104,0.5122524097811229,-0.09669575380851415,0.2392026374306174,0.032280629523642274,-0.0726610263065452,0.19495275547071758,-0.058847774261459096,0.34513405546000664,0.1690571803282284,-0.004387350671660538,-0.18619786322542387,0.03739140807165204,-0.3050237124137571,0.1742380543115159,0.10832278882241812,0.12976762350958992,0.06473976024077235,0.18766314829674322,1.0431555396921925,-0.33525451583109095,0.2768572331337914,0.5786345903099195,0.20889639640576596,-0.2773406639447518,0.6343288321053657,1.0612740332504085,-0.12216778664635396
-1.1814206971395222,-0.7776060610704625,0.6350942548075545,-0.45241144385372817,-2.5861910402351307,1.3338802525142757,-0.0455075252551727,0.45609220359618163,-0.05441472662261759,1.739759469851038,-0.1297202406255496,0.2567117559409234,-0.03610469063032268,-0.1735690964558319,1.8287808841429904,1.1953109684324823,0.0895589709816827,0.33896122448574956,-0.08689878916814675,-0.09140873457623104,3.726980312750164,-0.009578972486869267,0.23181843115255021,-0.14788322609890972,0.2581966987031629,-0.21289978839460744,0.20294373713251854,0.045187602787001895,0.4194937195216461,-0.20784556276003874,0.42057513845445116,-0.6447546233387103,-0.17152567859622853,1.041219376260631,-0.49521440456224547,1.56430285426626,0.6448822527915885,1.5271234887697305,0.2558745032958994,-0.2731198357003555,-0.6503541882556244,0.4539713205493922,-0.2154151955482965,0.27382330666238497,0.4275664900097446,-0.07476533777164819,3.3537708380698494,-0.4679760641909405,-0.05229415082805378,1.6367081863183461,0.21734878483320316,0.25058884400774123,1.5767797480150105,2.1796104056419514,0.18059565005045222
-1.581269818332075,-0.8559688491646579,-1.5546627084323337,-0.12843199001185654,-1.3331426644107751,0.14211799663399388,-0.2676155718469369,-0.6035232683891948,-0.46984666082322274,-1.4622670922377756,-0.18855091496313342,-0.04063435262680985,-0.07083145546380828,-0.16895038834628184,-0.8640458264305538,-0.25143341546528536,-0.09782712890383202,-0.14216299697029286,-0.35585813882127254,-1.7120911181011222,-2.801443131937917,-0.4170638019841496,-0.2364626911638014,-0.4022997493489836,-0.806797446913091,-0.24700872136949142,-0.10016645202581492,-0.2703038644763188,-0.5205705967724855,-0.1117516498541087,-0.7099303814521526,-2.3085020447767794,-0.0612365812748954,-0.7872652009129425,-2.2247082525056787,-1.2633697773176242,-0.9615564675680408,-1.2237512007866176,-0.06459424373342049,-0.6966071593409001,-0.05315157582520007,-0.6422735997854564,-0.20734349393528598,-1.5171215208873656,-0.31974036103127706,-2.1637521963163047,0.07910840445817613,-0.11325921437634677,-0.1006331308699149,-0.5119962446693211,-0.13003099638998078,0.02465455342530686,-0.978090759225343,-2.5280916060158165,-0.3700625603687257
-2.310039587785033,-0.3780849426214279,0.1542790893922777,-0.2114188337380122,-2.3712651692918176,0.6123434883776387,0.13224201673561883,-0.03331501570835129,0.013402361949828712,0.18631623353101118,-0.012062616909884381,-0.0774961436213903,0.1592782178114949,0.033150486430583194,0.740867793973546,0.1331429824475857,-0.13665394689369303,-0.16397913264612993,-0.1998349049498913,-0.3541906167686249,1.112135333571214,-0.24479585986262062,0.24113201247541194,-0.07776121888610193,-0.21782889078048037,-0.29369937096115895,0.042925153529321414,-0.1235796832985085,-0.1309940581284918,-0.25158566212040745,0.2052434665408985,-0.2039675499740004,0.07384421996430117,0.20301203904176787,0.2652192712138112,0.3040921242853561,0.21968203831581196,0.2771552369754017,-0.2536024737822195,-0.14730313483866003,-0.37635892138629173,0.007316214761093319,0.07192203750672461,0.056120780359946554,-0.17588168753010655,0.8598214466195373,0.368334558792659,-0.3896824169651448,-0.17666230607232306,-0.35748281624010664,-0.012208793201418959,0.11682656267453156,-0.046413671554644785,0.7890785198826066,-0.16169730249628236
-1.1089836904630161,0.19047963409150953,0.9015314799698384,-0.14547857424030136,-0.06989498219050726,0.8427013185731668,-0.09396671413204802,0.1176088465365446,-0.2872603191407775,1.1648150521939489,0.1050186409561794,-0.29726685524866836,-0.23994346474222655,-0.36234584800621555,1.1075667584954587,0.3623272118167962,0.7884066976661501,-0.10293692823454662,-0.09870884057895953,0.2165237023592324,2.709406826869268,-0.3002159308502201,0.0337353327348176,-0.4522012533953845,-0.21773543712922813,-0.4471894407014084,-0.16322356874585806,-0.017040321710223807,-0.15800350059379498,-0.23314716574820554,0.0177299403723818,0.6518396772654008,-0.2405593587884406,0.5293157791585787,-0.328572753999414,1.0907408852402376,0.401241301689144,0.8604770689261492,-0.07127457055043163,-0.17900160624840392,-0.6045460331235214,0.2734129894443979,-0.0620765964520747,0.20809016323024815,-0.11834379342635341,-1.08764926297258,1.7508793131297122,-0.538413019917841,-0.31651436177514036,2.320713045121307,-0.25719429552216716,0.09012789554161175,1.2890882169703313,1.991313079537915,0.0843546425471669
-2.1368102632329493,-0.8011205416804208,0.5612483462554594,-0.16991213557241433,-2.285758915470053,1.1506258105601428,-0.0521440875096156,0.41742067830153506,-0.4828728137254813,0.6008129346994093,0.08008255866996154,0.11635630400945723,-0.1859223609416706,0.12935913557931752,1.1478227753312016,0.9207740409874351,-0.14727561156616098,-0.05122909482135851,0.28064861223857973,-1.0450261980846445,1.99071378674233,-0.13301579788503434,0.3488478547552599,0.011721339987892819,0.3363738558866559,-0.6388912796208729,-0.07563319351191185,0.34303276230212565,-0.13299079338601202,-0.26059880487114245,-0.019135728685090666,-0.39852857071466774,-0.3645383543755541,0.5876943208188113,-1.49440826515576,0.7229949833987421,0.3008171730352516,0.8329840675746828,0.2877506232778377,-0.1293666527983927,-0.6061179068862782,0.15153670371463196,0.0390751450950126,0.25748743517592937,0.41048559714952365,-0.7928518513409617,1.671598456567881,-0.852386799842814,-0.2992957746373788,0.5548701588217745,0.0741149304363016,-0.019603840192854147,0.4754146859511738,1.4425273304411124,0.21774643595189486
-1.9090475435877599,-0.7675201937221812,0.7130643495812756,-0.5413294635169279,-2.5884327134463994,1.209209730771426,0.10575467412004336,0.1008993158257654,-0.301689418651771,1.350179315151586,0.14447432035513283,-0.20829868422909645,-0.10918485215397652,0.20828336832966554,1.531668806206102,1.1116196987120237,-0.05943072535952465,0.047501945564156524,0.1818060250877069,-0.12735188675859666,3.054968615149494,0.105841868372008,0.07008608971402087,-0.5555249298197702,0.16679620736937048,-0.794006913911019,0.11321284618317465,-0.10644314303471981,0.4176262646066723,0.12332730646201294,0.20276554124474844,-0.6616069083379947,-0.1192785508729957,1.1055798896448292,-0.5942239648612632,1.2832783024504582,0.42817043604880567,1.4441855521569962,0.22920771431934003,-0.44682777397991447,-0.330344098799558,0.4918752304274716,0.19410905153995817,0.2454874483353196,-0.08096905957009579,-0.07539146558741001,2.7140974053947637,-1.256503263595147,-0.005849998013403571,1.3647115995233403,-0.003856706929584865,0.39216160114585435,1.3426231898495318,2.30836181651888,0.2940065577176236
-3.4301499523178838,-0.4738829650333108,0.7263989782157451,-0.10749453006974817,-3.4184774142159626,0.9734320323492005,-0.0884387285915347,0.23194388197794433,-0.09008143493790689,1.1927203278950294,0.283153756292705,0.18446888987397,0.17030179677747379,0.22946059284031473,1.4305132662588977,0.7752325040879555,0.1165896542382712,0.19460513185382897,0.012525049426121154,-0.713480277246376,2.950819875224819,-0.15503065395437823,0.15431878784004613,-0.23575903938255252,0.2744360666473859,-0.46304304379021743,0.159831654251017,-0.1207616712063987,0.03138207688878518,-0.10167818850754017,-0.11409031875734689,-0.6671311564177477,-0.4534033102532732,0.7205784008563452,-1.1218242676971002,1.3555585648405968,0.6092243402427313,0.8436801764167922,0.01174108164194805,-0.028058831899928326,-0.7747853520645842,0.5033323722258829,0.02644102415316446,0.19022843327218408,0.3493905601292913,-0.6820068292363834,1.8446219297738506,-0.5289218960311276,-0.09619904091460686,0.3897753681966189,0.06972010649043091,0.1881398055451164,0.750071785925859,1.6441297772550962,0.0018495014605586608
-1.1063488390623846,0.08045873096111421,0.3390310507629436,-0.2528925522297626,-0.8446825466933828,0.42646745703992317,-0.1225368001722215,-0.15557014626106033,0.10000817341366257,0.11511233475244777,-0.254112908374132,-0.17062668345379203,0.026569517253680695,0.1634215168230933,0.5384241595348189,0.2417094681808589,-0.35378903647724574,-0.26901643952850834,-0.22288530464066275,-0.2773948449439093,0.9528898682294715,-0.2890165035995973,0.14233197131869538,-0.22896877392772225,0.04085134339644839,0.15348814715194078,-0.1563578938613891,-0.3143779218846048,-0.203961075853331,-0.26344095317643473,0.21984930353900115,0.03162260216862352,-0.20514277176926385,0.11682234279030852,-0.2503139731219186,0.3651228934838111,0.2171698130696539,-0.05424537085719154,-0.2123240250783781,-0.24676147395210143,0.05308280138789932,-0.1105925284936212,0.03904331311802005,0.3101719387529354,0.17612201955995344,-0.17863063566806825,0.7339779559596562,-0.03573589972259204,0.10998384832538387,0.10466490340522268,-0.23950016664125637,0.3743586823248646,-0.07898545199327714,0.29419926038141814,-0.3267643254358413
5.036528510011053,0.32324122436060265,-2.394405885812278,-0.19680081911073924,3.566201585728422,-0.8442701626905104,-0.31305913978060335,-0.5313130087570104,0.7916573273793223,-2.6501293625800297,-0.17639349732000575,0.09367446267900813,-0.33366082704559286,-0.08424695508244644,-0.3062740453875491,-0.4884337050749936,-1.9684009676098422,-0.3859139650769141,-0.06000690873688805,1.176874774457579,-1.9781524252743952,-0.3405364246112028,-0.5112630193054837,-0.2655696385187779,-0.3315464684539967,2.196151773981474,-0.24215788513620026,-0.3750099957150551,-0.07607114524803561,-0.04157587680031035,0.5818231766718447,4.089764629946098,-0.11113896013119429,-0.7182191045510455,2.5699717936795623,-0.9550274069020637,-0.9113835893047134,-1.7650514647347326,-0.11699935277830893,0.21296675640888227,1.8882195427475401,-0.2577697019187082,-0.0809624814751066,-1.0731694854925364,-0.825874952632314,1.3627819757851205,0.6365840538390586,2.4081657373791545,1.043638049889772,-1.8144373744469058,-0.3367744698938958,-0.2757471874941507,-4.76328633366108,-1.4411407513784567,-0.2514588110879751
-0.8083274049088542,-0.0052762656752065725,0.4734138914402069,-0.1286327678814529,-1.415302190775227,0.9039088464038135,0.23830186909310083,0.2831041752373665,0.13430093537433924,0.25954335003634416,-0.011882627904009164,0.33599679054038706,0.29541778526208085,0.12990788548518753,0.6104317431172276,0.34975436221519074,0.3243430135706299,0.31673602631017417,0.19137936780474696,-0.3883924889380987,1.124835716218512,0.05608531135340874,0.2887552889975527,0.1453951525784214,0.36700922268399444,-0.008640040503602458,-0.24162729120401974,-0.08448033165472096,-0.05127233443940927,-0.09381302625792437,0.34915281727325753,-0.4059885180301734,0.07546873689847976,0.09018410388417519,-0.7634865358992757,0.37536376372115404,0.5166733635692086,0.2400082274030289,0.21382988315074103,0.09288532122233727,-0.38445962560747815,-0.16914599790570004,0.2542128154527077,0.299965818280093,-0.1984943795716596,-0.172194836431842,0.4153606423226822,-0.0723447378014812,-0.17740111713583634,0.1835421960971076,-0.20946890115195813,0.2513757834824847,0.3523451036703183,0.952818872359929,0.033012298781262196
-2.0993247207426724,-0.7362173476239693,-0.37645385577442636,-0.3055192294779665,-5.366229933328105,-0.11507484272452587,-0.21009150478276076,-0.8633635551980603,-1.5986620618482847,-0.28096733997718926,-0.10123202161026805,-1.45747314507373,-0.2905155898300735,-0.9096172727272193,-0.525870718530114,-0.19642278000412117,-0.538401996809993,-0.05182086569783354,-0.11999615576375974,0.2170055476165249,-0.4434603932902286,-0.2209391899230434,-0.10245082780172463,-1.8052959817356915,-0.01341365925522237,-0.5723503426556155,0.009086438095654487,-0.34019458006489417,-0.21739070112551792,0.0015487515531509921,-0.061174212741532216,-0.5892150234484664,-0.12071407234924589,-0.46101137724858293,-3.0911512764679285,-0.22989242772967305,-0.8938180281482417,-1.758517089138733,-0.0049423980666911775,-0.16075386411481699,-1.5859144443938396,-0.5349066172724434,-0.13573500126206148,-0.6350188012752034,-0.06100399171184278,-1.7770287292224998,-1.237407129529707,-0.24067124173123447,-0.023081116537752664,-1.5851042628399403,-0.11342658664014316,-0.28524029988264493,-0.9670488616234484,-0.5376599130266075,0.03917093475399621
-0.5562464742199568,-0.2685014973878751,0.260587483819136,0.0641444939638543,-1.8978412766985986,0.6011796636040617,0.3859906798022418,0.024301171597275992,-0.2504345062238915,0.25065512957620656,0.10035559664449849,0.04637410355651208,0.2777246912344136,-0.036106501252837236,0.969334873915014,0.4530435340607256,-0.5231578863713282,0.01839926993452525,0.04230478862584514,-0.9402474880684837,1.4146082558946775,-0.009705231023677333,-0.08579542887051289,0.22973299517391446,0.01806385304435686,-0.45573120072280576,0.17197313673248832,0.227999885948269,-0.08010744318332041,0.35306167415437206,0.46119265333895426,-0.43454202468054026,-0.022500242665151146,0.3942686676858906,-0.8330895686305979,0.6954478519396493,0.011214918098729099,-0.04886512518288163,0.1579999685858872,0.31227980652095105,-0.04417134614782943,-0.03861470166175739,0.1491162418614169,-0.24489824258059434,-0.09046976135972645,-0.6186194876116584,1.1173820400278311,-0.21254460145175977,-0.06446498466121395,0.5913032843024817,0.15868331481514844,-0.13442547959386741,-0.09577814412197895,0.9480613659319257,0.06955061994615298
-2.6568104806737467,-0.4969785876777878,0.46063437269253643,0.0021373373919426498,-2.43153153654169,0.27752339834159984,0.02602326340850163,0.14366883050670853,-0.47385002518938935,0.8321405658099477,-0.1654819182064707,-0.21555521567264416,-0.17238333590362437,-0.2097781198282516,0.8366828865600673,0.31480391327839596,-0.1530490535224342,-0.03888036575082592,-0.04161316610586393,0.13882660431205104,1.4799271584919484,-0.22908631161266904,0.18819491551677214,-0.4246320575072068,-0.029201472381176385,-0.7484737736677708,-0.19343342807688169,-0.2007203405953974,-0.1398959610724882,-0.26192429679836166,-0.2522514372354561,-0.4742798089460619,-0.18835128009182014,0.3767212403756475,-0.8392107467643419,0.81413185708277,0.03806562775639925,0.6348140785118532,-0.11997551691371178,-0.28236552227589545,-0.7699921422296772,0.16033975097247521,-0.2961850007269896,0.11204065004684245,0.1448175908848462,-0.8894949228604092,1.4350294946280913,-0.3783506980405252,-0.0890045632270278,1.2707517512957303,-0.0060749106979288755,0.03952790056501932,0.9108386890508721,1.3891011380568388,-0.16194667493810946
-2.9477216834241875,-0.33257510310724414,0.7001527188353803,-0.47124800775860665,-2.0256195765545026,0.9976459411973615,-0.12902911803445324,0.5634808657672606,-0.13408954747729493,1.2333570832076517,-0.15798585126679043,0.08038834204115067,0.1004009976965131,0.02594771781072976,1.3705215254034198,0.9628668861729978,0.19541874577138146,0.06431648658194453,-0.12124230819006779,-0.33564276203144033,2.372924379554714,-0.14744095999095566,0.1815524300771671,-0.45681357328906386,0.2556536917865701,-0.2762364820368355,0.2462308850801862,-0.08608558673246511,0.36888239770060655,0.12663469473032946,0.3109117295352616,-0.3826876539338658,-0.20913740448107546,0.7107294349712996,-0.8880940013479445,1.1443319725937093,0.737966694801431,0.7678812162544492,0.14898986810510995,-0.5444160076538452,-0.1829079090598254,0.023679917541521503,0.1393484604521645,0.3644119481521557,0.27564399781342885,-0.19949754288666288,2.239270969553894,-1.0350787864299862,-0.39446619003512107,0.6926528842852031,-0.07957393843117193,0.13641646721431822,0.9916487181276918,1.9509650749331064,0.0894499372770823
-4.240185823331486,-0.6253390875838963,0.6824006529536328,-0.27396040147189327,-3.258724669549835,1.1759184145951833,0.19288501995295196,0.2225800144793108,-0.5209742364403802,1.3451850591394714,-0.08914722508977502,0.08181698548188798,-0.23470915339229675,-0.39397548342291694,1.349488505319588,0.6363607510907289,0.3086031031965492,-0.13587053330764387,-0.06798507399122455,-0.588192895671022,2.9758448263480886,0.18587289550131317,0.03748735221151012,-0.35813087322618126,-0.006155938910462473,-0.7763329296372736,0.20452067153186174,-0.1733596847433677,0.11743188630561864,-0.2293652361670246,-0.03635372269247321,-0.6043579874236364,-0.11284392018205673,0.6484337766190427,-1.4115382206739626,1.2814443720622275,0.32319573966082155,0.8835068224859565,-0.06103305378890954,-0.494860124726299,-0.8920522729313991,0.3266790591985761,-0.19857248258712457,0.3125614333574465,0.29499091111976916,-1.4022740088172063,1.9206354187365684,-1.2267581483318852,-0.41058218803532054,1.240267344954418,-0.19113054074621535,0.1701156752067786,0.9330983882783136,1.6097670144328213,-0.022543845165749584
-2.1182256228848653,-0.4215508332830248,0.41130152473123954,-0.4450824047828445,-1.6767975300324502,1.1165850429409865,-0.17904058698748102,0.06240591075685741,-0.3766148814920046,0.8801789883850487,8.259206961783987E-4,-0.1520884239175905,-0.011598564745767512,-0.1868242030722728,1.0168309590786075,0.6571550779598696,0.16326596277049088,-0.11959134244440726,0.11288064045933421,-0.336282067209767,2.5141191038716215,-0.31178515525359907,0.2041173236705942,-0.26931966070840946,-0.06515422049745867,-0.49308106458145057,-0.08818088675629213,-0.16973478669977504,-0.05428285568654435,-0.13226545496069125,0.19612665543213714,-0.6704717167619483,-0.389253458721791,0.6918536321220755,-0.9128498815892128,0.9446684476332808,0.5613817371367219,0.8044886610820333,-0.24475461677886795,-0.2925939761943131,-0.42714385533869953,0.22216490295114816,0.09976225188511843,0.20450658179255723,-0.008825158348189758,-0.5417233692783701,1.6483261458729213,-0.939529826967647,-0.3963222473017809,0.7828255430486581,0.19662450085855526,0.2290093399449644,0.722638536574383,1.4519080615243458,0.1233549931013064
0.35121641056529185,-0.029626557457253382,0.11980425879301161,-0.6223012664549165,0.4041329149890927,0.5988110452938908,-0.2839614324312775,-0.16712170487750141,-0.29402154986271467,0.5203579959681974,-0.05786661156389621,-0.3201862173686517,-0.11552154404779633,-0.14179575911957198,0.5351210506015438,0.1383540549728623,0.2897228920354855,0.18058627092920668,0.07862025273284914,0.1669024148032484,1.0507542963037275,-0.10802959293070552,0.022027848311692157,-0.11707657548146262,0.025606733329562283,-0.334707308896187,0.009940721364490883,0.020391909999684408,-0.3259412172493999,0.10161155170910327,0.0010088192933378694,-0.026061785944845383,-0.10176135043374027,0.30537206227813873,-0.5949718571948165,0.44363251831576783,0.057708929075810066,0.19260059710121194,-0.17183092928521485,-0.23110193423893124,-0.26798999039089283,0.04004321302712173,-0.02330072376466142,0.23276726485566218,-0.007350042591882255,-0.7424232245487961,0.48123907292790324,0.40708600114405485,-0.09384912765494952,0.783916518140293,0.08510201714030788,0.23725481320741856,0.3605230599205862,1.0947376161616644,-0.1437584925127189
-3.332734586362693,0.002755415595148857,0.5505302527800843,-0.6536726209567897,-0.7202435074715998,0.2500706916451616,-0.22916551054419285,-0.23227563574059282,-0.42644452608271904,0.26586597827840885,-0.24318175480504273,-0.12041949664725399,-0.14156416305833666,-0.34424846918694463,0.08113114082009079,0.041089807968993475,0.5198535801998767,-0.1233317040321808,0.06221937851283176,0.3482076676837538,0.4869123635979655,0.14543303600704802,-0.05226760749884166,-0.2589746692741099,-0.06649926638123639,-0.28567605997408574,0.07216009411732996,0.004686842365419607,-0.03639985953121256,0.14095890162341276,-0.6693243152680488,0.13176570052694006,-0.04797320992273731,0.2739326661455485,0.17268311219358196,0.39737791103545134,-0.08759671632414327,-0.55372671731956,-0.3849427160999772,-0.07962567339685614,-0.3204986929526435,0.016591884657034428,-0.33238454788108807,0.04273730371970918,0.20691874368017893,-0.16516478356039418,0.2777464179223994,-0.4348516838213717,-0.5772535258502287,0.07958584839572218,-0.4298981664121895,0.15790401911078564,0.15527808010977814,0.8700401092334746,-0.09533164936112597
