0.21615329908281491,0.21906382809252176,0.2152868596809478,0.21722152861210695,0.21793243852234812,0.2185254702110345,0.2204300259002488,0.21757431218910997,0.2175924530252594,0.21831089320373873,0.21661244655217107,0.21875509761227035,0.21629006122013375,0.2177719683382412,0.21756476121580767,0.21789235191063971,0.2154216879763624,0.21863501731652643,0.21693519561983202,0.21780497786552014,0.21857340620445992,0.21709247465718393,0.21786024140795165,0.22002884144961393,0.21891486279734138,0.2151402890609016,0.21990283071954972,0.2171013426344577,0.21718024637053204,0.21789836797211562,0.21917119777169114,0.21797592402366395,0.2177978378745823,0.21862744719984417,0.2165545252968036,0.21612296519232857,0.21666767206014328,0.2178689223930913,0.21660503001706705,0.21666770813533928,0.21601116664536188,0.21862503652894752,0.2176157933599671,0.2184120925011584,0.21698914886680953,0.21878332771361397,0.21671423725938743,0.21761984040633522
0.21685875338456803,0.21182354010745755,0.21286415109576395,0.21303468838651637,0.21450688534346066,0.21462201854563664,0.208522036284819,0.21800312130790442,0.2124424592652928,0.2147071606277986,0.21381387361569287,0.21063289253442297,0.2153402031418389,0.21292962425894468,0.21090749886181398,0.2121877510514417,0.21749525722515417,0.2124425547277308,0.21479484003469776,0.21663188318047394,0.20842124509975854,0.21349062404376193,0.21800892513292222,0.20903967446615454,0.20975768970550923,0.2193048507004102,0.2110409304339117,0.21272145452554173,0.21278832507279097,0.21191641288363802,0.21081659274596473,0.21146176733919367,0.2134872632192557,0.2079618024851929,0.21301256337071345,0.21178979875332532,0.21080907058038048,0.2115728807096535,0.21687030607308808,0.21672613824623094,0.21317490675574524,0.20625779224972324,0.21556305334818449,0.213225610041402,0.20897788414568833,0.20973096966562618,0.21258926409203208,0.21210476590662197
-0.26557925300496066,-0.2654906394214602,-0.25773378594630775,-0.26679073018081373,-0.267039053845387,-0.26629578988709507,-0.2710183521706105,-0.2656785691844032,-0.2620949709452228,-0.27202958439952224,-0.26484163768822117,-0.2683229523336527,-0.2626444784424436,-0.27008442457258947,-0.2628360738607603,-0.26335882106924924,-0.2599985862255835,-0.2617860956068961,-0.2669762111806187,-0.26480322959180036,-0.26128721738665706,-0.25596524122333986,-0.2663797590029053,-0.26060882158059695,-0.26382820607254764,-0.25858250912133346,-0.2710077408916329,-0.25973898643923166,-0.2701688857471357,-0.2674654071432895,-0.2789958532892598,-0.26730183004586705,-0.26319309077517755,-0.26837655839278174,-0.2600190361214884,-0.2624735960993011,-0.2618664301320689,-0.261879014573617,-0.2527980450251679,-0.2701960907569637,-0.2615890317847289,-0.26649791198568806,-0.27009485218657847,-0.2700930230484785,-0.26185509011023594,-0.2713419257147141,-0.2633489461470966,-0.26292575072203384
0.10562996019266778,0.1029192074274562,0.09588863161370123,0.11028184506165654,0.10473483891355734,0.10713991989845216,0.1050432579185352,0.10834125674471166,0.11211937867637037,0.10017460880532739,0.10304023543511859,0.10753892852347482,0.10262639456621382,0.10551845019924924,0.1024494983021454,0.09837571846547315,0.10635482657634909,0.0969985982558562,0.1056475435207697,0.11558052212699804,0.1161072855927717,0.09992802206426231,0.11279109796539838,0.10181308601605644,0.10627417027983706,0.10962394421110037,0.11003718073565477,0.09777154503150486,0.10206292033506727,0.10132325291931489,0.0955226272039115,0.10102056042253701,0.10168579787395352,0.1054611241532508,0.11735653528985454,0.10349723464544804,0.10939512313058039,0.10311902673804754,0.103641345714884,0.1070907995753083,0.10915730429646271,0.10732059779028125,0.09935285324044014,0.11101961364477674,0.10430923100781599,0.11342242290740993,0.10153932692117626,0.10684218203486184
0.7229301338811985,0.7263728707664872,0.7159973232345352,0.7292922238453093,0.7258687085906883,0.7286611519879074,0.7279318325714172,0.7254437732760538,0.7286438460213793,0.7251597306885706,0.7241051258783713,0.7277661699217038,0.7160248333002068,0.7251908975169564,0.7222561525626958,0.7203056061434632,0.7209889689732565,0.7192535967883676,0.7249451831579106,0.7328764023016014,0.7302024681926449,0.7182409601328285,0.7292785669178747,0.7232107577202403,0.7240800071718159,0.722115047392811,0.7317838180863597,0.7167295740696344,0.7246399226815189,0.7232731968553459,0.7219561462532413,0.7226889273397974,0.7213322575277467,0.72520998190121,0.7297722477465733,0.7233437763129816,0.7267270653066489,0.7211187006116477,0.7175401891777181,0.7287075318470899,0.7238889688177176,0.7287189100957113,0.7213340162437458,0.7295834509739654,0.7222592898806948,0.7323039968150936,0.7222288141640298,0.7239669344573598
-0.223952044259806,-0.2290974993503156,-0.23414727535452096,-0.23555935112986967,-0.22497950991783347,-0.23187375366047114,-0.2274801902173505,-0.22503628509014584,-0.22692433297699985,-0.23012195314793954,-0.23750099877398065,-0.22258852427202355,-0.2257134843699231,-0.2327426033118913,-0.2251465222058124,-0.22172840410576114,-0.2278351304666167,-0.22636713745087825,-0.23127366742401237,-0.22540739557441108,-0.228057105437587,-0.2178113353129172,-0.22553859789766612,-0.2233894596796623,-0.22835257264470785,-0.22128042224396474,-0.22463121408460662,-0.21863713236408389,-0.23338761391611243,-0.22813307047317935,-0.22394385382594784,-0.21928811047922653,-0.22566474380287124,-0.22643052593123325,-0.23577512823812605,-0.2294698202189752,-0.23684763609107876,-0.2229358517034471,-0.2215690139569747,-0.23039437936498314,-0.23019917571628695,-0.22762155429166261,-0.226454884347441,-0.23747429928193525,-0.22756451366954455,-0.23268383077436966,-0.22963273571049397,-0.2225517922358526
-0.031271615524984,-0.03390823847165024,-0.029759083729217654,-0.03199555956985418,-0.032177073233049545,-0.029762442933485962,-0.03614841114940334,-0.0323884874356708,-0.03445594792241439,-0.03242731334508533,-0.03152810279732142,-0.031586645500758605,-0.027803490747949116,-0.03293528242214982,-0.035107036218891025,-0.031284596100888136,-0.032589749297657074,-0.029227566261150417,-0.032497212793937615,-0.03441149081658378,-0.0344622438754848,-0.03229479931015395,-0.02903712527538337,-0.028758566201188943,-0.03254572076567758,-0.032062563544751566,-0.03268130441516402,-0.035010762070213516,-0.031481145530685095,-0.03467902137608466,-0.03360412484399562,-0.031150447619672336,-0.034694168978582164,-0.03035849738534776,-0.03021759536135277,-0.03244902908577786,-0.031253191317357,-0.031559834818954406,-0.0303808150399089,-0.031105604023486978,-0.03056807402453332,-0.03447116614777409,-0.032318267525096984,-0.03154771722853998,-0.03191908576002883,-0.034603481279846,-0.030756564128971913,-0.03256407829638254
0.011280911817561794,0.006942474922946392,0.02962655845158511,0.013658362952471264,0.006557960754056579,0.012276579540116284,0.0033536381226197233,0.013313224680386312,0.013486202540189021,0.019513117006298694,0.019446228370755807,0.012983958866078575,0.020392368917188188,0.012423332839547012,0.01514491068847299,0.013801272869893761,0.013684759073833626,0.016738607767566287,0.010483786047954285,0.00435026187185021,0.008828446452300005,0.020366970651815253,0.008937770387601724,0.016647707498851,0.014615420553540882,0.014420147276721645,0.007592918237295904,0.00888404576592563,0.008118910518898435,0.00777568801950183,0.017186311256799345,0.017828877605567853,0.00978203068908308,0.011973511846426286,0.0038481085339177406,0.01607738979062434,0.00975362673682609,0.012813429249655903,0.021007071641291414,0.010695049113013952,0.00957255048277276,0.006391076863638385,0.010688801868679638,0.004124371771550274,0.017437790080133353,0.0011470861211952223,0.013298932521573032,0.020824935448077155
0.00881890535449116,0.012356083235956878,0.004391194478112536,0.019290345890829955,0.009361228835265497,0.015470680003668682,0.010802345262447477,0.013027744205583223,0.017021557874420522,0.012458158639748316,0.014754522097812089,0.01284165338534303,-5.796972864830192E-4,0.009869975398672043,0.009850524108320617,0.004125222439875264,0.008439738747221773,0.003083429232801295,0.01125988516252722,0.0199615595744354,0.01844388570631122,0.0019693791493653454,0.014866673122398739,0.007043858034719097,0.00916346340499092,0.008332846331128303,0.016191569794909724,0.0011790740674817773,0.010829225034628668,0.007388132762913242,0.0040879374768802365,0.0053612739070105836,0.006889324486122456,0.009852642157695926,0.019128903657926445,0.011728345321380706,0.01668626604952041,0.004962676301126325,0.0031802326307541085,0.015129134086035306,0.013622316818335381,0.014916683323512207,0.005510715980054024,0.014935723920325238,0.009093138068650216,0.019322401184821585,0.006947322382934641,0.010280802007075346
-0.35011021239458684,-0.36449404322773105,-0.36850906227019503,-0.3734793769598725,-0.37309026941580914,-0.36453460279696953,-0.3762619670822406,-0.3548686193040989,-0.3687267645968238,-0.35448640850183094,-0.3739520793757394,-0.3663973761690022,-0.3695257669386094,-0.36990853545684776,-0.36506337014985946,-0.3662676451124832,-0.3631296547902942,-0.37075498380309546,-0.3734644774616465,-0.37328137847094794,-0.37286385139425954,-0.3746968451320187,-0.37987246510297995,-0.3736392818630695,-0.36963777481164967,-0.3715079104218968,-0.37420049976902753,-0.35443595916280346,-0.3777081443088655,-0.38032459585319145,-0.3806636798732322,-0.38055703172017247,-0.3618323096744078,-0.3753009149354146,-0.3544104592993406,-0.36407402841724673,-0.37138071693802827,-0.35388755476899114,-0.3547534103080332,-0.36952587787628305,-0.3652122350796402,-0.37964315096842155,-0.3608163691486871,-0.3761995540593719,-0.3608392038688213,-0.37462690352964756,-0.3609408794137247,-0.37348162635398946
-0.050471223694622466,0.170670927507888,0.0944489992632776,-0.060206308670621544,-0.021903672769752917,0.08800556579068024,0.18359074679244058,-0.11043639645465433,0.25043806020993437,-0.03489409902046951,-0.09043815611428983,0.0680041374990028,-0.16342570827091213,0.08033837230791797,0.27685687128598707,-0.08165847289840845,-0.10929130039619596,-0.09550811932562857,-0.08135147271887792,0.09882640845660642,0.2457886027930422,0.17165682247727232,-0.07756733352500259,0.2817109440100312,0.15868797118944172,0.1802624479373906,0.12583589381566593,0.16285336310249968,-0.13413360919285744,0.20616972439466627,-0.17316611485374664,-0.0670753752415334,0.12832238594686343,0.12224760387506983,-0.044972219719201574,0.20325136821020773,-0.10797245449614247,0.04484419063581412,0.29208610887070624,-0.12557083128955115,-0.07338809590227931,0.21273783996399528,0.006640553347787741,-0.14619934143881969,0.14016373404049778,-0.03202515999524928,0.033512012400657216,0.17097694193912888
0.03133294603915225,0.030413142739358558,0.02920704601860721,0.028791718143340014,0.03231212599911714,0.03179540382930783,0.03074438759962725,0.029974846250048846,0.030021548596066497,0.03032076210365225,0.028673978663505233,0.03170364330838995,0.033016496307596975,0.03262159707568628,0.02963396009160777,0.03084380092990634,0.029767025039206387,0.030956578865618676,0.0313423093181411,0.029657192782980964,0.03122196234741212,0.030675296454634966,0.03181036969317908,0.03074782332618241,0.030294766274278555,0.032152976873846266,0.03287793968583322,0.031014225800767934,0.030773239082710416,0.03099339068413293,0.0330567887964475,0.03286923353886452,0.030277134676870515,0.03280589441567906,0.031191246796874645,0.030230036479255894,0.028353500082178774,0.032348973939302174,0.03016183834943166,0.03144564362780371,0.030374105119615153,0.030552638332229036,0.03233099402786015,0.032245910539895326,0.030795960146656243,0.03177708012279074,0.031292011761241134,0.031725912259066194
-0.049655529512062424,-0.07843417016462621,-0.21235815317507947,-0.03678911980889055,-0.2734016750808964,-0.2793220873403697,0.09716013008591766,0.02681927577425768,-0.15522532724758628,-0.18694199935156994,-0.21893732837058325,0.0353101076008522,0.07637623743937262,-0.1139203818349428,-0.08602968309929435,-0.02347145561146574,0.07003391545347985,-0.16222727101773718,-0.23320932266376598,0.013672270688705636,-0.0352799527114837,-0.21753639379369205,0.01465677626241201,-0.1834189872867206,-0.02024783042487559,0.04134048165548868,0.03028782435579528,-0.17889408868421447,0.033637766328553066,-0.008579382244453052,0.022496353949158103,-0.24026224755294232,0.10401028583832506,-0.08941264144893833,-0.0032370877441828387,-0.1327240722619859,0.09671557594445006,-0.09213372114697599,-0.16555312222985208,-0.17207861984213627,-0.10121024435249093,0.10378244079374638,-0.15677288007225026,-0.08234247894910471,0.1091773646038615,-0.038819823397368496,-0.11046082061139409,-0.13604059472842125
0.0430617693299924,0.044115184474848114,0.04234990309322011,0.04704722979841177,0.042265959545437444,0.04488220119419595,0.040567361709479804,0.045818912604510494,0.043193425853067374,0.04766320518779104,0.0471778958612498,0.041803575517949665,0.03512315004418363,0.04056459847715284,0.043586488354095045,0.040680597455357494,0.04311912807293514,0.041443333060975314,0.04144180957410627,0.04442250743105765,0.0440024881578223,0.03881989964418881,0.04289685358702055,0.04104591696059602,0.039737143788014455,0.03847248263791336,0.04476136902168125,0.03824334352539117,0.04485761271971984,0.041731675124282275,0.042758608341488424,0.03813604514432384,0.04248715667730038,0.03773319063237314,0.0427766329946931,0.04411591014823883,0.044385589108333776,0.03994362279852973,0.038476259277290384,0.042246397891898754,0.04382430315617408,0.04388720365970597,0.04407925574236714,0.042792882663280664,0.04203707281646369,0.0428830224142548,0.04061258651021311,0.04164786699532931
-0.2664262822574409,-0.25437878238809364,-0.23683561049821597,-0.2658983193106686,-0.28616650362872864,-0.2707779335679125,-0.2917332644405841,-0.2657872390629579,-0.30096184597968634,-0.2637470971199573,-0.24693609627557495,-0.28227784372853093,-0.2536013076664488,-0.2636643269860538,-0.2691070145189576,-0.2570785805263648,-0.2580530276046087,-0.24326229233416108,-0.25944819012690296,-0.30685769737374025,-0.28151210495993656,-0.26770758279622303,-0.28016066987756577,-0.2842574112700164,-0.2718560113165177,-0.27054087762938983,-0.29006105139062355,-0.25682567577817794,-0.24784973467920468,-0.27758444893593776,-0.27633577572068607,-0.27572710859266,-0.26110581570093333,-0.2586039540690918,-0.25198275659798974,-0.26277229579625105,-0.25348433842841056,-0.26065662261890293,-0.26079693421234057,-0.280604579935427,-0.2500853085969573,-0.2857841775094915,-0.27325206455246587,-0.2682056886465894,-0.26245211308911476,-0.27714757457230743,-0.2744606708988295,-0.26416112914453177
-0.07436383820374154,-0.08212276184007969,-0.0698569288857063,-0.07916454612031593,-0.07778377776913377,-0.07942204040993514,-0.08131672160490026,-0.07448855878185788,-0.07454439746145196,-0.07289099845392776,-0.07567671380977811,-0.07680042339103141,-0.07238776761373884,-0.07456280107953439,-0.0761816133437496,-0.07608521034325086,-0.0750096086832942,-0.07937973100739326,-0.07377620307731603,-0.07818593914985436,-0.07938740611965535,-0.07512903971902957,-0.07427727649207284,-0.07731775125895765,-0.07432528869191472,-0.07482193335329648,-0.08041406434978385,-0.0730930224000584,-0.07519365326442405,-0.07518651998653544,-0.07295716941586343,-0.07687010613401173,-0.07664182355138646,-0.07795352556752352,-0.07654617380819242,-0.08074766998521572,-0.0799162881245512,-0.07646643369390715,-0.07312665967364775,-0.07639848047097966,-0.07595943063063026,-0.08382908445182218,-0.07664657656268797,-0.0784931086285487,-0.08074077090181017,-0.07855274777429827,-0.0763474837220757,-0.0758694162289766
0.1336582105133659,0.13156999959274898,0.13057525117943058,0.12917023748406684,0.13510955929767077,0.13252384290998792,0.13447939972956202,0.13179243882273076,0.13141911014262958,0.13149810296310638,0.1283303859862912,0.13442422968382645,0.13704800007840115,0.13473195424152434,0.13114327810360377,0.13463866622878892,0.13168356586251673,0.13362623258495435,0.13291566760520443,0.13194831710636268,0.13080796861446778,0.1338238383576705,0.13332177696370007,0.13418664943771233,0.13235832840166362,0.13482848499321942,0.13404199759710894,0.13540547868769695,0.13400284278032817,0.1352497020223058,0.13728267697931465,0.13679828749210077,0.13292140468075753,0.1349139559472046,0.13066189735615305,0.13108050516745973,0.12949483094642905,0.13400481608590048,0.13347380601475947,0.13280892683251627,0.13023983658870553,0.1331959666960643,0.13388176478475713,0.1337624388141023,0.1317815309038674,0.132103820370048,0.13382566926348458,0.1339192125434223
-0.06921947074716157,-0.057784125822671784,0.005063858673688062,-0.0367279113619832,0.18409559338194129,0.0978210153829886,-0.13428452080689632,-0.2762865616868443,-0.23328397742525556,-0.21501929143170545,-0.12979771248019173,-0.028203632333628485,-0.21172218798481568,-0.10388171657918409,0.01816919993015885,-0.18934556184600515,-0.2796285413237229,-0.026804593665300885,-0.13526030069170447,-0.08565502472889684,0.07726697274752388,-0.16373782565841427,0.027556227774067306,-0.11144577624572567,-0.16914489010207648,0.19321056119164293,-0.17455634513017518,0.15725929049250825,-0.023476052418298206,0.05730154665495322,0.07341456243905536,-0.25084900507229246,0.01788163431513953,-0.047385013584023764,0.09154362183512901,-0.06848206212128014,0.06659973303535938,0.10600229843454807,0.042488679933045836,-0.17630928256962108,0.13127808244604888,0.024553351460453062,-0.01788699092482685,0.020430428168940685,-0.08270842139280332,-0.1663691148992191,-0.1374838060600004,-0.12938829047924708
-0.19735550070002778,-0.16045429791676713,-0.3043800054194934,-0.22191774783872967,-0.0792560143395599,-0.005876038976163091,0.25377591208972106,-0.11604825148639608,-0.061277844784069474,-0.14486897538187918,-0.32158771635923067,0.20309275384972642,0.09724117064476898,0.1423925753178717,-0.22405511559177296,-0.04395709312514602,-0.29595965596615414,-0.2560752497960975,-0.08534741343550346,0.09411818561374775,-0.04056810400611959,-0.35794390733623177,0.18509421106769,0.20564717589905168,-0.2482396430447732,-0.14632330779812883,0.27336499956996213,-0.1909338869330022,0.1901301670226637,0.08719940499619828,0.16785368627061256,0.08882423835877533,-0.19004387769551953,0.2436592111063233,-0.25996187163421064,-0.18409413788965326,-0.1743638566457161,-0.28398791886364094,-0.2595113288832384,-0.04475998562554219,-0.23721522262889505,0.22798483424554175,-0.21336021356546114,0.22701502834937146,-0.09893479788023048,0.014289258899372206,-0.25166434091824624,-0.011082133295029684
0.4108993778478152,0.4064948002378357,0.4063851111112804,0.40285409101054415,0.41229147169193464,0.4068557685675771,0.40957508492257344,0.40763585948205366,0.4058657942202076,0.4071190862847273,0.40232538326244743,0.40957423378035596,0.415471378403797,0.4104166873621711,0.40754643158454557,0.412229484843258,0.40843219679365544,0.4096401186860421,0.40914661564785854,0.4065644165252467,0.40311534298532253,0.4106907181194425,0.4075101571206904,0.4082290004185301,0.4065199938568046,0.4121116039311037,0.409038077890771,0.41447809980595823,0.41180406662371344,0.4127254974625944,0.4169326321968262,0.4149605318070727,0.40948511140175464,0.4102309257717443,0.40494087151843383,0.40671792833089865,0.4036750407773924,0.4103469095592997,0.40918424851320523,0.4081035067779172,0.4052153430324178,0.4089529086338497,0.41206684567397006,0.40883634884183045,0.40719421409213363,0.40599474276973085,0.41019460092794274,0.41057625792015817
-1.3702421020488573,-1.3988480809785795,-1.3809503756623775,-1.3781679911786358,-1.365518036962841,-1.3813468508446851,-1.3910820926751974,-1.382259013720218,-1.3650648264449634,-1.3856018208929153,-1.3877780730554654,-1.395365692150799,-1.3816186535357267,-1.3927864846739781,-1.3783203693939825,-1.392527484622002,-1.3744137260940719,-1.3823855364165374,-1.3815995892818982,-1.3734644445789328,-1.3847978880331389,-1.373209948289832,-1.3951926062862947,-1.3712218451749756,-1.3812918483438252,-1.377592516929177,-1.3994852807281088,-1.3819963202525036,-1.4141162130814713,-1.387142748132455,-1.3967195611451315,-1.3813076605732337,-1.3789967962876224,-1.4188317930371734,-1.392518284149753,-1.3834305868193177,-1.3859092742180668,-1.3812305553580726,-1.368687861621367,-1.3775214341068194,-1.391399002936526,-1.4018599091417299,-1.3686552669012,-1.3851631699177056,-1.3865685287203857,-1.3882717652897982,-1.3678338260432494,-1.386939882028644
-0.06342025675338003,0.04229797745509824,-0.06796463415233986,-0.07193240614337258,-0.15004624180765372,-0.15719685600352312,0.09564481365072804,0.038669862319018304,-0.06175148735301629,0.060496334380962656,0.05015894803698019,0.03019285104130323,-0.11090352633236414,0.011449998030694417,0.053814874378482515,-0.056855784500251694,-0.05497109610810955,-0.11193463391881471,-0.07493417932187597,-0.1535619162102135,-0.010719278517179309,-0.16449670423680116,-0.11044169332353855,-0.14037156619519117,-0.010029574127639595,-0.15417601492425886,-0.019318137727722465,0.03195577271399091,-0.0695123557928706,0.025474436408468495,0.08077948838273995,-0.12481756554041984,0.03750218329632147,-0.007727149723025637,-0.1011446412771808,-0.0869031247165703,-0.03219618598963963,0.016815032302072486,-0.09384637265279634,-0.04090208827468357,0.006099266558981396,-0.033436846871933386,-0.037065377779351254,-0.07890000161976446,-0.08943329688525141,0.0571648630879489,-0.12597688442707014,-0.1618972727985624
-0.14056587348954153,-0.14263506061650788,-0.1598556520429321,-0.19580369918634669,-0.15743171697267186,-0.18706041066975274,-0.19551668757858867,-0.18667772510672834,-0.09277400705301457,-0.19291776906980576,-0.1233876177009242,-0.11972030570829134,-0.18664107130708885,-0.23494079262456527,-0.1368012513190504,-0.06603937979374477,-0.0889088296567863,-0.17166407516206983,-0.19652088379656155,-0.07004624932163629,-0.04828123364926671,-0.13098115476231867,-0.06697910493017915,-0.13065968607015807,-0.15667668536830778,-0.1423769352882854,-2.8114400185479213E-4,-0.017991830274262013,-0.128871854731488,-0.1473703658867955,-0.14640169675532363,-0.16904496148830433,-0.13622387615607318,-0.057359044035455796,-0.11218125489580101,-0.18356320309413515,-0.23262125478622275,-0.02568257587438294,-0.10997234122772163,-0.050871992362226524,-0.16008884335665202,-0.023456221502370055,-0.13201029688523744,-0.1564346718285432,-0.09104914466483012,-0.11745760418241599,-0.18122709791154992,-0.13062127179426644
0.28805905815902205,0.28235997193110474,0.2863653899860578,0.3057740437949648,0.2827696265963909,0.29147149695585345,0.2717197766641272,0.297655675763225,0.2982133332911503,0.2941012026006653,0.30204791414517734,0.2821991066528622,0.27123282367817014,0.2747097503182761,0.2936879568670767,0.27434314033282187,0.2887145796085962,0.2736084935208476,0.29016628774819875,0.29615300928185256,0.2894429167627769,0.2744867839283787,0.28508062953924557,0.2778209242107111,0.28467910431861626,0.2789749911890796,0.28420274531210504,0.27215496228665653,0.2846669853914601,0.27149558201360974,0.2708105671108728,0.27754470812596416,0.27597079520756496,0.2773172119696052,0.30082443061802017,0.2934900283739155,0.29736538666088014,0.2759560354230592,0.2773022289015607,0.2901665223127424,0.2978443306113178,0.28685518344741223,0.28406018558621476,0.28538164628622875,0.2863536525436784,0.2907866023277325,0.2783468459988105,0.2890868806065012
-0.11319170450382567,-0.09866417901171515,-0.12499255511299248,-0.13656535076606383,-0.15162138095774746,-0.16302039021412956,-0.10092437319950145,-0.0775073563002925,-0.08582341199708042,-0.10971190032416933,-0.1004701084785826,-0.1312210202933833,-0.08650590159910244,-0.10171198780837104,-0.10936429414898746,-0.08133981606219143,-0.07454657116367751,-0.11353006946809391,-0.09451778832003142,-0.12782546251137053,-0.11856588486813123,-0.09209014436068896,-0.11990626002379579,-0.10164287107807345,-0.0903837284110422,-0.17335058380800528,-0.07873371873747534,-0.11779561832972771,-0.1030331912718854,-0.1186246572326049,-0.13333254630949834,-0.08257854027022399,-0.10791770576908355,-0.09450541280135663,-0.10183521769052528,-0.11376640526819218,-0.1374857833201311,-0.11482331803739163,-0.13618746826336264,-0.10516644475680646,-0.13202387107801553,-0.13106753214928116,-0.12361227593121543,-0.11101719475963569,-0.11162148024938534,-0.08003051924032602,-0.11340283275242166,-0.09862791433152877
-0.06331999484504984,-0.06774322262535572,-0.06602730232591025,-0.06526280173476452,-0.06652151732146994,-0.06269508819855521,-0.0719541998924406,-0.06563922981691439,-0.07110141834941495,-0.06493842711172705,-0.06539091156961982,-0.06699320381644866,-0.06313959673322354,-0.0641229542312079,-0.06952693970213013,-0.06811202089482632,-0.0660239554996454,-0.0651983771047517,-0.0661304619708207,-0.07053851972568996,-0.06941790893279051,-0.07148024412015781,-0.06613137794857163,-0.06775206376992399,-0.07077522238814872,-0.06665629908119375,-0.06570462794146988,-0.06904494123937853,-0.06422901025463121,-0.06827567877360251,-0.06661083026051083,-0.06804115946520377,-0.06775742395847673,-0.06861221149862237,-0.0661581439974322,-0.06632791869536628,-0.06774142496368242,-0.06601758948339304,-0.06692252284811702,-0.06580577157591548,-0.06641066749551958,-0.0704523919144624,-0.06312001091621744,-0.0634826673125922,-0.06669712360831079,-0.06739805388024463,-0.06679935465387772,-0.06709845430719605
0.2829584743594786,0.09652570350928677,0.11983278563896879,-0.11689301542486485,-0.07515363348707241,-0.19030987811518763,-0.03498568319354485,-0.07724051627815748,-0.17125462068385205,-0.1367562811624573,-0.1864018423196362,0.13949195713057932,-0.16774852304270263,0.22031319431103305,-0.13896603898047893,-0.17446979214005492,-0.013934280323817263,-0.22606436596725868,-0.26960140151101947,-0.2380312226576505,0.1039514353799443,0.11227483752708196,0.006280838546412516,0.02626945234145881,0.09342681744572419,-0.10403318235958119,-0.0818486136582152,-0.2807986648956683,-0.2178509655139548,0.09066314105043871,-0.30792296697632915,0.13356392731924124,-0.1324914432840224,-0.025538122968723848,-0.22024924135484444,-0.01633298522935792,-0.20680842275629038,0.06549698107855594,-0.12796668507128459,0.3172669090334767,-0.19839860572896106,0.16118632786165643,-0.24055577814171417,-0.19965885338034303,0.054134149480195994,-0.06514769776805193,0.22079954021903367,0.04062495465743548
-0.07861539537172736,0.11689326932479051,-0.19190148841158475,0.09181452649460989,-0.004312704068444168,-0.16621738284418805,0.123900592241339,-0.08878951251523726,-0.0072506301404172665,-0.23829906505529752,-0.12357100982501414,-0.13559168045521677,-0.16434669255926287,-0.2070948868935467,-0.039986267215584216,0.09981734628266963,0.11076033713962523,0.08325347712871985,-0.019214267027067935,0.1980497272677625,-0.14225436319087928,0.11601472359932989,-0.15406018999222693,-0.1487059554795791,0.008479106425925156,0.05473377397795043,-0.2362301343895012,0.08890122877766893,-0.017357831512883743,0.05160000175483669,-0.08317473133899066,0.10052021131506086,0.14909559588151597,-0.20065869698604388,-0.07990419568453991,-0.2558605615432104,0.22597814744819655,-0.1863720798633384,-0.14042789703883501,0.0902025540407455,-0.18578610121940195,0.08037665547926705,-0.24167270893249132,-0.025342260532592236,-0.1315484119849501,0.09719724294000444,0.014113701591796956,0.017293302182770136
-0.0867695501543399,-0.13097293343790845,-0.02559352527573533,-0.08490548596164761,0.037076857842809174,0.028276071909861294,-0.23014778878994976,-0.13390128980722896,-0.025501222523196088,-0.04295168360956838,-0.014568256034460901,-0.14720090413694625,-0.18208920659706632,-0.0721300231919651,-0.0914922642111531,-0.1341866115237119,-0.14810493804389013,-0.07091745248257214,0.01026651685466556,-0.09662760409789002,-0.0919785884583646,-0.011656686998341196,-0.12399827394987538,-0.037438787698174485,-0.1256328730293774,-0.15496102886228882,-0.13019484153199395,-0.03251757026227135,-0.1201602008997472,-0.1181382405019288,-0.14313284639842594,-0.017965181838137854,-0.20629351933406742,-0.14308535227454935,-0.11445812591723666,-0.05345139379285594,-0.1954865754956134,-0.07694036472539069,-0.016337230150963205,-0.07603144314960468,-0.08594805029071702,-0.20194884714654687,-0.02997489259825762,-0.060651939778320466,-0.20174056037952268,-0.120254664383078,-0.07588196915600755,-0.04238605386906452
0.1529122130104635,-0.15867511231130396,-0.05211510506331448,0.14965718186067897,0.08327278893857205,-0.05235773643330037,-0.10959828642145537,0.19337437693460774,0.26848169659270016,-0.0595847005537251,0.027317768286058548,-0.022917965119851193,0.23354298859313066,-0.2196971289377213,0.2610817153807527,-0.020159946853976946,0.06758707702316827,-0.1680866404780242,0.20427716529637277,0.1475403722502117,-0.20459984937805004,0.049097800274459855,-0.14337440725389516,-0.02898700655745043,0.24225616455267415,-0.014287248719673379,-0.20046606666473493,0.1828731717837163,-0.1021550706714187,-0.21259271461918225,-0.22178728016585883,0.23149613622839066,-0.2201011256074728,0.06931225579447958,0.28346166350971375,0.0842322862810863,0.0867443557918791,-0.007602008469538839,0.08772086965586368,0.11595641832149187,0.18151050381714162,0.029799837867071226,0.08023398778958475,-0.08752698116465173,0.0176227920932902,0.02407781045258475,-0.01707030888339605,0.17970977662530724
-0.17476669077851167,-0.17356018396574982,-0.17231508781207125,-0.16475141745442046,-0.17897124637762638,-0.16983535864356586,-0.17791554926163577,-0.17163485265359493,-0.16810425142351193,-0.1731942198219356,-0.16696612259956473,-0.17326701428557512,-0.1817928922845208,-0.17464072224082938,-0.17432766226849117,-0.18018255814823483,-0.17206090026626406,-0.1793943092659186,-0.17253412339289817,-0.16732163052784124,-0.16496553297751138,-0.1808433409415614,-0.16996648271818363,-0.17608648569245525,-0.1747842219462072,-0.17180586621326885,-0.17324659749744659,-0.18231633857180515,-0.17536074653597128,-0.17865520810499727,-0.18723269529593461,-0.18308974641985865,-0.17477784169613467,-0.1757289155994582,-0.1632994429387252,-0.17062317747482658,-0.16443313576451296,-0.17825188741919165,-0.17368602769337396,-0.1711285125188105,-0.16800783786975756,-0.17397767940070552,-0.18147017470906687,-0.17082362182245597,-0.17210161128925297,-0.16838431193779632,-0.17616441684241912,-0.17482047553618876
0.5701891638768829,0.5958554695613797,0.5538038279281239,0.5793615017828794,0.5836672682128372,0.5873455334285225,0.6160117747924663,0.5897869019997835,0.5658893298985327,0.5944246678364863,0.5696712899111683,0.6028440289310105,0.5850303099404756,0.5709390463605865,0.5731600884399692,0.5984107007969017,0.5617758432439647,0.6198123559568217,0.5759743988988436,0.5727367101664894,0.6084314713816661,0.5894510256324097,0.5984282301570591,0.6243846865730966,0.6169350081052396,0.5363202538124554,0.6045249331719909,0.570272547138522,0.5628789935665127,0.5623521360126992,0.6049439148458182,0.5948910961560016,0.584498121332516,0.604137461150282,0.5759828045393558,0.547032995857374,0.5753340588480294,0.6072013713433013,0.5713851861120891,0.5698360530249252,0.5799669977024142,0.5914144046621481,0.5874582318614118,0.5939203979295599,0.5840044260827835,0.5943173426363314,0.5749472439671223,0.5806221526357999
0.0288817139659891,0.03769693925974338,0.04715289805120573,0.03649011816069362,0.03754013965799179,0.04585237578159005,0.035184687177821576,0.025323979547738514,0.04221023480851449,0.04824936935789499,0.04646577463504572,0.03784466727698363,0.027867641149839657,0.041257032991468025,0.035862981103208444,0.03506125403978622,0.02400739002501298,0.037184980125329614,0.043003817572846145,0.028098707921109568,0.040278236557633726,0.031256723871310156,0.027829411601822857,0.0380875773890773,0.030645904223295557,0.03468681844747193,0.033929055796801944,0.034279286070705635,0.035088307690333935,0.03507853111050946,0.040078430194067524,0.04085566929041967,0.03209971675518249,0.04889887755944512,0.0377453080801815,0.05033096309765669,0.03883641442411092,0.03226611741619159,0.02819222478096224,0.04756948197835653,0.04356379979716551,0.039876604207599795,0.0332188383453614,0.035467014507177264,0.04082910284835954,0.0431971506914894,0.044438616892648206,0.03530258352838743
-0.39936834902125834,-0.28074224365586986,-0.2785776099413354,-0.2976718570330235,-0.37290773097507773,-0.2989658983691862,-0.301985145473411,-0.3578072002597603,-0.34615293003830233,-0.3862015309317021,-0.27277159015038843,-0.31297141790173505,-0.292829626141816,-0.27197471373288423,-0.320093304924373,-0.3308383962732809,-0.30095164943540065,-0.2756961083364435,-0.269213692491515,-0.3698507838063865,-0.28815756057489417,-0.2509359165937836,-0.293323139979416,-0.2955962192692664,-0.3175572724856788,-0.31622727678842805,-0.37810412658912274,-0.3638382861767801,-0.27873120154077063,-0.30754118366616334,-0.30749084066445576,-0.2758480825502942,-0.30567088524616454,-0.30309721511299825,-0.37735143806897176,-0.34284044245014067,-0.25032148375550733,-0.38210993984631025,-0.3456289680894417,-0.37571416742482544,-0.27341721484927073,-0.34002567841756787,-0.371240352302513,-0.27105163950678135,-0.32074014848444193,-0.28534964989335937,-0.31467999628413473,-0.3107311994965817
0.7789955578120425,0.7654735219462803,0.7943070804137287,0.778407375264685,0.7827996713273534,0.7844291220890236,0.7628700303642981,0.7764226594880325,0.7791818263967104,0.7853048763557259,0.7912769276356051,0.7719214786672035,0.7772795159017765,0.789133359801179,0.7665058434185625,0.7737731642255182,0.7805021797806658,0.7747969543917854,0.7702377907444962,0.7725498083187327,0.7584662690601345,0.7668454518118979,0.7712027305280398,0.7760303668126958,0.7553406596357614,0.7817485326455964,0.774237287963198,0.7735234290729442,0.7894072587745273,0.7923172483856266,0.7797390144900598,0.7694667593515205,0.7716608238990805,0.7570018369574212,0.765843759074764,0.7912435728543775,0.7756633111636573,0.7670537347761808,0.7874885650084505,0.7819384806542223,0.7651725676502176,0.7653228479542034,0.7746555570991568,0.7777736088187487,0.7705067158721,0.7640327557674205,0.7822341005118523,0.7656445275443498
-0.48992541019046976,-0.5591356044453923,-0.572596647225647,-0.5437887380268756,-0.49134838001938097,-0.5784900252742147,-0.48897831825683047,-0.5042581382659707,-0.5085397379901387,-0.4854233154516934,-0.5601894377255653,-0.5280131177229973,-0.5344006779325823,-0.5320552574888416,-0.5225618060375725,-0.5256030439337356,-0.5157222875155445,-0.5763025331423198,-0.5374234837133258,-0.491109275628024,-0.5524889150186346,-0.525648824275424,-0.5501588374530842,-0.5693851958813837,-0.5445675499800634,-0.5559203321349621,-0.48678583122706603,-0.5519178999449679,-0.5577437536021584,-0.5111914304080031,-0.5267171511105164,-0.5248354825831337,-0.5682841833267157,-0.5497786562783841,-0.5066540536160058,-0.48097387492962546,-0.5728356732917662,-0.49849952447222756,-0.5270652772768132,-0.4805936713374153,-0.5475263305802651,-0.4942414453653931,-0.4679729224969192,-0.547095043842258,-0.5053608001884005,-0.5546713645294375,-0.5207691060706183,-0.5739337823769705
-0.3790565224612032,-0.39459969814618556,-0.389709914071807,-0.3855406865544652,-0.37110437192323514,-0.39556689133803286,-0.3839097475773961,-0.382602051034411,-0.3881340689432543,-0.36842225012023805,-0.3876917831970117,-0.4093972658099334,-0.3960046876201716,-0.39472153415442973,-0.3932156511430172,-0.38193007177206517,-0.38839891165766227,-0.37713622064036983,-0.37208821542309967,-0.3916128111378233,-0.39704636658103876,-0.3816286710761208,-0.39550592817508146,-0.40020408356811593,-0.38756526414580345,-0.39536465434802154,-0.4007834673796026,-0.3940745725963376,-0.38878172702080743,-0.40152349961188905,-0.3842322446589418,-0.38669892746251644,-0.37986369643037854,-0.397665219633723,-0.3929637063015724,-0.3865203972033847,-0.3902902387919016,-0.3937606385605414,-0.4009242143652406,-0.39066295700650056,-0.376934790693179,-0.40162908559660604,-0.37328123630537896,-0.38540985237389386,-0.39852594510599143,-0.37886974231209347,-0.3764614031777247,-0.39099870002987214
-0.06633548242371244,-0.0683708968381884,-0.06148905830026975,-0.06884171179467174,-0.06876411903764675,-0.06697686865271442,-0.0725674403171335,-0.06620888784430383,-0.06777738556839594,-0.06546995152792821,-0.06470522084259278,-0.06804942930891322,-0.06535622224303529,-0.06721106234797616,-0.06616263628614327,-0.0666682282648072,-0.0652233016943963,-0.0654365917516315,-0.06720007197767529,-0.07198489791069702,-0.06380787372397838,-0.06631240969835953,-0.06746296903702735,-0.06652853618595848,-0.06825671540559372,-0.06418589929921205,-0.06772508509578254,-0.06465316264262988,-0.06786658006013799,-0.06800406095709115,-0.06829151375405458,-0.06976416903025849,-0.06480051447805403,-0.06655744340170168,-0.06354533734048523,-0.06533795846351644,-0.0671882327383445,-0.06317803978507838,-0.061933070887628436,-0.0699966114608044,-0.06293423384255091,-0.06957118403336539,-0.06620765147024733,-0.06841911472508545,-0.06471298971116003,-0.06979616630531076,-0.06727494256320911,-0.06671795809878922
0.0699939234775246,-0.05244307891488963,-0.03012706531106015,0.0022623665821825,0.010079302376951281,-0.024033070451653284,-0.0888138871472802,0.028802989518518767,0.03555350209741171,0.03714002125170271,-0.03129902275374242,0.031674893040600206,-0.03250610864534742,0.0455232974369896,-0.015889447382608765,-0.027186547952988162,0.03422550593136438,-0.054113873457813176,-0.02854008562678561,-0.06207168102767454,-0.13374660083702483,0.03910300241418228,-0.10131655452710094,-0.13670074853115133,-2.1526085196179603E-4,-0.07923443552353096,-0.12960862813178423,-0.00950645109509031,-0.0023580363050410415,-0.015899005515406316,0.04016277520355292,0.05366638193883096,-0.060329594960925007,0.03340475355931558,0.0209156150364336,0.0502901526043282,0.026168124918798674,0.030419881563595246,0.055116418431141234,0.03273922857513895,-0.031094006229142317,-0.13156177264396643,0.026266398823585745,-0.035118016927846024,0.06493415558826937,-0.02726422000864952,0.057675772668830706,-0.1036625464979498
-0.007240293960509149,-0.014855475975127838,-0.001299076020837932,-0.030962952155745956,-0.0051560881392445305,-0.021836677549626596,-0.009496873939601505,-0.017539553312582452,-0.02603296643711926,-0.01547258139967495,-0.023136901841248333,-0.015530898263924712,0.02206971013865287,-0.008943569292155696,-0.009863260450590201,0.007734743697378671,-0.009603711070438028,0.008880682035558926,-0.013588022927545754,-0.0310769282317198,-0.0294314198777635,0.011741575943639317,-0.021609084446162292,-0.0031062871469255166,-0.008991327737188163,-0.008243902885615705,-0.021051233260645365,0.0185846539098124,-0.009821407972487076,-6.437813830173478E-4,0.0170537993161444,0.008671350536316748,-0.0035650930018487734,-0.007557378622993269,-0.03052831914249671,-0.016276978054408656,-0.02725516709047479,0.004045638654373744,0.0030844524094818374,-0.02131687817621468,-0.020403486677092818,-0.01902619335838528,0.0061092524461417805,-0.02078773089476383,-0.010608929407761224,-0.02873665165042852,-0.0032714771701366522,-0.009393697143605804
0.1190113308177707,0.11017289184406374,0.11483077675459048,0.09887514143880785,0.10996787452452725,0.10321417037936932,0.11685600581664624,0.11426718295610677,0.10799375789789942,0.12505363002852268,0.10545528450056986,0.11619191296025687,0.11217443022575384,0.11731566216978855,0.11505050682466036,0.11642019371447114,0.11447495732412963,0.1078777817689754,0.11816824219979459,0.10782798467743783,0.11708287748552942,0.1209742349004093,0.11679815820704562,0.10289322291515976,0.11656463915469073,0.12651257834701188,0.1085378521146555,0.12585010805253277,0.11302066217376958,0.1215342777706765,0.134206805315094,0.1147092474415996,0.124271526636049,0.12339273345589563,0.10435045280722889,0.1059182557280801,0.09949501997154467,0.11855112877298142,0.11890781645679875,0.11140051860694215,0.11594281755678174,0.109209102947651,0.1191922896917252,0.10305949546093884,0.10777950747200538,0.10535599022172107,0.11685498753869573,0.11431167175292556
-0.02357956173202239,-0.02509295742324808,-0.018447820484371935,-0.024193325241638402,-0.026446664754593795,-0.02300062299285729,-0.029293636024193697,-0.025033811695037673,-0.02454010287970127,-0.023836867308485228,-0.02196174142840563,-0.02543100567504258,-0.024855592019270453,-0.025274317635319083,-0.023227887930097578,-0.02600023929233859,-0.023863589874208124,-0.02369212023742192,-0.025575269835437727,-0.02702407094805017,-0.021776666837330826,-0.02277793625451253,-0.02492351214222546,-0.021880906490552077,-0.024239907196390742,-0.022484321144953325,-0.026376109601054704,-0.02390429425924787,-0.027168893777043204,-0.025744613016991106,-0.0307407488726482,-0.02814572371775049,-0.024633812019324856,-0.024568093221579382,-0.02201418593084078,-0.021279199641302763,-0.024421797226845374,-0.02178761783811961,-0.01760069254262541,-0.02639201201874698,-0.021420899778067853,-0.025913879923147445,-0.02462518704456313,-0.027418605208445964,-0.02229779898297323,-0.02917376402690486,-0.023975970179214177,-0.024133452700004072
0.028354786527536296,0.04580688099943373,0.01484454106170876,0.012954361493053292,0.017070199465983395,0.022920080238539003,0.05294342419992317,0.044514284500645124,0.021428662316711058,0.027771408648193302,0.02843220853470352,0.018150446669742023,0.02599672802387053,0.035283581489352414,0.02920782967130769,0.019987987833289953,0.03506165500847414,0.02464799509957688,0.030471567443679827,0.023792025500182,0.02214525266500628,0.036030919741979944,0.025531762157092033,0.02381419770597319,0.053204859326019524,-0.0017894372649667537,0.02336338612744986,0.03498797431300449,0.014601277759052057,0.03199423156053239,0.022525584007997732,0.030537605180064945,0.02792536853755222,0.04100856573923866,0.0301857624696391,-0.023796006513010698,0.025146753773780863,0.03953254306690237,0.03134738504735721,0.014728982522659004,0.035179362439221096,0.023332733213537057,0.03903849133536625,0.032318727453682666,-0.03241605982562267,0.012964947106204654,0.022110334054164765,0.02909003739496963
0.0538867449609979,0.05122140884386075,0.06447621423020931,0.06512912815789933,0.039727273837617025,0.048291721951637376,0.032479616766450795,0.06295206141593004,0.045689421194708674,0.06349777120936909,0.06996393679495314,0.04036913788745997,0.032534581997516576,0.034421381051770436,0.060462042379533856,0.04693681837388463,0.0585368385341504,0.04907805570702228,0.0429130404465691,0.0469817822465816,0.04001659431430686,0.04266431056636983,0.04149243113662922,0.04690870070743447,0.04226784287343715,0.03540055269127272,0.04199064516216002,0.04527936803244834,0.05785498115922531,0.04565444405158596,0.04242347504467243,0.03192133089136119,0.05239569760123125,0.026473836801062772,0.04298534853203269,0.053974282519689144,0.05783022915627965,0.041133591660393785,0.04952074747945151,0.04027634880794322,0.05264921945423502,0.047406240564142985,0.053564061890978,0.03816711348780564,0.04872984389375266,0.03416198264264411,0.04020068357030995,0.04655850414448273
0.05270834094770478,0.030850352848493027,0.05468957678444996,0.0398963621608874,0.03641750772019763,0.04332581831174636,0.027428226229621232,0.04006243437211877,-2.863980019964919E-4,0.07529971392497183,0.048354742873367086,0.050543931989266086,0.07120218196961575,0.04870640585546492,0.006545429380927825,0.06230251071732328,0.03792204548457679,0.05974500461747627,0.04143487439649222,0.025157572996096687,0.01755847882319058,0.01718895260539994,0.07727872845194265,-3.5715773070069806E-4,0.011401916448886303,0.042616339059036286,0.045864636126051385,0.01118099612503275,0.06167320927850694,0.019463314473608887,0.0783490158813217,0.04749735326087624,0.04455562729711953,0.05443290402410629,0.04452122664649433,0.03266710376555061,0.06435008599798181,0.044757412779049176,-0.0021466480875509592,0.07170793131443899,0.08390931251828194,0.02786690541808766,0.05731897650965868,0.03335099934710565,0.05059960750716063,0.035862894026494604,0.05702034443158522,0.021919865973887596
-0.19924798797846993,-0.218937377186169,-0.19053550750240036,-0.20364007227637979,-0.19966793503872401,-0.1950400052434741,-0.23453271471729148,-0.21105003866517955,-0.2040005094829302,-0.20846184015180633,-0.20837458745321338,-0.2110032901192857,-0.20035199227224915,-0.21229466160125757,-0.2132204371939071,-0.2045154887531432,-0.2017531441380673,-0.19350103584292255,-0.2056017637140645,-0.20541453098817258,-0.20180106231433356,-0.19502650367469337,-0.20551830270497798,-0.19694787188534196,-0.21973527344989527,-0.18185885706592064,-0.2166412476372101,-0.20457573095960094,-0.20866330433814378,-0.21505125911407239,-0.2228182256593379,-0.2074459718753084,-0.20653140226602987,-0.21750928390372312,-0.2025161496575055,-0.18997292596039142,-0.2061859209679187,-0.20737464713088818,-0.1875835103217189,-0.212800930295475,-0.20178189667276994,-0.2181506683395975,-0.21124086882366078,-0.21290085159424746,-0.19810758904814657,-0.21920997995861521,-0.19839456685048174,-0.19472443065825545
-0.2762045880427485,-0.2771419072552761,-0.2820216060021096,-0.2816456984763576,-0.2728004368962979,-0.2779019869730941,-0.27329050600987287,-0.2772514239810164,-0.2780059767704025,-0.27711177760236677,-0.28259656615544587,-0.2746942654722192,-0.27394912687247713,-0.2759600561760753,-0.2762524875393682,-0.2741338035900513,-0.28038401518305633,-0.2775083742352066,-0.27691943463347857,-0.27751004777838423,-0.2828026628773417,-0.27669759372604275,-0.27872514609364357,-0.2763236917405969,-0.2775241674595065,-0.2775474696642837,-0.2742908780374613,-0.271352068371856,-0.2735668794547691,-0.2724779208089558,-0.2678695069459166,-0.26955483747142805,-0.2780291679213245,-0.2735659798806834,-0.2812773963633844,-0.2795429662180047,-0.28246950258109815,-0.2763343821629802,-0.2792713705685201,-0.2764733981838628,-0.281002204665671,-0.27335449791351263,-0.2738693381746847,-0.2772562670197777,-0.28042594981948843,-0.27776642563360354,-0.2774327757556575,-0.274560983474552
-0.10253050876661343,-0.10324482480694348,-0.1057843579085549,-0.1092336926693156,-0.09922899988189213,-0.10583757297367967,-0.10002855411693284,-0.10454540031547561,-0.10740690365953155,-0.10388058880647126,-0.10843240428688235,-0.10343748463242511,-0.0981907543637534,-0.1024761433014243,-0.10329693654135882,-0.09893619653539243,-0.10475529122137103,-0.10009911498517456,-0.1034846809769183,-0.10680415806538143,-0.11038909515152039,-0.09948574120210324,-0.10547818435284273,-0.1027163928761839,-0.10304596493988712,-0.10505748503342402,-0.10281344451616244,-0.0979924595144519,-0.10119239550405505,-0.09995471818560708,-0.09352992602817413,-0.09637575395841327,-0.10308049106128488,-0.1018330595647124,-0.11015727366985797,-0.10599981881265842,-0.10964067595067005,-0.10083770384087556,-0.10493611014798593,-0.10439677726272313,-0.10781403760763904,-0.10311547752919986,-0.09794045199436804,-0.1043286381534159,-0.10525049095014358,-0.10601475284350644,-0.10203872292970703,-0.10274619157723129
0.06787643141293073,0.06789651903949138,0.06398113050623204,0.0690278683449138,0.06871025827339818,0.06920646699828141,0.06938477632052935,0.06863384854466255,0.07021820872220907,0.06781513655866823,0.06671488391458025,0.06979535597816866,0.06627831552297093,0.06874252992373586,0.06729615266307516,0.06642647274888261,0.0668529960752252,0.06512310874382785,0.06814830283438984,0.07107536774015476,0.07059148340803406,0.0649196301797321,0.06940093310188543,0.06705355690617809,0.06716899734146659,0.0689347744191347,0.07078660640112903,0.06650977094962744,0.06837303509091518,0.06843917925461154,0.06793923778962647,0.06783410553859885,0.06728852191128322,0.06881464896620423,0.07077740963281215,0.06756564727824659,0.0687623660711192,0.0667854476208893,0.06589159450552295,0.06946646106517607,0.06810924093075967,0.07031463957094736,0.06657043988377409,0.07026537508911307,0.06730286034594517,0.0713523143258412,0.06694307143337377,0.06855937489833405
-0.3766680417833827,-0.3777449979725318,-0.3758061855796488,-0.3763117902155362,-0.37674290467502064,-0.3749993373057979,-0.3775755269259447,-0.376827204913417,-0.3740950703629314,-0.37748712423035397,-0.3765901323649461,-0.3748444510146142,-0.37562831295183424,-0.3755093606995205,-0.3774100161422203,-0.3772172364071325,-0.3767832169225376,-0.37772407560394367,-0.3751733824393583,-0.3749045062383115,-0.3733179214259367,-0.37622776857243895,-0.3742609927236612,-0.3757244577270734,-0.3751420866769017,-0.3733367603407613,-0.3761008173501084,-0.3766031335046841,-0.37756188031143384,-0.37745897055903305,-0.37968473320084045,-0.37621212145230865,-0.377479083907735,-0.37363335459826896,-0.37212939111483095,-0.37598532273677315,-0.37526256852089235,-0.37588713069075624,-0.37366513506076066,-0.37543905265251426,-0.3745038327257044,-0.37656233220157126,-0.3792900815258997,-0.3757990443726845,-0.3761418772712617,-0.37549923020616177,-0.3759090919771369,-0.37513817554306533
4.2740783349390224E-4,-7.245456731008845E-4,-0.002157488838329189,-0.005365663023714825,0.002399660650636776,-0.0027419914196077726,0.0021696192974391703,-0.0017780638516763383,-0.003728471840713518,-0.0017587986698829438,-0.005324118213715288,-2.3794790808568587E-4,0.004073545203735775,3.3273535023613205E-4,-6.835288867815234E-4,0.0030392410024917644,-0.001367839416539154,0.0019877831955414722,-9.8479147168873E-4,-0.0029746271521839834,-0.00539918894875141,0.0025727507750236776,-0.0019806172760014956,7.549008022928088E-4,-3.2617351996232187E-4,-6.414789038859302E-4,-1.0391447219952313E-4,0.004327294730146209,8.683659389075906E-4,0.0028279188407446198,0.006393226232888716,0.004459114391197427,5.010888840665355E-4,6.152519852598738E-4,-0.00545327896594557,-0.0027488319593321022,-0.0051892717881030885,0.0019903165025391867,-1.0397343071415999E-4,-0.0016199062488114712,-0.004393534654438968,-2.739231230275604E-4,0.0031143889778330967,-0.0011802670832875757,-0.0015965721640705949,-0.0030420440627307093,6.639205267300256E-4,-2.8110590926639766E-4
-0.021612118734613855,-0.021456711597225824,-0.02226194473997318,-0.021916262137604163,-0.021205600070598685,-0.021237854264098202,-0.020698370556503434,-0.021601796208545652,-0.021130849887708934,-0.02168818372549531,-0.0222022967235228,-0.020808315127192185,-0.02104469358561147,-0.021069257552798693,-0.021646804311364364,-0.02139646028349954,-0.022016825976671744,-0.021587884217248783,-0.0214361794329513,-0.021209933058219013,-0.021085173166019072,-0.021490027171653457,-0.021172767513781145,-0.02092453145053306,-0.021014932009769168,-0.021300612904346608,-0.020815462350876265,-0.021207164758802834,-0.02171183316231809,-0.021221514506881145,-0.021222779240090986,-0.020878382098305,-0.021670081038642205,-0.020620024212514697,-0.021231758974466355,-0.02179781573667092,-0.021866718730226668,-0.02119139832338073,-0.021271288931645718,-0.02128346670048371,-0.02170616798312364,-0.02101121159980662,-0.02166433872017679,-0.021177760812408714,-0.021629397020012604,-0.02103225635929286,-0.02147161819873567,-0.02113597627540537
-0.11296003562625251,-0.11449438440165689,-0.10743138758429942,-0.11401127098467713,-0.11655017086556925,-0.11204199113450569,-0.11532070245016972,-0.1129235637009228,-0.11222387080600796,-0.11106866369785309,-0.11003498687075637,-0.11291473868772933,-0.11038068561848939,-0.1098479608884286,-0.11289933261303527,-0.11489606649355603,-0.11161583402963596,-0.11396603190829936,-0.1100541835313703,-0.11646541914529293,-0.10785287984431925,-0.1143276222813445,-0.11210506475294758,-0.11323849925122793,-0.11184669367301812,-0.10822911726527272,-0.11564372394407928,-0.11112193810426527,-0.11422183450409708,-0.11278716642238834,-0.1155431581760287,-0.11680584120405643,-0.11063841058247573,-0.10926058124063892,-0.107534977825487,-0.11219962319066412,-0.11124023043980402,-0.11083181375920353,-0.1065615339209055,-0.11384169786941292,-0.10756675827550091,-0.11641701738101111,-0.11415104377831341,-0.11176980097241679,-0.1119175630825997,-0.11316449132347882,-0.11190614120363229,-0.11377665545283827
-0.737740273508323,-0.7236624293851494,-0.7179317245732063,-0.7281865002044065,-0.7314714405489411,-0.72906155699802,-0.7268836647109066,-0.7349572424205101,-0.7380988745313858,-0.7338516705069933,-0.7296845089334876,-0.7539671933856777,-0.7224060904862915,-0.7229169509914632,-0.73850048729286,-0.727523480121516,-0.7303249770298365,-0.7158595043656776,-0.7236063250247796,-0.7294341525108872,-0.7372638597576768,-0.7478451202315293,-0.7384678543126602,-0.7394027293930504,-0.7292976633877718,-0.7214977761483278,-0.7425560462912285,-0.73364644323237,-0.7265503976910146,-0.741257026474532,-0.7332266019583565,-0.7510540380384109,-0.7115090937745875,-0.7362894500971187,-0.7242863053274686,-0.7197787024498514,-0.7156812142727188,-0.7434823805789402,-0.7446972231806182,-0.7411296627896091,-0.7441167364364872,-0.7602320651298206,-0.7386255382694965,-0.7157825433496143,-0.7217621432496824,-0.7141794204025906,-0.7278849211454728,-0.7319551032327021
-0.198757683637288,-0.02607736086182999,-0.15142774043950408,-0.012854155433784955,-0.2088878311579436,0.10339169779527174,-0.24529852161184998,-0.12592532463138628,-0.20770075988492814,-0.07522726236804902,0.008920116953010091,0.026369969540460572,-0.10726705283839622,-0.18047529821746885,-0.07880313404073919,-0.16858618278835502,-0.2023382645050794,-0.12577738054677173,-0.19477868453885833,-0.14485756181565418,-0.08179754365930136,-0.14765055553809744,0.0914380538702056,-0.2676745083497442,0.05057889501723569,0.14178399519685841,0.0819410385221972,-0.19312068242249503,0.051306126024667636,-0.1362876185093187,0.06352027317325387,-0.18986046334236137,-0.19420468401893662,0.16780933138457396,0.09219254232234525,-0.09782303885103831,-0.09257293056054135,-0.05546260392139948,-0.15199864229154852,-0.18145050447269964,0.09526948148019579,0.08363551911065865,-0.043613537779752534,-0.3088392196022728,-0.09447047456510455,-0.17099929199202868,-0.14118390118627416,0.007317775278311876
